%YAML:1.0
---
opencv_ml_svm:
   format: 3
   svmType: C_SVC
   kernel:
      type: RBF
      gamma: 5.0000000000000003e-02
   C: 20.
   term_criteria: { epsilon:1.1920928955078125e-07, iterations:1000 }
   var_count: 7
   class_count: 10
   class_labels: !!opencv-matrix
      rows: 10
      cols: 1
      dt: i
      data: [ 0, 2, 4, 6, 8, 10, 11, 12, 13, 14 ]
   sv_total: 1691
   support_vectors:
      - [ -5.95906448e+00, -1.80570087e+01, -2.53673706e+01,
          -2.26623020e+01, -4.66772842e+01, -3.17501602e+01,
          -5.07516861e+01 ]
      - [ -6.70676231e+00, -1.97983208e+01, -2.66556911e+01,
          -2.51856747e+01, -5.17707253e+01, -3.79678307e+01,
          -5.12601700e+01 ]
      - [ -5.79444122e+00, -1.58167496e+01, -2.30733318e+01,
          -2.21578274e+01, -4.53029861e+01, -3.24597549e+01,
          -4.49863014e+01 ]
      - [ -5.82389116e+00, -1.61168957e+01, -2.25345936e+01,
          -2.21718979e+01, -4.45326347e+01, -3.02359276e+01,
          -4.66295166e+01 ]
      - [ -6.16091776e+00, -1.73152122e+01, -2.46215725e+01,
          -2.50546856e+01, -4.98928185e+01, -3.37723045e+01,
          -5.61243172e+01 ]
      - [ -6.08623648e+00, -1.76265945e+01, -2.87911797e+01,
          -2.33559437e+01, -4.94399605e+01, -3.22735672e+01,
          -5.13685646e+01 ]
      - [ -5.61684132e+00, -1.75720825e+01, -2.11523838e+01,
          -2.33923969e+01, -4.56905441e+01, -3.30112267e+01,
          -4.71606140e+01 ]
      - [ -6.36193752e+00, -1.65041008e+01, -2.47877178e+01,
          -2.50745430e+01, -5.00070496e+01, -3.33443642e+01,
          -5.29532852e+01 ]
      - [ -6.20899820e+00, -1.71932106e+01, -2.49220066e+01,
          -2.40852127e+01, -4.85888252e+01, -3.37336578e+01,
          -5.47943993e+01 ]
      - [ -6.04258442e+00, -1.68563290e+01, -2.59619923e+01,
          -2.40224609e+01, -5.18752632e+01, -3.74726715e+01,
          -4.90163269e+01 ]
      - [ -6.16836500e+00, -2.05099182e+01, -2.30189285e+01,
          -2.40367966e+01, -4.85671921e+01, -3.42942162e+01,
          -4.76369705e+01 ]
      - [ -5.93854284e+00, -1.64724903e+01, -2.33685322e+01,
          -2.32414970e+01, -4.66086044e+01, -3.18010902e+01,
          -4.76202240e+01 ]
      - [ -5.82137918e+00, -1.83401661e+01, -2.27855167e+01,
          -2.74293766e+01, -5.28088036e+01, -3.81882477e+01,
          -5.29711075e+01 ]
      - [ -5.86086082e+00, -1.87964458e+01, -2.62090092e+01,
          -2.24240170e+01, -4.70901031e+01, -3.26332970e+01,
          -4.70841255e+01 ]
      - [ -5.96258736e+00, -1.72094383e+01, -2.90989037e+01,
          -2.25136929e+01, -4.88520126e+01, -3.11189842e+01,
          -4.85315933e+01 ]
      - [ -6.08876038e+00, -2.01104031e+01, -2.48882084e+01,
          -2.34067211e+01, -4.75565987e+01, -3.42074318e+01,
          -5.02226219e+01 ]
      - [ -6.01216125e+00, -1.62904339e+01, -2.38154144e+01,
          -2.34666290e+01, -4.93851089e+01, -3.19782867e+01,
          -4.71129379e+01 ]
      - [ -5.94238997e+00, -1.51078281e+01, -2.30961876e+01,
          -2.24790516e+01, -4.72244377e+01, -3.08632774e+01,
          -4.52767372e+01 ]
      - [ -6.30510569e+00, -1.81255856e+01, -2.53870697e+01,
          -2.96733036e+01, -5.81400185e+01, -3.87510567e+01,
          -5.72869034e+01 ]
      - [ -6.55177450e+00, -1.81803055e+01, -2.59772606e+01,
          -3.01201305e+01, -5.81717224e+01, -3.92136612e+01,
          -6.07455559e+01 ]
      - [ -6.69820404e+00, -1.78457642e+01, -2.81347923e+01,
          -2.50626850e+01, -5.17275620e+01, -3.42891159e+01,
          -5.27055473e+01 ]
      - [ -6.27417660e+00, -1.67301197e+01, -2.37125664e+01,
          -2.46563034e+01, -4.88934021e+01, -3.30611000e+01,
          -4.99921875e+01 ]
      - [ -6.41336966e+00, -1.91029739e+01, -2.57013817e+01,
          -2.59055176e+01, -5.18945236e+01, -3.59642944e+01,
          -5.22945061e+01 ]
      - [ -6.37820482e+00, -1.84541893e+01, -2.44487743e+01,
          -2.36682281e+01, -4.79417114e+01, -3.29806595e+01,
          -4.82524033e+01 ]
      - [ -6.42003250e+00, -1.93227539e+01, -2.56210003e+01,
          -2.60312347e+01, -5.20298386e+01, -3.60679169e+01,
          -5.24732704e+01 ]
      - [ -5.72490835e+00, -1.74868298e+01, -2.30480576e+01,
          -2.07920513e+01, -4.41083603e+01, -2.97015648e+01,
          -4.27437172e+01 ]
      - [ -6.30358219e+00, -1.80861340e+01, -2.60300903e+01,
          -2.99371548e+01, -5.99010468e+01, -3.98347740e+01,
          -5.79303970e+01 ]
      - [ -6.17016172e+00, -2.04553833e+01, -2.30790901e+01,
          -2.40470581e+01, -4.84522781e+01, -3.43253593e+01,
          -4.77127686e+01 ]
      - [ -6.25474167e+00, -1.88027744e+01, -2.46427860e+01,
          -2.58810711e+01, -5.23967896e+01, -3.64829483e+01,
          -5.11854858e+01 ]
      - [ -6.02785826e+00, -1.69756508e+01, -2.24940510e+01,
          -2.47758789e+01, -4.90864449e+01, -3.36809349e+01,
          -4.85606766e+01 ]
      - [ -6.43450546e+00, -1.80954647e+01, -2.54994488e+01,
          -2.68513107e+01, -5.46087646e+01, -3.59330788e+01,
          -5.30482750e+01 ]
      - [ -6.53134441e+00, -1.90003014e+01, -2.79217243e+01,
          -2.92638245e+01, -5.89081459e+01, -3.90227051e+01,
          -5.79216995e+01 ]
      - [ -6.16593027e+00, -2.09887791e+01, -2.30017262e+01,
          -2.41235027e+01, -4.88070602e+01, -3.46381264e+01,
          -4.77422867e+01 ]
      - [ -6.43739843e+00, -1.82246323e+01, -2.58026428e+01,
          -2.68394375e+01, -5.67186966e+01, -3.59792061e+01,
          -5.31608810e+01 ]
      - [ -6.41511059e+00, -1.90423069e+01, -2.59327698e+01,
          -2.59233532e+01, -5.19594002e+01, -3.59913673e+01,
          -5.26707420e+01 ]
      - [ -5.66443491e+00, -1.77930565e+01, -2.29864082e+01,
          -2.20172424e+01, -4.46674232e+01, -3.10819111e+01,
          -4.51989136e+01 ]
      - [ -6.34209061e+00, -2.15621490e+01, -2.70588341e+01,
          -2.58567181e+01, -5.23145485e+01, -3.67407913e+01,
          -5.68976288e+01 ]
      - [ -6.33617401e+00, -1.67161579e+01, -2.49681778e+01,
          -2.51760654e+01, -5.13676682e+01, -3.35413208e+01,
          -5.03045311e+01 ]
      - [ -6.33744001e+00, -1.68688774e+01, -2.43797798e+01,
          -2.50352592e+01, -5.05492172e+01, -3.34775391e+01,
          -4.98539238e+01 ]
      - [ -6.76702929e+00, -1.96566448e+01, -2.69755688e+01,
          -2.86829224e+01, -5.73632927e+01, -3.85160065e+01,
          -5.66127815e+01 ]
      - [ -6.00733709e+00, -1.86491299e+01, -2.51741104e+01,
          -2.57111816e+01, -5.11549606e+01, -3.50805588e+01,
          -5.41987495e+01 ]
      - [ -5.99613047e+00, -1.61097679e+01, -2.41704388e+01,
          -2.40973110e+01, -5.00410500e+01, -3.21656380e+01,
          -4.82447624e+01 ]
      - [ -6.17232943e+00, -1.78821869e+01, -2.37985420e+01,
          -2.47910805e+01, -4.98324127e+01, -3.49391136e+01,
          -4.92131386e+01 ]
      - [ -6.99787664e+00, -2.00757484e+01, -2.74066868e+01,
          -2.74466591e+01, -5.52502556e+01, -3.82373123e+01,
          -5.51912956e+01 ]
      - [ -6.44963741e+00, -2.00979996e+01, -2.65379124e+01,
          -2.70503635e+01, -5.41912041e+01, -3.75469017e+01,
          -5.41909485e+01 ]
      - [ -6.23652840e+00, -2.00512695e+01, -2.68613701e+01,
          -3.04709778e+01, -5.97818260e+01, -4.06922493e+01,
          -5.92982559e+01 ]
      - [ -6.51835060e+00, -1.74056759e+01, -2.65914059e+01,
          -2.64850674e+01, -5.30528984e+01, -3.79114342e+01,
          -5.44515152e+01 ]
      - [ -6.43439865e+00, -1.85299873e+01, -2.55859928e+01,
          -2.33440208e+01, -4.82595329e+01, -3.27265091e+01,
          -4.80695992e+01 ]
      - [ -6.49365425e+00, -1.97536602e+01, -2.55916462e+01,
          -2.47406349e+01, -4.99652290e+01, -3.61823273e+01,
          -5.10089264e+01 ]
      - [ -6.40185308e+00, -2.17663345e+01, -2.62790451e+01,
          -2.58203754e+01, -5.28561554e+01, -3.67068977e+01,
          -5.19450073e+01 ]
      - [ -6.41754150e+00, -1.71830597e+01, -2.54977512e+01,
          -2.55259094e+01, -5.24605064e+01, -3.41183777e+01,
          -5.10676689e+01 ]
      - [ -6.37252045e+00, -1.91352158e+01, -2.53726254e+01,
          -2.53571758e+01, -5.08106956e+01, -3.71923943e+01,
          -5.16308556e+01 ]
      - [ -6.83424377e+00, -2.09299622e+01, -2.89558792e+01,
          -2.90347977e+01, -5.83653145e+01, -3.95057755e+01,
          -5.83883705e+01 ]
      - [ -6.49837255e+00, -1.92635841e+01, -2.72917099e+01,
          -2.57999210e+01, -5.26901817e+01, -3.62592087e+01,
          -5.26944466e+01 ]
      - [ -6.58603573e+00, -1.89064598e+01, -2.63092709e+01,
          -2.72088795e+01, -5.39940414e+01, -3.71586151e+01,
          -5.54575577e+01 ]
      - [ -6.41046000e+00, -1.68503323e+01, -2.61498413e+01,
          -2.49297390e+01, -5.17375069e+01, -3.35268593e+01,
          -5.05107765e+01 ]
      - [ -6.57888174e+00, -2.28757439e+01, -2.65233765e+01,
          -2.61689682e+01, -5.34705734e+01, -3.80309753e+01,
          -5.25951958e+01 ]
      - [ -6.71236801e+00, -2.03742542e+01, -2.70252457e+01,
          -2.59210968e+01, -5.25557480e+01, -3.68176460e+01,
          -5.30379486e+01 ]
      - [ -6.55718374e+00, -1.63303547e+01, -2.54262161e+01,
          -2.47434978e+01, -5.05809441e+01, -3.37907410e+01,
          -4.99538536e+01 ]
      - [ -6.76809120e+00, -1.93092728e+01, -2.67205620e+01,
          -2.85728397e+01, -5.84529953e+01, -3.82407837e+01,
          -5.62253151e+01 ]
      - [ -6.65299034e+00, -1.76003494e+01, -2.58846130e+01,
          -2.52340069e+01, -5.08597336e+01, -3.50521202e+01,
          -5.18355141e+01 ]
      - [ -6.73482275e+00, -2.14712315e+01, -2.76171837e+01,
          -2.69169769e+01, -5.43361092e+01, -3.79584770e+01,
          -5.48533478e+01 ]
      - [ -6.56174898e+00, -1.98997746e+01, -2.59945107e+01,
          -2.84809208e+01, -5.57527733e+01, -3.85137215e+01,
          -5.70777397e+01 ]
      - [ -6.44718695e+00, -1.78866444e+01, -2.47594681e+01,
          -2.60555859e+01, -5.22424316e+01, -3.86890945e+01,
          -5.15812416e+01 ]
      - [ -6.78064775e+00, -1.85200977e+01, -2.83323593e+01,
          -3.04796524e+01, -6.10006866e+01, -3.97939987e+01,
          -5.99425354e+01 ]
      - [ -6.63585377e+00, -2.08208561e+01, -2.59865704e+01,
          -2.54664211e+01, -5.65219650e+01, -3.68309517e+01,
          -5.11929283e+01 ]
      - [ -6.68051863e+00, -1.97708530e+01, -2.77044792e+01,
          -2.66930046e+01, -5.45324249e+01, -3.97638741e+01,
          -5.40543747e+01 ]
      - [ -6.71480083e+00, -1.89437294e+01, -2.64613972e+01,
          -2.69628868e+01, -5.36776505e+01, -3.64796562e+01,
          -5.63018913e+01 ]
      - [ -6.77637672e+00, -2.25560360e+01, -2.76205597e+01,
          -2.71532288e+01, -5.60962677e+01, -3.92166862e+01,
          -5.45628815e+01 ]
      - [ -6.31929588e+00, -1.60984058e+01, -2.41775360e+01,
          -2.39564667e+01, -4.94416275e+01, -3.31271935e+01,
          -4.80536842e+01 ]
      - [ -6.32646751e+00, -2.00539131e+01, -2.54545460e+01,
          -2.38797455e+01, -4.88466148e+01, -3.43662071e+01,
          -4.89451675e+01 ]
      - [ -6.44655275e+00, -1.96536427e+01, -2.86995430e+01,
          -2.65520515e+01, -5.52941437e+01, -3.77236671e+01,
          -5.42345734e+01 ]
      - [ -6.33541536e+00, -2.26762123e+01, -2.86130848e+01,
          -2.65213585e+01, -5.51011009e+01, -3.79091377e+01,
          -5.41593552e+01 ]
      - [ -6.21148920e+00, -1.65115719e+01, -2.40286140e+01,
          -2.41369534e+01, -4.92710724e+01, -3.35023956e+01,
          -4.82848625e+01 ]
      - [ -6.50351810e+00, -1.85744152e+01, -2.78391304e+01,
          -2.56594257e+01, -5.40524673e+01, -3.52991867e+01,
          -5.24277344e+01 ]
      - [ -6.46600580e+00, -2.32646236e+01, -2.68704834e+01,
          -2.66560936e+01, -5.38030624e+01, -3.83091774e+01,
          -5.37314148e+01 ]
      - [ -6.72623682e+00, -2.17842960e+01, -2.67229385e+01,
          -2.79174252e+01, -5.57853546e+01, -3.94488754e+01,
          -5.54411201e+01 ]
      - [ -6.57381487e+00, -1.83458862e+01, -2.49636059e+01,
          -2.49612541e+01, -4.99602470e+01, -3.46525688e+01,
          -5.12496681e+01 ]
      - [ -6.68681431e+00, -1.84285965e+01, -2.90879173e+01,
          -2.52953224e+01, -5.41357994e+01, -3.45784798e+01,
          -5.25057755e+01 ]
      - [ -6.41162205e+00, -1.84769535e+01, -2.47707710e+01,
          -2.41601028e+01, -5.20717735e+01, -3.55490036e+01,
          -4.86260490e+01 ]
      - [ -6.71300697e+00, -1.94187222e+01, -3.16511726e+01,
          -2.61895046e+01, -5.52371140e+01, -3.91355972e+01,
          -5.58562813e+01 ]
      - [ -7.02747917e+00, -2.04437065e+01, -2.97516460e+01,
          -3.01987057e+01, -6.03396568e+01, -4.17714081e+01,
          -6.08064690e+01 ]
      - [ -7.08964777e+00, -2.18256302e+01, -2.75016155e+01,
          -2.68989697e+01, -5.50100098e+01, -3.82686768e+01,
          -5.41875000e+01 ]
      - [ -6.57618141e+00, -1.84217987e+01, -2.48543358e+01,
          -2.50028057e+01, -4.99616928e+01, -3.47326279e+01,
          -5.13478775e+01 ]
      - [ -6.70055056e+00, -1.78970375e+01, -2.84330063e+01,
          -2.50428066e+01, -5.18382416e+01, -3.43025284e+01,
          -5.28903694e+01 ]
      - [ -7.20974445e+00, -1.90522804e+01, -2.68425198e+01,
          -2.98562832e+01, -5.83611183e+01, -3.93827629e+01,
          -5.88655853e+01 ]
      - [ -6.02623320e+00, -1.61980228e+01, -2.33426437e+01,
          -2.25942516e+01, -4.56454239e+01, -3.10063305e+01,
          -4.65030403e+01 ]
      - [ -6.91781187e+00, -1.99246979e+01, -2.81200657e+01,
          -2.77474251e+01, -5.58428001e+01, -3.77662430e+01,
          -5.63244591e+01 ]
      - [ -6.33914137e+00, -2.12249603e+01, -2.67795982e+01,
          -2.57907772e+01, -5.20837059e+01, -3.66111412e+01,
          -5.41639481e+01 ]
      - [ -6.55275679e+00, -1.87134647e+01, -2.66574764e+01,
          -2.73845787e+01, -5.64282303e+01, -3.72528114e+01,
          -5.44144363e+01 ]
      - [ -6.27396250e+00, -1.76875610e+01, -2.40393639e+01,
          -2.36948605e+01, -4.76890411e+01, -3.25387688e+01,
          -4.83091011e+01 ]
      - [ -6.60544491e+00, -1.76887798e+01, -2.61630211e+01,
          -2.59483967e+01, -5.23241615e+01, -3.50472145e+01,
          -5.23786812e+01 ]
      - [ -6.04536152e+00, -1.60597782e+01, -2.51125393e+01,
          -2.32289085e+01, -4.75190392e+01, -3.19120598e+01,
          -4.81741943e+01 ]
      - [ -6.54521370e+00, -1.87053165e+01, -2.65613041e+01,
          -2.54221153e+01, -5.19902229e+01, -3.49341278e+01,
          -5.16035423e+01 ]
      - [ -6.45503235e+00, -1.86382656e+01, -2.59239445e+01,
          -2.44795609e+01, -5.12434425e+01, -3.41744919e+01,
          -4.97037964e+01 ]
      - [ -6.50465059e+00, -1.79839935e+01, -2.69397087e+01,
          -2.37701359e+01, -4.92015457e+01, -3.28021851e+01,
          -5.01015549e+01 ]
      - [ -6.46543407e+00, -1.85173702e+01, -2.70976200e+01,
          -2.49168510e+01, -5.33303528e+01, -3.49111290e+01,
          -5.09281654e+01 ]
      - [ -6.54797554e+00, -2.11640701e+01, -2.65162582e+01,
          -2.48868504e+01, -5.09661179e+01, -3.61023521e+01,
          -5.09056664e+01 ]
      - [ -6.73612595e+00, -1.75254230e+01, -2.95826206e+01,
          -2.72617741e+01, -5.56851349e+01, -3.63808327e+01,
          -5.87165451e+01 ]
      - [ -6.54925966e+00, -1.66372299e+01, -2.52473011e+01,
          -2.48215237e+01, -5.15905685e+01, -3.38667564e+01,
          -4.98717537e+01 ]
      - [ -6.29996967e+00, -1.79025211e+01, -2.61004391e+01,
          -3.06120472e+01, -5.93236427e+01, -4.02243423e+01,
          -5.93062325e+01 ]
      - [ -6.41801500e+00, -1.92460136e+01, -2.91441250e+01,
          -2.51427326e+01, -5.23349380e+01, -3.48805656e+01,
          -5.34740028e+01 ]
      - [ -6.61128235e+00, -1.87107563e+01, -2.54305801e+01,
          -2.48504314e+01, -4.99928741e+01, -3.42288933e+01,
          -5.27689247e+01 ]
      - [ -6.38811779e+00, -2.11189804e+01, -2.50713596e+01,
          -2.36954842e+01, -4.81226425e+01, -3.42961044e+01,
          -4.93188362e+01 ]
      - [ -6.56209421e+00, -1.78995438e+01, -2.57796135e+01,
          -2.68982315e+01, -5.34837761e+01, -3.66578293e+01,
          -5.37087746e+01 ]
      - [ -6.51015568e+00, -1.77489338e+01, -2.82119446e+01,
          -2.64611301e+01, -5.39777489e+01, -3.55899200e+01,
          -5.43956032e+01 ]
      - [ -6.45852423e+00, -1.84947433e+01, -2.70218620e+01,
          -3.03751659e+01, -5.91930008e+01, -4.01534920e+01,
          -5.98485641e+01 ]
      - [ -6.70065451e+00, -2.00279369e+01, -2.64689407e+01,
          -2.51737709e+01, -5.13038826e+01, -3.77078781e+01,
          -5.13826141e+01 ]
      - [ -6.79481030e+00, -2.00768261e+01, -2.94212818e+01,
          -2.81963673e+01, -5.71143723e+01, -3.84455757e+01,
          -5.78195839e+01 ]
      - [ -6.53500080e+00, -1.78922825e+01, -2.42245159e+01,
          -2.48030300e+01, -4.98470650e+01, -3.38315125e+01,
          -4.95293388e+01 ]
      - [ -7.08923817e+00, -2.09769230e+01, -2.78271160e+01,
          -2.78037128e+01, -5.73646278e+01, -3.83693962e+01,
          -5.56345978e+01 ]
      - [ -6.82008219e+00, -1.91466637e+01, -2.75228901e+01,
          -2.74589977e+01, -5.49846306e+01, -3.71412659e+01,
          -5.63012543e+01 ]
      - [ -6.79252148e+00, -1.97664967e+01, -2.88855705e+01,
          -2.86697388e+01, -5.77807426e+01, -3.89300537e+01,
          -5.78075523e+01 ]
      - [ -6.54794216e+00, -1.88814011e+01, -2.72711506e+01,
          -2.33479824e+01, -4.90891876e+01, -3.30051537e+01,
          -4.89314461e+01 ]
      - [ -6.69161987e+00, -1.80671101e+01, -2.80459499e+01,
          -2.59189415e+01, -5.36239891e+01, -3.50115814e+01,
          -5.30357819e+01 ]
      - [ -6.42238903e+00, -1.85860977e+01, -2.61036587e+01,
          -2.60378647e+01, -5.40571518e+01, -3.53761559e+01,
          -5.21188812e+01 ]
      - [ -6.65878391e+00, -1.98971081e+01, -2.70782166e+01,
          -2.46664886e+01, -5.13783607e+01, -3.46220474e+01,
          -5.06420784e+01 ]
      - [ -6.64108610e+00, -1.81448669e+01, -2.71028347e+01,
          -2.72108727e+01, -5.50537148e+01, -3.68940392e+01,
          -5.45139771e+01 ]
      - [ -6.44678307e+00, -1.88301277e+01, -2.57075462e+01,
          -2.47232571e+01, -5.00259933e+01, -3.41482468e+01,
          -5.08541107e+01 ]
      - [ -6.66477346e+00, -1.71855030e+01, -2.58288765e+01,
          -2.70016460e+01, -5.53279648e+01, -3.60876846e+01,
          -5.34279709e+01 ]
      - [ -6.60365963e+00, -1.95827408e+01, -2.79351311e+01,
          -2.51300125e+01, -5.20675583e+01, -3.51775246e+01,
          -5.19568710e+01 ]
      - [ -6.83990002e+00, -1.94366055e+01, -2.77708778e+01,
          -2.85824947e+01, -5.76972351e+01, -3.83877296e+01,
          -5.68423157e+01 ]
      - [ -6.71138954e+00, -1.99741192e+01, -3.01295395e+01,
          -2.80074406e+01, -5.82405128e+01, -3.81075058e+01,
          -5.71271553e+01 ]
      - [ -6.89687967e+00, -1.82661877e+01, -2.67707977e+01,
          -2.72204952e+01, -5.42479706e+01, -3.63545303e+01,
          -5.56090965e+01 ]
      - [ -6.88803101e+00, -2.03083172e+01, -2.74630394e+01,
          -2.69614887e+01, -5.75435181e+01, -3.71820374e+01,
          -5.41743431e+01 ]
      - [ -6.46290302e+00, -2.40540276e+01, -2.77488823e+01,
          -2.68056412e+01, -5.57540970e+01, -3.88328476e+01,
          -5.41008987e+01 ]
      - [ -6.66026545e+00, -1.82437859e+01, -2.58318768e+01,
          -2.71506233e+01, -5.37500763e+01, -3.64063644e+01,
          -5.44602928e+01 ]
      - [ -6.60521746e+00, -2.07207279e+01, -2.76545258e+01,
          -2.60077763e+01, -5.28392715e+01, -3.64128380e+01,
          -5.64805641e+01 ]
      - [ -6.91579580e+00, -1.91645203e+01, -2.85870342e+01,
          -2.90099964e+01, -6.07966843e+01, -3.93181496e+01,
          -5.78097801e+01 ]
      - [ -6.59159899e+00, -2.03157921e+01, -2.76327610e+01,
          -2.41800213e+01, -5.02532196e+01, -3.44559517e+01,
          -5.07163925e+01 ]
      - [ -6.59270382e+00, -1.84776249e+01, -2.58910732e+01,
          -2.39114418e+01, -4.88128510e+01, -3.31568031e+01,
          -5.28620148e+01 ]
      - [ -7.09508801e+00, -1.86482964e+01, -2.76362667e+01,
          -2.81966763e+01, -5.61215477e+01, -3.75389824e+01,
          -5.81604042e+01 ]
      - [ -6.60549068e+00, -1.75104084e+01, -2.52165794e+01,
          -2.49517689e+01, -5.14620018e+01, -3.40350151e+01,
          -5.00656700e+01 ]
      - [ -6.66948605e+00, -1.70477085e+01, -2.57145977e+01,
          -2.64332657e+01, -5.31212311e+01, -3.52174797e+01,
          -5.26804619e+01 ]
      - [ -6.51323080e+00, -2.01722717e+01, -2.68854694e+01,
          -2.66133327e+01, -5.39903793e+01, -3.67498093e+01,
          -5.35304680e+01 ]
      - [ -6.73158455e+00, -1.94597912e+01, -2.63567371e+01,
          -2.65386448e+01, -5.30079041e+01, -3.62933540e+01,
          -5.45687027e+01 ]
      - [ -6.20931387e+00, -1.74610443e+01, -2.38996582e+01,
          -2.38923931e+01, -4.79148407e+01, -3.43123436e+01,
          -4.85377922e+01 ]
      - [ -6.30227137e+00, -1.88965244e+01, -2.90600853e+01,
          -2.55228043e+01, -5.28363152e+01, -3.50859566e+01,
          -5.43855247e+01 ]
      - [ -6.62414980e+00, -1.69118118e+01, -2.72124672e+01,
          -2.51400185e+01, -5.37803116e+01, -3.41204987e+01,
          -5.13198929e+01 ]
      - [ -6.17837763e+00, -1.85510788e+01, -2.53668766e+01,
          -2.43886814e+01, -4.98607101e+01, -3.58100014e+01,
          -4.94481506e+01 ]
      - [ -6.79119873e+00, -1.97669868e+01, -2.90670891e+01,
          -2.87591133e+01, -5.81740646e+01, -3.92243195e+01,
          -5.79004784e+01 ]
      - [ -6.46210289e+00, -1.71752415e+01, -2.50700340e+01,
          -2.46685658e+01, -4.96921883e+01, -3.39360580e+01,
          -5.02008209e+01 ]
      - [ -6.20792580e+00, -1.75820904e+01, -2.37909966e+01,
          -2.38494987e+01, -4.77963600e+01, -3.43783035e+01,
          -4.84184380e+01 ]
      - [ -6.69316435e+00, -2.07658634e+01, -2.56167336e+01,
          -2.66780167e+01, -5.32668228e+01, -3.79588661e+01,
          -5.30922699e+01 ]
      - [ -6.80811930e+00, -2.14699154e+01, -2.75218430e+01,
          -2.62412720e+01, -5.52194099e+01, -3.71554642e+01,
          -5.31304359e+01 ]
      - [ -6.48325062e+00, -1.75010910e+01, -2.49861164e+01,
          -2.54479313e+01, -5.15543213e+01, -3.71182632e+01,
          -5.07574272e+01 ]
      - [ -6.59292126e+00, -1.81277027e+01, -2.86816292e+01,
          -2.59644222e+01, -5.33763580e+01, -3.57853165e+01,
          -5.41947365e+01 ]
      - [ -6.77428150e+00, -2.11739330e+01, -2.45095158e+01,
          -2.67177906e+01, -5.24390907e+01, -3.75386124e+01,
          -5.31521759e+01 ]
      - [ -6.80436277e+00, -2.04236984e+01, -2.53924809e+01,
          -2.54455490e+01, -5.10144157e+01, -3.57044373e+01,
          -5.15401077e+01 ]
      - [ -6.63040447e+00, -1.74713459e+01, -2.53214989e+01,
          -2.53271599e+01, -5.09664268e+01, -3.49767342e+01,
          -5.10318413e+01 ]
      - [ -6.82517910e+00, -1.84423656e+01, -2.54379425e+01,
          -2.60766201e+01, -5.22272263e+01, -3.53896942e+01,
          -5.21377220e+01 ]
      - [ -6.82377148e+00, -1.82993832e+01, -2.55440235e+01,
          -2.60680809e+01, -5.23766098e+01, -3.52806740e+01,
          -5.21020317e+01 ]
      - [ -6.39560747e+00, -1.48731947e+01, -2.29355984e+01,
          -2.35820999e+01, -4.78010902e+01, -3.16314659e+01,
          -4.69201927e+01 ]
      - [ -6.81011486e+00, -2.03221588e+01, -2.53713207e+01,
          -2.54730797e+01, -5.09879341e+01, -3.56435318e+01,
          -5.17837601e+01 ]
      - [ -6.77283287e+00, -1.57303362e+01, -2.23691082e+01,
          -2.48865223e+01, -4.90975037e+01, -3.29848747e+01,
          -4.87009659e+01 ]
      - [ -6.59023762e+00, -1.72667122e+01, -2.36547680e+01,
          -2.57986336e+01, -5.05262604e+01, -3.45140648e+01,
          -5.36717148e+01 ]
      - [ -6.78758812e+00, -1.88879833e+01, -2.42994461e+01,
          -2.46674881e+01, -4.91532249e+01, -3.46451836e+01,
          -5.18501968e+01 ]
      - [ -6.65133619e+00, -1.72900162e+01, -2.37027493e+01,
          -2.55411129e+01, -5.07612991e+01, -3.54630890e+01,
          -5.03429871e+01 ]
      - [ -6.97947836e+00, -1.94661236e+01, -2.81817131e+01,
          -2.67973175e+01, -5.45070915e+01, -3.66599693e+01,
          -5.48028297e+01 ]
      - [ -6.68514919e+00, -1.90721130e+01, -2.46301479e+01,
          -2.49949036e+01, -4.99515915e+01, -3.51198807e+01,
          -5.04996185e+01 ]
      - [ -6.49348640e+00, -1.73550129e+01, -2.50417004e+01,
          -2.57058220e+01, -5.15331612e+01, -3.65707626e+01,
          -5.13380623e+01 ]
      - [ -6.52435684e+00, -1.80016727e+01, -2.37771454e+01,
          -2.53992672e+01, -5.12487564e+01, -3.53543663e+01,
          -5.00293045e+01 ]
      - [ -6.84542418e+00, -2.11785545e+01, -2.54547348e+01,
          -2.56218548e+01, -5.12097626e+01, -3.64487457e+01,
          -5.23399239e+01 ]
      - [ -6.85338783e+00, -2.16963158e+01, -2.77930336e+01,
          -2.65043697e+01, -5.46412506e+01, -3.75371170e+01,
          -5.37276535e+01 ]
      - [ -6.84245062e+00, -1.90585709e+01, -2.66463032e+01,
          -2.78448696e+01, -5.50930748e+01, -3.73832703e+01,
          -5.77177200e+01 ]
      - [ -6.56652689e+00, -2.37772484e+01, -2.69872684e+01,
          -2.48827991e+01, -5.08332291e+01, -3.70273705e+01,
          -5.25656815e+01 ]
      - [ -6.77698708e+00, -1.63000565e+01, -2.31881390e+01,
          -2.86569576e+01, -5.58999710e+01, -3.75974731e+01,
          -5.46164856e+01 ]
      - [ -6.74989700e+00, -2.05118618e+01, -2.54504070e+01,
          -2.60449867e+01, -5.23080177e+01, -3.63553200e+01,
          -5.20133095e+01 ]
      - [ -6.83500004e+00, -1.96823769e+01, -2.45872860e+01,
          -2.68869743e+01, -5.32679100e+01, -3.69921303e+01,
          -5.27855377e+01 ]
      - [ -6.67394829e+00, -1.87377186e+01, -2.26096096e+01,
          -2.51839523e+01, -4.96882286e+01, -3.46844254e+01,
          -4.92567253e+01 ]
      - [ -6.84869003e+00, -1.80218143e+01, -2.39418545e+01,
          -2.57559090e+01, -5.08081741e+01, -3.47668152e+01,
          -5.11527977e+01 ]
      - [ -6.84107208e+00, -1.91657257e+01, -2.45181828e+01,
          -2.95918560e+01, -5.70241356e+01, -3.96823730e+01,
          -5.69645386e+01 ]
      - [ -6.61613846e+00, -1.80657253e+01, -2.78042622e+01,
          -2.60587921e+01, -5.51943550e+01, -3.51256027e+01,
          -5.29964485e+01 ]
      - [ -6.56237602e+00, -1.77970200e+01, -2.51285133e+01,
          -2.59384899e+01, -5.16739922e+01, -3.59801025e+01,
          -5.20227699e+01 ]
      - [ -6.68728209e+00, -1.68219604e+01, -2.53412457e+01,
          -2.50952740e+01, -5.12841835e+01, -3.48087158e+01,
          -5.03909950e+01 ]
      - [ -6.65304947e+00, -1.66599350e+01, -2.30968208e+01,
          -2.48374786e+01, -4.88101730e+01, -3.32000542e+01,
          -5.10581741e+01 ]
      - [ -6.86458635e+00, -1.92073040e+01, -2.60879288e+01,
          -2.68150940e+01, -5.33101692e+01, -3.64839592e+01,
          -5.45084000e+01 ]
      - [ -6.75512266e+00, -1.81106892e+01, -2.51152687e+01,
          -2.77192707e+01, -5.42415352e+01, -3.79873123e+01,
          -5.49684601e+01 ]
      - [ -6.42201853e+00, -1.64024467e+01, -2.34833355e+01,
          -2.50616817e+01, -5.39052773e+01, -3.34518547e+01,
          -4.93342438e+01 ]
      - [ -6.76131868e+00, -2.03094749e+01, -2.45153961e+01,
          -2.55588531e+01, -5.08517265e+01, -3.61976357e+01,
          -5.10536194e+01 ]
      - [ -6.74558067e+00, -1.81818752e+01, -2.42358932e+01,
          -2.62543373e+01, -5.21834602e+01, -3.71565399e+01,
          -5.16463776e+01 ]
      - [ -6.67334080e+00, -1.70301247e+01, -2.42197609e+01,
          -2.48337212e+01, -5.01389961e+01, -3.34094200e+01,
          -4.94788017e+01 ]
      - [ -6.73198748e+00, -2.33967342e+01, -2.43919697e+01,
          -2.50303249e+01, -5.04521370e+01, -3.72302170e+01,
          -4.98796082e+01 ]
      - [ -6.51130915e+00, -1.67435722e+01, -2.59539471e+01,
          -2.64001465e+01, -5.25905724e+01, -3.50284309e+01,
          -5.43944016e+01 ]
      - [ -6.60279226e+00, -1.64132271e+01, -2.43316383e+01,
          -2.53732224e+01, -5.03055496e+01, -3.35859451e+01,
          -5.11820145e+01 ]
      - [ -6.68580484e+00, -1.63324738e+01, -2.28819141e+01,
          -2.61450386e+01, -5.07462158e+01, -3.46998405e+01,
          -5.15720711e+01 ]
      - [ -6.73879433e+00, -1.58749723e+01, -2.26939545e+01,
          -2.52736454e+01, -5.04416122e+01, -3.33007355e+01,
          -4.93066025e+01 ]
      - [ -6.67308474e+00, -1.70483513e+01, -2.42233906e+01,
          -2.48151474e+01, -4.98558426e+01, -3.33932571e+01,
          -4.95516930e+01 ]
      - [ -7.01554251e+00, -1.88759212e+01, -2.61723022e+01,
          -2.82542648e+01, -5.71507721e+01, -3.78351288e+01,
          -5.54851112e+01 ]
      - [ -6.92209387e+00, -1.90460052e+01, -2.49564095e+01,
          -2.71040573e+01, -5.31726875e+01, -3.70273857e+01,
          -5.44366493e+01 ]
      - [ -6.97979355e+00, -1.93194637e+01, -2.75763245e+01,
          -2.66921654e+01, -5.47961235e+01, -3.64237823e+01,
          -5.39040260e+01 ]
      - [ -6.90453100e+00, -1.82853260e+01, -2.54567471e+01,
          -2.67879124e+01, -5.33534660e+01, -3.70361786e+01,
          -5.31758575e+01 ]
      - [ -7.01714945e+00, -1.89145184e+01, -2.61081486e+01,
          -2.82559338e+01, -5.75815430e+01, -3.78910255e+01,
          -5.54448929e+01 ]
      - [ -6.90554333e+00, -1.90681725e+01, -2.59976330e+01,
          -2.77433834e+01, -5.50206718e+01, -3.72824593e+01,
          -5.49067345e+01 ]
      - [ -6.87597799e+00, -1.89515114e+01, -2.96032963e+01,
          -2.58930187e+01, -5.50337448e+01, -3.54876289e+01,
          -5.36730309e+01 ]
      - [ -6.68748522e+00, -1.69235649e+01, -2.36280079e+01,
          -2.49522038e+01, -4.95924034e+01, -3.40421562e+01,
          -4.95853844e+01 ]
      - [ -6.74901533e+00, -1.80954819e+01, -2.42610016e+01,
          -2.62817993e+01, -5.20593185e+01, -3.72725792e+01,
          -5.17790108e+01 ]
      - [ -6.67594051e+00, -1.62800732e+01, -2.28055630e+01,
          -2.59314976e+01, -5.03625298e+01, -3.44847832e+01,
          -5.13706665e+01 ]
      - [ -6.61442947e+00, -1.57754574e+01, -2.54240456e+01,
          -2.63478565e+01, -5.28481102e+01, -3.43189011e+01,
          -5.24069595e+01 ]
      - [ -6.64337969e+00, -1.61851749e+01, -2.28474312e+01,
          -2.53401604e+01, -4.94375038e+01, -3.34600029e+01,
          -5.19102554e+01 ]
      - [ -6.84698057e+00, -1.58378305e+01, -2.45373859e+01,
          -2.70286465e+01, -5.41453857e+01, -3.49638138e+01,
          -5.28476410e+01 ]
      - [ -6.78672123e+00, -1.86790066e+01, -2.34276066e+01,
          -2.52204494e+01, -5.12984657e+01, -3.52847443e+01,
          -4.95596848e+01 ]
      - [ -6.72157621e+00, -1.76518688e+01, -2.35640583e+01,
          -2.62761307e+01, -5.16252632e+01, -3.56845055e+01,
          -5.14720306e+01 ]
      - [ -6.73317623e+00, -1.68986206e+01, -2.86854744e+01,
          -2.53153820e+01, -5.24427795e+01, -3.42484665e+01,
          -5.30632858e+01 ]
      - [ -6.71786785e+00, -1.66640739e+01, -2.26244812e+01,
          -2.48782921e+01, -4.95540390e+01, -3.34324646e+01,
          -4.87153320e+01 ]
      - [ -6.72910213e+00, -2.16358795e+01, -2.42111912e+01,
          -2.50723648e+01, -5.01963921e+01, -3.58991127e+01,
          -4.99541092e+01 ]
      - [ -6.64092731e+00, -1.66433926e+01, -2.30555172e+01,
          -2.47223492e+01, -4.86180496e+01, -3.31321411e+01,
          -5.07660522e+01 ]
      - [ -6.47486544e+00, -1.83522224e+01, -2.13810806e+01,
          -2.62534084e+01, -5.01119308e+01, -3.54513168e+01,
          -5.13382530e+01 ]
      - [ -6.93871593e+00, -1.74024715e+01, -2.44692841e+01,
          -2.81555920e+01, -5.44894295e+01, -3.84700584e+01,
          -5.60542679e+01 ]
      - [ -6.61128855e+00, -1.55732756e+01, -2.53900547e+01,
          -2.54086494e+01, -5.30081711e+01, -3.62964325e+01,
          -5.08141785e+01 ]
      - [ -6.51462555e+00, -1.58570185e+01, -2.23829479e+01,
          -2.45085430e+01, -4.84536934e+01, -3.34957619e+01,
          -4.81839714e+01 ]
      - [ -6.72991180e+00, -1.85583954e+01, -2.50070477e+01,
          -2.70615768e+01, -5.47768936e+01, -3.72846870e+01,
          -5.31135292e+01 ]
      - [ -6.26966429e+00, -1.67764263e+01, -2.24119740e+01,
          -2.39871979e+01, -4.78245888e+01, -3.26150246e+01,
          -4.73505211e+01 ]
      - [ -6.70063543e+00, -1.71627274e+01, -2.48645401e+01,
          -2.61970005e+01, -5.20150032e+01, -3.50323296e+01,
          -5.21416893e+01 ]
      - [ -6.73918772e+00, -1.81636219e+01, -2.36768646e+01,
          -2.46257095e+01, -4.89066238e+01, -3.37076492e+01,
          -4.95153847e+01 ]
      - [ -6.71871424e+00, -1.87692738e+01, -2.49770985e+01,
          -2.75084839e+01, -5.38060493e+01, -3.72132301e+01,
          -5.48841324e+01 ]
      - [ -6.63395071e+00, -2.02698765e+01, -2.52482681e+01,
          -2.81819859e+01, -5.56496811e+01, -4.00472221e+01,
          -5.50226173e+01 ]
      - [ -6.72507858e+00, -1.72861748e+01, -2.48129120e+01,
          -2.59603977e+01, -5.19211845e+01, -3.59085350e+01,
          -5.15378189e+01 ]
      - [ -6.74633455e+00, -1.82393551e+01, -2.66167660e+01,
          -2.64680519e+01, -5.30137177e+01, -3.81845398e+01,
          -5.55287170e+01 ]
      - [ -6.98839474e+00, -1.84866638e+01, -2.66557693e+01,
          -2.83784447e+01, -5.79106903e+01, -3.79349709e+01,
          -5.59045181e+01 ]
      - [ -6.90021944e+00, -1.93332729e+01, -2.56680679e+01,
          -2.79194298e+01, -5.48526802e+01, -3.75863457e+01,
          -5.54195633e+01 ]
      - [ -6.60181141e+00, -1.76751022e+01, -2.58413239e+01,
          -2.53198414e+01, -5.35344009e+01, -3.52214508e+01,
          -5.09030075e+01 ]
      - [ -6.63412380e+00, -1.52791615e+01, -2.32564869e+01,
          -2.33206425e+01, -4.69768333e+01, -3.09851799e+01,
          -4.69355812e+01 ]
      - [ -6.70752859e+00, -1.55717211e+01, -2.47042255e+01,
          -2.70250854e+01, -5.32730331e+01, -3.53561745e+01,
          -5.32021065e+01 ]
      - [ -6.64848471e+00, -1.55798931e+01, -2.23874187e+01,
          -2.45491638e+01, -4.82401390e+01, -3.30607834e+01,
          -4.85290985e+01 ]
      - [ -6.85698318e+00, -2.10781898e+01, -2.52651539e+01,
          -2.57511749e+01, -5.12974815e+01, -3.63048096e+01,
          -5.25649223e+01 ]
      - [ -6.90145969e+00, -1.90691833e+01, -2.58618011e+01,
          -2.76863594e+01, -5.48306313e+01, -3.72343445e+01,
          -5.47844620e+01 ]
      - [ -6.79572964e+00, -1.87990761e+01, -2.44155788e+01,
          -2.51288395e+01, -5.00127792e+01, -3.49135056e+01,
          -5.07051239e+01 ]
      - [ -6.63895750e+00, -1.58682919e+01, -2.25935955e+01,
          -2.77692928e+01, -5.35267906e+01, -3.60761185e+01,
          -5.31406174e+01 ]
      - [ -6.74469233e+00, -1.88190384e+01, -2.41493168e+01,
          -2.49899044e+01, -5.06200600e+01, -3.45112610e+01,
          -4.96233749e+01 ]
      - [ -6.71072960e+00, -1.77981319e+01, -2.43824654e+01,
          -2.65594482e+01, -5.20451660e+01, -3.63773270e+01,
          -5.37990913e+01 ]
      - [ -6.40336370e+00, -1.76728859e+01, -2.44620972e+01,
          -2.46701260e+01, -5.02718925e+01, -3.35555191e+01,
          -4.93035889e+01 ]
      - [ -6.36932373e+00, -1.53979206e+01, -2.25849113e+01,
          -2.29536781e+01, -4.58369827e+01, -3.06528511e+01,
          -4.65180473e+01 ]
      - [ -6.69812489e+00, -1.76798439e+01, -2.54847107e+01,
          -2.57333584e+01, -5.16167374e+01, -3.53954926e+01,
          -5.17734222e+01 ]
      - [ -6.80210066e+00, -1.71840992e+01, -2.77979012e+01,
          -2.48391247e+01, -5.11582336e+01, -3.34403458e+01,
          -5.45243874e+01 ]
      - [ -6.69835138e+00, -1.57497845e+01, -2.40903950e+01,
          -2.48628521e+01, -5.13804665e+01, -3.49220505e+01,
          -4.93479843e+01 ]
      - [ -6.63629389e+00, -1.52279768e+01, -2.24714737e+01,
          -2.47318382e+01, -4.84198761e+01, -3.24747887e+01,
          -4.92539864e+01 ]
      - [ -6.70983839e+00, -1.51922712e+01, -2.46191616e+01,
          -2.55425377e+01, -5.22595901e+01, -3.39699936e+01,
          -5.06427155e+01 ]
      - [ -6.67605305e+00, -2.02968807e+01, -2.86815701e+01,
          -2.49212284e+01, -5.30125542e+01, -3.54116631e+01,
          -5.17620354e+01 ]
      - [ -6.75417805e+00, -1.74998341e+01, -2.58264141e+01,
          -2.61873741e+01, -5.25529671e+01, -3.50026093e+01,
          -5.25290031e+01 ]
      - [ -6.63851595e+00, -1.58530626e+01, -2.34112816e+01,
          -2.47986622e+01, -5.11422234e+01, -3.33734360e+01,
          -4.89093475e+01 ]
      - [ -6.72314930e+00, -1.52381029e+01, -2.29477901e+01,
          -2.56150780e+01, -4.98979836e+01, -3.32397499e+01,
          -5.28111000e+01 ]
      - [ -6.60076141e+00, -1.55421047e+01, -2.55122929e+01,
          -2.51521511e+01, -5.12025833e+01, -3.41922874e+01,
          -5.06201324e+01 ]
      - [ -6.72575903e+00, -1.85325241e+01, -2.49414654e+01,
          -2.67491779e+01, -5.47345963e+01, -3.65772285e+01,
          -5.26014671e+01 ]
      - [ -6.73719740e+00, -1.79799843e+01, -2.57092037e+01,
          -2.60215836e+01, -5.19288902e+01, -3.51514130e+01,
          -5.31473007e+01 ]
      - [ -6.79913330e+00, -1.65750637e+01, -2.52018452e+01,
          -2.54107952e+01, -5.12307472e+01, -3.41065788e+01,
          -5.09386902e+01 ]
      - [ -6.60922861e+00, -1.69916706e+01, -2.34663391e+01,
          -2.49264755e+01, -4.96691513e+01, -3.34251938e+01,
          -4.93271446e+01 ]
      - [ -6.55104446e+00, -1.57389545e+01, -2.34810257e+01,
          -2.67065926e+01, -5.18092041e+01, -3.46975441e+01,
          -5.38245430e+01 ]
      - [ -6.71869421e+00, -1.73492165e+01, -2.57267685e+01,
          -2.57314358e+01, -5.14623184e+01, -3.45666466e+01,
          -5.42806091e+01 ]
      - [ -6.70920324e+00, -2.06231556e+01, -2.60047665e+01,
          -2.52232380e+01, -5.11152649e+01, -3.56912766e+01,
          -5.12632790e+01 ]
      - [ -6.46697235e+00, -1.64680977e+01, -2.47673302e+01,
          -2.45333443e+01, -4.92178459e+01, -3.30157471e+01,
          -5.05423775e+01 ]
      - [ -6.59681892e+00, -1.61507988e+01, -2.46815739e+01,
          -2.37256775e+01, -4.79375572e+01, -3.18143444e+01,
          -4.99855003e+01 ]
      - [ -6.49955273e+00, -1.61313629e+01, -2.29802818e+01,
          -2.32759514e+01, -4.64995346e+01, -3.15513554e+01,
          -4.72789536e+01 ]
      - [ -6.65954161e+00, -1.75354404e+01, -2.37620087e+01,
          -2.59678822e+01, -5.08335342e+01, -3.47987900e+01,
          -5.41139336e+01 ]
      - [ -6.62142038e+00, -1.84237480e+01, -2.42802887e+01,
          -2.49005508e+01, -5.03405647e+01, -3.42900696e+01,
          -4.95919266e+01 ]
      - [ -6.75749874e+00, -1.81227722e+01, -2.47224083e+01,
          -2.64629364e+01, -5.35565262e+01, -3.55459213e+01,
          -5.20810928e+01 ]
      - [ -6.74730062e+00, -1.72839565e+01, -2.49692364e+01,
          -2.49485397e+01, -5.00006599e+01, -3.36048317e+01,
          -5.07930756e+01 ]
      - [ -6.70187664e+00, -1.79645271e+01, -2.36679497e+01,
          -2.56748466e+01, -5.20860214e+01, -3.49128914e+01,
          -5.03618965e+01 ]
      - [ -6.57273483e+00, -1.86499062e+01, -2.62506523e+01,
          -2.52798901e+01, -5.19958611e+01, -3.73842201e+01,
          -5.11260452e+01 ]
      - [ -6.74508286e+00, -1.76004162e+01, -2.47218590e+01,
          -2.46418304e+01, -4.93437347e+01, -3.47685127e+01,
          -5.09416580e+01 ]
      - [ -6.71888351e+00, -1.96500340e+01, -2.41566906e+01,
          -2.55201473e+01, -5.06531487e+01, -3.62109108e+01,
          -5.07631721e+01 ]
      - [ -6.77969217e+00, -1.83275661e+01, -2.45823631e+01,
          -2.63598995e+01, -5.28927841e+01, -3.63197784e+01,
          -5.18947258e+01 ]
      - [ -6.60424089e+00, -1.64074020e+01, -2.42677040e+01,
          -2.53881664e+01, -5.02665329e+01, -3.35946922e+01,
          -5.13880844e+01 ]
      - [ -6.87819672e+00, -1.77859783e+01, -2.69323158e+01,
          -2.61190758e+01, -5.28998528e+01, -3.50132675e+01,
          -5.31034126e+01 ]
      - [ -6.85246801e+00, -1.77684708e+01, -2.54209347e+01,
          -2.76866226e+01, -5.44847031e+01, -3.70429535e+01,
          -5.47156868e+01 ]
      - [ -6.77911329e+00, -1.71543846e+01, -2.58612309e+01,
          -2.53124886e+01, -5.18154030e+01, -3.46031418e+01,
          -5.09865723e+01 ]
      - [ -6.64637041e+00, -1.69261761e+01, -2.37141895e+01,
          -2.56527557e+01, -5.03469658e+01, -3.41359940e+01,
          -5.22621040e+01 ]
      - [ -6.67207336e+00, -1.88169460e+01, -2.41170254e+01,
          -2.50047665e+01, -5.03952484e+01, -3.45321846e+01,
          -4.96712074e+01 ]
      - [ -6.84332943e+00, -1.89877758e+01, -2.51985931e+01,
          -2.64287415e+01, -5.22436790e+01, -3.76100693e+01,
          -5.52297859e+01 ]
      - [ -6.49459171e+00, -2.20185509e+01, -2.63208008e+01,
          -2.73984032e+01, -5.44821510e+01, -3.90573235e+01,
          -5.47670555e+01 ]
      - [ -6.71886206e+00, -1.76967964e+01, -2.35160561e+01,
          -2.56634007e+01, -5.04572525e+01, -3.81079712e+01,
          -5.07996597e+01 ]
      - [ -6.71225977e+00, -1.65644112e+01, -2.25432491e+01,
          -2.47938728e+01, -4.93465462e+01, -3.32913475e+01,
          -4.85559807e+01 ]
      - [ -6.42728567e+00, -1.55651836e+01, -2.18248482e+01,
          -2.38919106e+01, -4.67524109e+01, -3.16750546e+01,
          -4.94819031e+01 ]
      - [ -6.56696606e+00, -1.64773808e+01, -2.68238964e+01,
          -2.56876335e+01, -5.26056862e+01, -3.41426620e+01,
          -5.20979652e+01 ]
      - [ -6.90952015e+00, -1.72129345e+01, -2.45751610e+01,
          -2.84310932e+01, -5.55829811e+01, -3.79634094e+01,
          -5.50937767e+01 ]
      - [ -6.78007317e+00, -2.17132111e+01, -2.78996964e+01,
          -2.63480663e+01, -5.51840439e+01, -3.72412758e+01,
          -5.34885063e+01 ]
      - [ -6.67947292e+00, -1.61781998e+01, -2.56869774e+01,
          -2.46933155e+01, -5.01103363e+01, -3.37792740e+01,
          -5.03877220e+01 ]
      - [ -6.45706320e+00, -1.70922775e+01, -2.51051693e+01,
          -2.29796886e+01, -4.70238991e+01, -3.15931168e+01,
          -4.98414917e+01 ]
      - [ -6.68344402e+00, -1.60134640e+01, -2.22526150e+01,
          -2.43611069e+01, -4.94948349e+01, -3.34281235e+01,
          -4.76810837e+01 ]
      - [ -6.19807196e+00, -1.49812870e+01, -2.31621704e+01,
          -2.37614498e+01, -4.90320854e+01, -3.26423073e+01,
          -4.72368660e+01 ]
      - [ -6.83091450e+00, -1.62947617e+01, -2.66406269e+01,
          -2.77932415e+01, -5.54131241e+01, -3.59407463e+01,
          -5.53060875e+01 ]
      - [ -6.77700043e+00, -1.68211288e+01, -2.39330673e+01,
          -2.59595032e+01, -5.16252556e+01, -3.47644615e+01,
          -5.10411568e+01 ]
      - [ -7.02192545e+00, -1.89745789e+01, -2.63602657e+01,
          -2.84554939e+01, -5.88461914e+01, -3.81701813e+01,
          -5.58646584e+01 ]
      - [ -6.85074425e+00, -1.91770687e+01, -2.45746460e+01,
          -2.95082970e+01, -5.68589783e+01, -3.95364914e+01,
          -5.69367256e+01 ]
      - [ -6.56325054e+00, -1.54929533e+01, -2.41379681e+01,
          -2.47627316e+01, -4.92481155e+01, -3.30729294e+01,
          -5.05596313e+01 ]
      - [ -6.31583071e+00, -1.81030235e+01, -2.33746796e+01,
          -2.36556149e+01, -4.73841858e+01, -3.34648018e+01,
          -4.76993484e+01 ]
      - [ -6.86668634e+00, -1.77197723e+01, -2.70079594e+01,
          -2.61183186e+01, -5.32691193e+01, -3.49783325e+01,
          -5.28660622e+01 ]
      - [ -7.07081556e+00, -1.97118073e+01, -2.56077385e+01,
          -2.78467560e+01, -5.49155502e+01, -3.78152962e+01,
          -5.49256554e+01 ]
      - [ -7.02094650e+00, -1.71177864e+01, -2.69555378e+01,
          -2.58775539e+01, -5.30192223e+01, -3.48069878e+01,
          -5.24277229e+01 ]
      - [ -7.00731230e+00, -1.82816734e+01, -2.75421886e+01,
          -2.80044403e+01, -5.63474579e+01, -3.79745636e+01,
          -5.59705925e+01 ]
      - [ -6.92539024e+00, -2.08696156e+01, -2.53052597e+01,
          -2.60464973e+01, -5.53829346e+01, -3.65266380e+01,
          -5.17227058e+01 ]
      - [ -6.73665333e+00, -1.58163700e+01, -2.43857708e+01,
          -2.58030910e+01, -5.12205544e+01, -3.37459068e+01,
          -5.12687988e+01 ]
      - [ -6.95306969e+00, -1.70355339e+01, -2.51602726e+01,
          -2.49491253e+01, -5.28694496e+01, -3.44876289e+01,
          -5.00054474e+01 ]
      - [ -7.07439232e+00, -1.86300678e+01, -2.77100258e+01,
          -2.85367374e+01, -5.67143402e+01, -3.78523483e+01,
          -5.77977562e+01 ]
      - [ -6.88433886e+00, -1.65604038e+01, -2.41425190e+01,
          -2.53208313e+01, -5.04197235e+01, -3.36120987e+01,
          -5.03792534e+01 ]
      - [ -6.46239853e+00, -1.93700218e+01, -2.83519745e+01,
          -2.53480816e+01, -5.22748528e+01, -3.54751015e+01,
          -5.31730499e+01 ]
      - [ -6.43608093e+00, -1.46294031e+01, -2.21554947e+01,
          -2.44414272e+01, -4.77400856e+01, -3.18010197e+01,
          -5.16600189e+01 ]
      - [ -6.54192829e+00, -1.67417412e+01, -2.31968212e+01,
          -2.35541916e+01, -4.82443085e+01, -3.19992847e+01,
          -4.69671326e+01 ]
      - [ -6.87834215e+00, -1.77445946e+01, -2.70412102e+01,
          -2.61097336e+01, -5.30307655e+01, -3.49836502e+01,
          -5.30327950e+01 ]
      - [ -6.38289928e+00, -1.62692680e+01, -2.71923466e+01,
          -2.50503025e+01, -5.13756905e+01, -3.31927910e+01,
          -5.17182770e+01 ]
      - [ -6.56284285e+00, -1.64148331e+01, -2.24207916e+01,
          -2.67043037e+01, -5.16941452e+01, -3.51233711e+01,
          -5.15439415e+01 ]
      - [ -6.29634237e+00, -1.61434536e+01, -2.23952599e+01,
          -2.32611752e+01, -4.61339874e+01, -3.27163391e+01,
          -4.73200302e+01 ]
      - [ -6.38607216e+00, -1.58050413e+01, -2.45715961e+01,
          -2.36741505e+01, -5.17015228e+01, -3.21783485e+01,
          -4.77972260e+01 ]
      - [ -6.53002357e+00, -1.83704262e+01, -2.64060116e+01,
          -2.57002754e+01, -5.19529915e+01, -3.58024330e+01,
          -5.23091049e+01 ]
      - [ -6.53914118e+00, -1.45052299e+01, -2.32597103e+01,
          -2.47433167e+01, -4.93400536e+01, -3.60326653e+01,
          -4.89260941e+01 ]
      - [ -6.56647682e+00, -1.86730366e+01, -2.52415543e+01,
          -2.54774933e+01, -5.15375481e+01, -3.51970520e+01,
          -5.09784203e+01 ]
      - [ -6.84550142e+00, -1.94201775e+01, -2.61979866e+01,
          -2.85436211e+01, -5.76444588e+01, -3.96573372e+01,
          -5.59303932e+01 ]
      - [ -6.53946495e+00, -2.02127914e+01, -2.39031067e+01,
          -2.53473129e+01, -5.00012970e+01, -3.76363335e+01,
          -5.14144440e+01 ]
      - [ -6.68649387e+00, -1.61574669e+01, -2.61107788e+01,
          -2.73126736e+01, -5.46095772e+01, -3.54651031e+01,
          -5.42101173e+01 ]
      - [ -6.72396851e+00, -1.87121239e+01, -2.48090782e+01,
          -2.78542042e+01, -5.50450401e+01, -3.76268349e+01,
          -5.42846794e+01 ]
      - [ -6.61585188e+00, -1.45474434e+01, -2.29045181e+01,
          -2.47980595e+01, -5.16058960e+01, -3.29816666e+01,
          -4.86507034e+01 ]
      - [ -6.78219891e+00, -1.73375282e+01, -2.43397408e+01,
          -2.50007668e+01, -4.98620453e+01, -3.36745148e+01,
          -5.02445984e+01 ]
      - [ -6.35025167e+00, -1.56648493e+01, -2.90711384e+01,
          -2.48156033e+01, -5.17796783e+01, -3.26557465e+01,
          -5.33613586e+01 ]
      - [ -6.55029106e+00, -1.60046959e+01, -2.63973656e+01,
          -3.04574661e+01, -5.91855621e+01, -3.86164627e+01,
          -5.92819901e+01 ]
      - [ -6.60098696e+00, -1.68999310e+01, -2.45293484e+01,
          -2.50771313e+01, -4.98949242e+01, -3.40240364e+01,
          -5.16560555e+01 ]
      - [ -6.56572008e+00, -1.77651253e+01, -2.36781292e+01,
          -2.44622173e+01, -4.96239624e+01, -3.46969986e+01,
          -4.85921707e+01 ]
      - [ -6.59899473e+00, -1.64870186e+01, -2.35232639e+01,
          -2.41064968e+01, -4.83564148e+01, -3.25110703e+01,
          -4.81928101e+01 ]
      - [ -6.51868534e+00, -1.82643108e+01, -2.64583912e+01,
          -2.56254234e+01, -5.17646217e+01, -3.54839783e+01,
          -5.25336380e+01 ]
      - [ -6.44760704e+00, -1.91707039e+01, -2.83946743e+01,
          -2.51938515e+01, -5.19883575e+01, -3.57427216e+01,
          -5.57970467e+01 ]
      - [ -6.57387829e+00, -1.54802456e+01, -2.42460060e+01,
          -2.46925831e+01, -4.92532578e+01, -3.31827431e+01,
          -5.00566673e+01 ]
      - [ -6.81503201e+00, -2.09887218e+01, -3.50710220e+01,
          -2.70553818e+01, -5.85721321e+01, -3.75497627e+01,
          -5.83770828e+01 ]
      - [ -6.50930262e+00, -1.65672379e+01, -2.29763794e+01,
          -2.61809387e+01, -5.35279236e+01, -3.48567772e+01,
          -5.07615700e+01 ]
      - [ -6.43663311e+00, -1.45392799e+01, -2.25345612e+01,
          -2.35863342e+01, -4.70845261e+01, -3.21449089e+01,
          -4.69162712e+01 ]
      - [ -6.53111649e+00, -1.65418701e+01, -2.46862717e+01,
          -2.59056587e+01, -5.33298607e+01, -3.47766190e+01,
          -5.12087631e+01 ]
      - [ -6.66531229e+00, -1.63757229e+01, -2.53057823e+01,
          -2.53734303e+01, -5.07160568e+01, -3.40223045e+01,
          -5.32689209e+01 ]
      - [ -6.63263369e+00, -1.73335800e+01, -2.36396580e+01,
          -2.41993561e+01, -5.13689690e+01, -3.29994965e+01,
          -4.81196136e+01 ]
      - [ -6.81377506e+00, -1.65692387e+01, -2.33334274e+01,
          -2.55240726e+01, -5.03043251e+01, -3.39129982e+01,
          -5.02945175e+01 ]
      - [ -6.51079369e+00, -1.59852753e+01, -2.51410332e+01,
          -2.60565758e+01, -5.16872292e+01, -3.46493111e+01,
          -5.30480232e+01 ]
      - [ -6.74712849e+00, -1.73144035e+01, -2.37121429e+01,
          -2.62840004e+01, -5.14675102e+01, -3.49597244e+01,
          -5.18678703e+01 ]
      - [ -6.63013220e+00, -1.63126640e+01, -2.41489162e+01,
          -2.61194153e+01, -5.12883530e+01, -3.42768898e+01,
          -5.26037483e+01 ]
      - [ -6.75891829e+00, -1.65940857e+01, -2.38268604e+01,
          -2.48962040e+01, -5.17364540e+01, -3.38017807e+01,
          -4.92612648e+01 ]
      - [ -6.60863304e+00, -1.60019646e+01, -2.39577999e+01,
          -2.71192760e+01, -5.28727760e+01, -3.51279182e+01,
          -5.31835289e+01 ]
      - [ -6.68169212e+00, -2.00359650e+01, -2.65100727e+01,
          -2.58789539e+01, -5.24131813e+01, -3.80966988e+01,
          -5.24270020e+01 ]
      - [ -6.71499395e+00, -1.80401764e+01, -2.42144165e+01,
          -2.64373837e+01, -5.17648392e+01, -3.61209564e+01,
          -5.46512718e+01 ]
      - [ -6.77546453e+00, -2.15104275e+01, -2.89224510e+01,
          -2.62311420e+01, -5.50898552e+01, -3.93650436e+01,
          -5.38480072e+01 ]
      - [ -6.31575489e+00, -1.46607418e+01, -2.48577919e+01,
          -2.44430370e+01, -4.90938606e+01, -3.21853256e+01,
          -5.26473541e+01 ]
      - [ -6.64176846e+00, -1.65847740e+01, -2.35745239e+01,
          -2.51537876e+01, -4.96646538e+01, -3.40362129e+01,
          -5.02025719e+01 ]
      - [ -6.83367491e+00, -1.61968937e+01, -2.48464336e+01,
          -2.92532749e+01, -5.64164581e+01, -3.74167366e+01,
          -5.71008835e+01 ]
      - [ -7.01790571e+00, -2.05320148e+01, -2.62649460e+01,
          -2.89028320e+01, -5.96167412e+01, -4.03802223e+01,
          -5.64876785e+01 ]
      - [ -7.10893154e+00, -2.13161221e+01, -2.94366875e+01,
          -3.02029629e+01, -6.15488892e+01, -4.39748878e+01,
          -6.00469894e+01 ]
      - [ -7.01505327e+00, -1.68793621e+01, -2.58072929e+01,
          -2.77561722e+01, -5.54323349e+01, -3.75977020e+01,
          -5.46293564e+01 ]
      - [ -7.18333960e+00, -1.85842724e+01, -2.91935730e+01,
          -3.15763264e+01, -6.19703293e+01, -4.08684807e+01,
          -6.39715309e+01 ]
      - [ -7.11243916e+00, -1.76778870e+01, -2.65705433e+01,
          -2.96054497e+01, -5.83919907e+01, -4.21865654e+01,
          -5.78354988e+01 ]
      - [ -6.93756104e+00, -1.61629601e+01, -2.74789677e+01,
          -2.81722527e+01, -5.99819794e+01, -3.63445282e+01,
          -5.59980354e+01 ]
      - [ -6.87196112e+00, -1.95736504e+01, -3.05385017e+01,
          -2.65053921e+01, -5.62224617e+01, -3.62982521e+01,
          -5.50753784e+01 ]
      - [ -7.07824516e+00, -1.81325092e+01, -2.61466942e+01,
          -2.92088947e+01, -5.69537010e+01, -3.83448334e+01,
          -5.79246941e+01 ]
      - [ -6.94782877e+00, -2.10101414e+01, -2.66557274e+01,
          -2.81773720e+01, -5.64030037e+01, -3.89008789e+01,
          -5.57044067e+01 ]
      - [ -6.82859802e+00, -2.06352348e+01, -2.86281166e+01,
          -2.81616211e+01, -5.71233978e+01, -3.87379799e+01,
          -5.67506485e+01 ]
      - [ -6.91573238e+00, -2.03885193e+01, -2.60674858e+01,
          -2.88478966e+01, -5.66361389e+01, -3.92834816e+01,
          -5.66687164e+01 ]
      - [ -6.99386692e+00, -1.86351185e+01, -2.59774437e+01,
          -2.84715900e+01, -5.62916794e+01, -3.78271446e+01,
          -5.58772202e+01 ]
      - [ -6.97685671e+00, -1.90898685e+01, -2.62933102e+01,
          -2.75595264e+01, -5.51866302e+01, -3.71786232e+01,
          -5.46273003e+01 ]
      - [ -6.89669466e+00, -2.04815903e+01, -2.54878941e+01,
          -2.88554630e+01, -5.65486526e+01, -3.94220428e+01,
          -5.62443733e+01 ]
      - [ -6.99910545e+00, -1.97893028e+01, -2.70473919e+01,
          -2.88044662e+01, -5.72137909e+01, -3.87422523e+01,
          -5.69696541e+01 ]
      - [ -6.86427784e+00, -1.91520863e+01, -2.79432793e+01,
          -2.77843552e+01, -5.58895874e+01, -3.75040932e+01,
          -5.61280785e+01 ]
      - [ -7.00019503e+00, -1.83551941e+01, -2.72633820e+01,
          -2.75256729e+01, -5.58842163e+01, -3.68702965e+01,
          -5.49987793e+01 ]
      - [ -7.05142117e+00, -1.94399261e+01, -2.69761715e+01,
          -2.67657795e+01, -5.46656761e+01, -3.66072807e+01,
          -5.37050819e+01 ]
      - [ -6.86815882e+00, -1.92068806e+01, -2.59487858e+01,
          -2.93295307e+01, -5.73827705e+01, -3.89383736e+01,
          -5.72557907e+01 ]
      - [ -6.91143274e+00, -1.98082428e+01, -2.74755211e+01,
          -2.86230145e+01, -5.72840424e+01, -4.25964355e+01,
          -5.68464851e+01 ]
      - [ -6.87836313e+00, -1.80862885e+01, -2.52281532e+01,
          -3.01529388e+01, -5.79141655e+01, -4.06162453e+01,
          -5.88566246e+01 ]
      - [ -6.96516514e+00, -2.10451908e+01, -2.61189022e+01,
          -2.95787468e+01, -5.84654427e+01, -4.09332542e+01,
          -5.74946022e+01 ]
      - [ -6.89990473e+00, -1.87433758e+01, -2.39830627e+01,
          -2.62481518e+01, -5.13722916e+01, -3.71353264e+01,
          -5.34034271e+01 ]
      - [ -6.98456240e+00, -1.70176411e+01, -2.61344643e+01,
          -3.23659401e+01, -6.30888710e+01, -4.08773994e+01,
          -6.16431427e+01 ]
      - [ -7.01709032e+00, -2.16116066e+01, -3.10336189e+01,
          -2.91463470e+01, -5.92371597e+01, -4.00278511e+01,
          -6.24381638e+01 ]
      - [ -6.88824034e+00, -2.10259647e+01, -2.58891430e+01,
          -2.97487946e+01, -5.75774193e+01, -4.02840347e+01,
          -5.95461311e+01 ]
      - [ -6.99786615e+00, -1.69318676e+01, -2.62876797e+01,
          -2.66947441e+01, -5.46071281e+01, -3.56596642e+01,
          -5.32159843e+01 ]
      - [ -6.97265244e+00, -2.13351479e+01, -2.79956169e+01,
          -2.94888687e+01, -5.90967598e+01, -4.02465591e+01,
          -5.83285446e+01 ]
      - [ -6.83735180e+00, -2.16564007e+01, -2.60426941e+01,
          -2.63144665e+01, -5.45325775e+01, -3.74147339e+01,
          -5.25015793e+01 ]
      - [ -6.90992165e+00, -1.94134941e+01, -2.69007301e+01,
          -2.85027103e+01, -5.74692421e+01, -3.82855759e+01,
          -5.62459526e+01 ]
      - [ -6.97903061e+00, -1.90328960e+01, -2.57894650e+01,
          -2.95148220e+01, -5.84185257e+01, -3.92831116e+01,
          -5.72096519e+01 ]
      - [ -6.95147800e+00, -2.10831718e+01, -2.73428593e+01,
          -2.88227272e+01, -5.72345047e+01, -3.93643341e+01,
          -5.72703247e+01 ]
      - [ -6.95018339e+00, -2.13590240e+01, -2.64652233e+01,
          -3.11161060e+01, -5.99095612e+01, -4.19660835e+01,
          -6.25019073e+01 ]
      - [ -7.05426407e+00, -1.87573547e+01, -2.74417229e+01,
          -2.93267193e+01, -5.77127113e+01, -3.87204971e+01,
          -6.05334358e+01 ]
      - [ -7.05380440e+00, -2.01090126e+01, -2.97978706e+01,
          -2.82338638e+01, -5.76425781e+01, -3.82908707e+01,
          -5.75539513e+01 ]
      - [ -6.99838543e+00, -2.00784683e+01, -2.79371929e+01,
          -2.81186047e+01, -5.61712265e+01, -3.87539101e+01,
          -5.76621819e+01 ]
      - [ -6.86440611e+00, -2.22388802e+01, -2.59730072e+01,
          -2.69897995e+01, -5.49608192e+01, -3.85774994e+01,
          -5.34972878e+01 ]
      - [ -6.98677778e+00, -1.97809219e+01, -2.62419205e+01,
          -2.97465096e+01, -5.77471619e+01, -3.97320328e+01,
          -5.99202538e+01 ]
      - [ -7.05127525e+00, -2.10336456e+01, -2.96988106e+01,
          -2.94808559e+01, -5.90988770e+01, -4.00604897e+01,
          -6.05225868e+01 ]
      - [ -7.14651203e+00, -1.84100075e+01, -3.34489250e+01,
          -2.83413506e+01, -5.94658966e+01, -3.75733604e+01,
          -5.97363625e+01 ]
      - [ -7.05779171e+00, -2.10366936e+01, -2.79277020e+01,
          -2.92873726e+01, -5.79179153e+01, -4.00778122e+01,
          -5.94458542e+01 ]
      - [ -6.95608139e+00, -2.28839989e+01, -2.59357700e+01,
          -2.74716549e+01, -5.43282776e+01, -3.92999611e+01,
          -5.48422546e+01 ]
      - [ -7.07612038e+00, -1.85635548e+01, -2.66189976e+01,
          -3.16330585e+01, -6.18729820e+01, -4.09680176e+01,
          -6.08161011e+01 ]
      - [ -7.05728006e+00, -1.91261044e+01, -2.73491917e+01,
          -2.83473721e+01, -5.75013657e+01, -3.79267235e+01,
          -5.62337875e+01 ]
      - [ -7.15294647e+00, -2.23099556e+01, -2.79640751e+01,
          -2.98699951e+01, -5.93521919e+01, -4.10573845e+01,
          -5.89820213e+01 ]
      - [ -6.97471285e+00, -2.12075520e+01, -2.72574177e+01,
          -2.84288445e+01, -5.62854118e+01, -3.91063995e+01,
          -5.80870171e+01 ]
      - [ -7.12436914e+00, -2.14149246e+01, -2.80362282e+01,
          -3.08310051e+01, -6.08462372e+01, -4.15747871e+01,
          -6.04519463e+01 ]
      - [ -6.99348354e+00, -1.69866753e+01, -2.57590370e+01,
          -2.79883633e+01, -5.52112312e+01, -3.68229866e+01,
          -5.52060585e+01 ]
      - [ -7.17543745e+00, -2.17007484e+01, -2.78844147e+01,
          -2.92676620e+01, -6.18892555e+01, -4.01795235e+01,
          -5.78438530e+01 ]
      - [ -7.18816900e+00, -2.02736473e+01, -3.12143421e+01,
          -3.00013885e+01, -6.08075790e+01, -4.02131805e+01,
          -6.11674881e+01 ]
      - [ -6.99438572e+00, -1.90604038e+01, -2.63450222e+01,
          -2.81317406e+01, -5.55911789e+01, -3.77339516e+01,
          -5.58846741e+01 ]
      - [ -7.06948709e+00, -2.01159019e+01, -2.59098530e+01,
          -2.92282238e+01, -5.67979546e+01, -3.92962646e+01,
          -6.00899811e+01 ]
      - [ -7.06042862e+00, -2.12707844e+01, -2.62542458e+01,
          -2.76367702e+01, -5.49868774e+01, -3.83601723e+01,
          -5.48768616e+01 ]
      - [ -7.05446196e+00, -2.73811607e+01, -2.68577576e+01,
          -3.24135551e+01, -6.21168365e+01, -4.61268959e+01,
          -6.30829620e+01 ]
      - [ -7.05832577e+00, -2.22576923e+01, -2.75034943e+01,
          -3.04887142e+01, -5.94985809e+01, -4.19454346e+01,
          -6.12880478e+01 ]
      - [ -7.02392864e+00, -1.83891830e+01, -2.79134579e+01,
          -2.75663071e+01, -5.53095398e+01, -3.71056290e+01,
          -5.78108330e+01 ]
      - [ -7.13654804e+00, -1.98961754e+01, -2.64768867e+01,
          -2.78451462e+01, -5.80611687e+01, -3.81561623e+01,
          -5.50072746e+01 ]
      - [ -7.08021307e+00, -1.78061409e+01, -2.71532955e+01,
          -2.75558243e+01, -5.56112785e+01, -3.65468864e+01,
          -5.50516663e+01 ]
      - [ -7.04125261e+00, -1.76026402e+01, -2.66816120e+01,
          -2.91230240e+01, -5.86859970e+01, -3.85583267e+01,
          -5.70437279e+01 ]
      - [ -6.90028095e+00, -1.87796154e+01, -2.50118351e+01,
          -2.78691425e+01, -5.48307610e+01, -3.82098007e+01,
          -5.45270729e+01 ]
      - [ -7.07457972e+00, -1.78244247e+01, -2.89027348e+01,
          -2.87300491e+01, -5.75664902e+01, -3.82379456e+01,
          -5.91646500e+01 ]
      - [ -7.07623243e+00, -2.34546471e+01, -2.82048740e+01,
          -3.21988182e+01, -6.24007797e+01, -4.44927483e+01,
          -6.65929947e+01 ]
      - [ -7.05451250e+00, -1.85519447e+01, -2.81113720e+01,
          -2.86817837e+01, -5.70946045e+01, -3.81046982e+01,
          -5.87998505e+01 ]
      - [ -6.94289875e+00, -2.11243134e+01, -2.82055321e+01,
          -2.80508060e+01, -5.71848373e+01, -3.95042305e+01,
          -5.62507706e+01 ]
      - [ -7.07703066e+00, -1.73636417e+01, -2.55230827e+01,
          -2.85917664e+01, -5.58035049e+01, -3.72739258e+01,
          -5.63121796e+01 ]
      - [ -7.02452183e+00, -1.86870232e+01, -2.86876297e+01,
          -2.83058758e+01, -5.68095245e+01, -3.88840790e+01,
          -5.89479103e+01 ]
      - [ -7.04562759e+00, -2.04433022e+01, -2.72036686e+01,
          -2.89418182e+01, -5.71575623e+01, -4.01891022e+01,
          -5.77102470e+01 ]
      - [ -6.94338846e+00, -1.71726017e+01, -2.64935818e+01,
          -2.90814934e+01, -5.73625984e+01, -3.77100258e+01,
          -5.71021538e+01 ]
      - [ -6.99934530e+00, -1.92525883e+01, -3.06697445e+01,
          -2.89182472e+01, -5.89051018e+01, -3.85975456e+01,
          -5.92818947e+01 ]
      - [ -6.87002993e+00, -1.78983974e+01, -2.57871876e+01,
          -2.74557419e+01, -5.48171577e+01, -3.78889236e+01,
          -5.42063713e+01 ]
      - [ -7.16725016e+00, -2.74858780e+01, -2.89774265e+01,
          -3.07376461e+01, -6.06028709e+01, -4.49168930e+01,
          -6.26865120e+01 ]
      - [ -6.94008875e+00, -1.65917072e+01, -2.57746525e+01,
          -2.77886982e+01, -5.45813789e+01, -3.60963135e+01,
          -5.64840088e+01 ]
      - [ -6.85989046e+00, -1.75010662e+01, -2.62724094e+01,
          -2.62584553e+01, -5.25262070e+01, -3.70900078e+01,
          -5.52113571e+01 ]
      - [ -7.05451298e+00, -2.10628128e+01, -2.77855949e+01,
          -3.16720390e+01, -6.16032104e+01, -4.25692902e+01,
          -6.19509163e+01 ]
      - [ -7.04975080e+00, -1.63721027e+01, -2.69992504e+01,
          -2.84833393e+01, -5.62271614e+01, -3.69651337e+01,
          -5.88698387e+01 ]
      - [ -7.01292229e+00, -1.67869244e+01, -2.59224834e+01,
          -2.77270718e+01, -5.55811920e+01, -3.74148140e+01,
          -5.46201134e+01 ]
      - [ -6.93517494e+00, -1.61383171e+01, -2.75998936e+01,
          -2.81705475e+01, -5.90828667e+01, -3.63501511e+01,
          -5.60569458e+01 ]
      - [ -7.10715532e+00, -1.76238117e+01, -2.63231621e+01,
          -3.01000004e+01, -5.86222229e+01, -3.90155220e+01,
          -5.86968727e+01 ]
      - [ -7.17403412e+00, -1.70715313e+01, -2.53228302e+01,
          -3.10958138e+01, -5.98487663e+01, -4.10382080e+01,
          -5.95107307e+01 ]
      - [ -6.80393648e+00, -1.51978445e+01, -2.97611713e+01,
          -2.93809700e+01, -5.92610435e+01, -3.70328522e+01,
          -5.93392372e+01 ]
      - [ -7.16953707e+00, -1.70699863e+01, -2.52684708e+01,
          -2.96623611e+01, -5.71402435e+01, -3.85105629e+01,
          -5.89797935e+01 ]
      - [ -7.11129379e+00, -2.03657436e+01, -2.95472450e+01,
          -3.10591793e+01, -6.46648407e+01, -4.34041405e+01,
          -6.13630714e+01 ]
      - [ -7.02064705e+00, -1.98430061e+01, -2.63615837e+01,
          -2.87767925e+01, -6.22288513e+01, -3.96919441e+01,
          -5.63459854e+01 ]
      - [ -6.97837591e+00, -1.72604809e+01, -2.48263340e+01,
          -2.65171852e+01, -5.28284492e+01, -3.61132393e+01,
          -5.23520241e+01 ]
      - [ -7.01911211e+00, -1.95208893e+01, -2.61921501e+01,
          -2.86190510e+01, -5.75247307e+01, -3.93129349e+01,
          -5.60501823e+01 ]
      - [ -7.01857853e+00, -1.72149448e+01, -2.66882057e+01,
          -3.03930016e+01, -5.90253983e+01, -3.90154037e+01,
          -5.98263359e+01 ]
      - [ -7.00909281e+00, -1.75374928e+01, -2.54616432e+01,
          -2.64756527e+01, -5.30225029e+01, -3.52449417e+01,
          -5.26331863e+01 ]
      - [ -6.96412706e+00, -1.94596138e+01, -2.70490742e+01,
          -2.71015530e+01, -5.51046219e+01, -3.78058319e+01,
          -5.42618904e+01 ]
      - [ -6.98181915e+00, -1.89431400e+01, -2.61655941e+01,
          -2.69753819e+01, -5.38289719e+01, -3.79014244e+01,
          -5.39651604e+01 ]
      - [ -6.93031693e+00, -1.77490616e+01, -2.50089245e+01,
          -2.71991673e+01, -5.47515488e+01, -3.60867004e+01,
          -5.33316078e+01 ]
      - [ -7.10089493e+00, -1.90195389e+01, -2.65153637e+01,
          -2.90065269e+01, -5.97185707e+01, -3.89541512e+01,
          -5.67688408e+01 ]
      - [ -6.94808340e+00, -1.72260818e+01, -2.65717010e+01,
          -2.88901730e+01, -5.75682907e+01, -3.78055725e+01,
          -5.67026138e+01 ]
      - [ -6.97129774e+00, -1.94873810e+01, -3.00151672e+01,
          -2.94599476e+01, -5.93301811e+01, -3.93004456e+01,
          -5.99257317e+01 ]
      - [ -7.00217962e+00, -1.95496502e+01, -3.05625267e+01,
          -2.90544338e+01, -5.89979706e+01, -3.88576851e+01,
          -5.95833778e+01 ]
      - [ -7.10692596e+00, -1.92794456e+01, -2.99742928e+01,
          -3.29539948e+01, -6.44919281e+01, -4.26325340e+01,
          -6.54113083e+01 ]
      - [ -7.05195045e+00, -1.64151306e+01, -2.69090366e+01,
          -2.85252628e+01, -5.62635460e+01, -3.69317474e+01,
          -5.78348389e+01 ]
      - [ -6.89770460e+00, -2.02723846e+01, -2.57138405e+01,
          -2.88208046e+01, -5.68560600e+01, -3.92107620e+01,
          -5.62093315e+01 ]
      - [ -7.00401592e+00, -2.03452377e+01, -2.80373077e+01,
          -2.93754616e+01, -5.84719429e+01, -3.97122154e+01,
          -5.83883820e+01 ]
      - [ -6.94164515e+00, -1.67012844e+01, -2.56955357e+01,
          -2.77911835e+01, -5.45447235e+01, -3.61536789e+01,
          -5.64867668e+01 ]
      - [ -7.20168114e+00, -2.08923130e+01, -2.74840488e+01,
          -2.99347630e+01, -6.10991745e+01, -4.06161346e+01,
          -5.86478691e+01 ]
      - [ -7.01773643e+00, -2.11163960e+01, -2.60645695e+01,
          -3.01092606e+01, -5.83106499e+01, -4.09736519e+01,
          -5.89894447e+01 ]
      - [ -7.07605553e+00, -2.01440067e+01, -2.58133011e+01,
          -2.95847607e+01, -5.86984825e+01, -4.07659378e+01,
          -5.73142242e+01 ]
      - [ -6.92953205e+00, -2.09714336e+01, -2.56140156e+01,
          -2.78021107e+01, -5.76170883e+01, -3.95326042e+01,
          -5.45111732e+01 ]
      - [ -6.88743591e+00, -1.92298851e+01, -2.70200481e+01,
          -2.84125900e+01, -5.67830162e+01, -3.84086952e+01,
          -5.62864723e+01 ]
      - [ -6.95384264e+00, -1.71231327e+01, -2.45481834e+01,
          -2.76997356e+01, -5.38508301e+01, -3.75922585e+01,
          -5.52940865e+01 ]
      - [ -6.83492231e+00, -1.92217865e+01, -2.81920223e+01,
          -2.93843479e+01, -5.95006371e+01, -3.89955330e+01,
          -5.82089348e+01 ]
      - [ -7.06903696e+00, -2.11643734e+01, -2.63662701e+01,
          -2.96297035e+01, -5.78489685e+01, -4.02155876e+01,
          -5.81418495e+01 ]
      - [ -7.01613760e+00, -1.93229237e+01, -2.70908985e+01,
          -3.03663521e+01, -5.90975952e+01, -4.00328636e+01,
          -6.17224731e+01 ]
      - [ -6.91413260e+00, -1.98618031e+01, -2.68198166e+01,
          -2.68719044e+01, -5.37276840e+01, -3.68141060e+01,
          -5.56828194e+01 ]
      - [ -6.90359402e+00, -1.88913250e+01, -2.49902954e+01,
          -2.79038811e+01, -5.49052963e+01, -3.84924889e+01,
          -5.45512085e+01 ]
      - [ -6.96492052e+00, -2.15972271e+01, -2.47113972e+01,
          -3.25843582e+01, -6.16362076e+01, -4.34247627e+01,
          -6.15273247e+01 ]
      - [ -6.91485453e+00, -1.94086304e+01, -2.61748199e+01,
          -2.79081459e+01, -5.49499588e+01, -3.81487579e+01,
          -5.86108208e+01 ]
      - [ -6.75682974e+00, -1.88093472e+01, -2.69318066e+01,
          -2.54550533e+01, -5.25490417e+01, -3.56630249e+01,
          -5.17387123e+01 ]
      - [ -6.78248835e+00, -1.83176708e+01, -2.37963982e+01,
          -2.85227165e+01, -5.52514763e+01, -3.81801872e+01,
          -5.48753471e+01 ]
      - [ -7.10201836e+00, -2.48733997e+01, -2.52791138e+01,
          -2.93739891e+01, -5.67496490e+01, -4.35416832e+01,
          -5.78851891e+01 ]
      - [ -7.05967808e+00, -2.02388401e+01, -2.64885311e+01,
          -2.75684223e+01, -5.51298981e+01, -3.78264046e+01,
          -5.48079910e+01 ]
      - [ -7.06591272e+00, -2.02352676e+01, -2.59784050e+01,
          -2.93140469e+01, -5.86969719e+01, -4.00431938e+01,
          -5.69760246e+01 ]
      - [ -7.11775160e+00, -2.10459805e+01, -2.65088921e+01,
          -2.85240135e+01, -5.64259186e+01, -3.90745583e+01,
          -5.63509636e+01 ]
      - [ -6.91655779e+00, -1.90930309e+01, -2.62780628e+01,
          -2.80464993e+01, -5.52261658e+01, -3.76791496e+01,
          -5.68969345e+01 ]
      - [ -7.09704208e+00, -2.11908245e+01, -2.83062000e+01,
          -2.90315304e+01, -5.77998657e+01, -4.18384285e+01,
          -5.85566826e+01 ]
      - [ -6.91485357e+00, -1.95515518e+01, -2.79591064e+01,
          -3.02780304e+01, -6.01978722e+01, -4.00626602e+01,
          -5.95090370e+01 ]
      - [ -7.10188198e+00, -2.27130909e+01, -2.52921734e+01,
          -2.92953148e+01, -5.65896378e+01, -4.07382202e+01,
          -5.99696121e+01 ]
      - [ -7.10763168e+00, -1.82696724e+01, -2.88092289e+01,
          -2.99674835e+01, -5.93774338e+01, -3.91232681e+01,
          -6.09376678e+01 ]
      - [ -7.04199600e+00, -2.11387157e+01, -3.01736050e+01,
          -2.92271309e+01, -6.05044518e+01, -3.98151970e+01,
          -5.89493103e+01 ]
      - [ -6.93717003e+00, -1.92711182e+01, -2.97343254e+01,
          -2.76935215e+01, -5.64494019e+01, -3.74885674e+01,
          -5.76672592e+01 ]
      - [ -7.07195902e+00, -1.73312817e+01, -2.74609356e+01,
          -2.93267899e+01, -5.92849884e+01, -3.80586090e+01,
          -5.77430344e+01 ]
      - [ -7.09667921e+00, -2.22508869e+01, -2.55224819e+01,
          -2.87936687e+01, -5.60289841e+01, -4.31526375e+01,
          -5.69236984e+01 ]
      - [ -7.08244467e+00, -2.11106873e+01, -2.72048569e+01,
          -3.16482525e+01, -6.23501358e+01, -4.23755417e+01,
          -6.11154289e+01 ]
      - [ -7.00228739e+00, -1.87236271e+01, -2.77575684e+01,
          -2.92682762e+01, -5.82192078e+01, -3.86400833e+01,
          -5.80505028e+01 ]
      - [ -6.99920368e+00, -1.92371769e+01, -2.63223381e+01,
          -2.88874931e+01, -5.81634064e+01, -3.89755020e+01,
          -5.65104141e+01 ]
      - [ -7.04830885e+00, -1.85497627e+01, -2.85415440e+01,
          -2.90401974e+01, -5.78377991e+01, -3.83349915e+01,
          -5.99882469e+01 ]
      - [ -7.08569431e+00, -2.13958111e+01, -2.81355858e+01,
          -2.89315872e+01, -5.78433723e+01, -4.09146690e+01,
          -5.77820053e+01 ]
      - [ -7.01686954e+00, -1.75253429e+01, -2.69986610e+01,
          -2.79411945e+01, -5.58879776e+01, -3.74665451e+01,
          -5.56544380e+01 ]
      - [ -6.81670761e+00, -1.94345760e+01, -2.60870934e+01,
          -2.73628960e+01, -5.46879578e+01, -3.79739990e+01,
          -5.42670517e+01 ]
      - [ -7.05469751e+00, -1.93800240e+01, -2.47925205e+01,
          -2.77735481e+01, -5.80858879e+01, -3.81636581e+01,
          -5.40567398e+01 ]
      - [ -7.16157675e+00, -2.23207970e+01, -2.73018608e+01,
          -3.14989529e+01, -6.13085594e+01, -4.34930611e+01,
          -6.11902885e+01 ]
      - [ -7.17212248e+00, -2.02301884e+01, -2.57339420e+01,
          -3.18859596e+01, -6.09791412e+01, -4.20481949e+01,
          -6.11150284e+01 ]
      - [ -7.23811388e+00, -2.10203056e+01, -3.04007587e+01,
          -3.05672092e+01, -6.17045021e+01, -4.15244102e+01,
          -6.12090530e+01 ]
      - [ -7.04923582e+00, -1.76517277e+01, -2.80500584e+01,
          -3.00350323e+01, -5.98579636e+01, -3.90781403e+01,
          -5.91954193e+01 ]
      - [ -7.14560270e+00, -2.01967106e+01, -2.99978123e+01,
          -2.84615669e+01, -5.84535255e+01, -3.88226395e+01,
          -5.78140297e+01 ]
      - [ -7.04643154e+00, -2.09213619e+01, -3.09369850e+01,
          -3.06237831e+01, -6.20765877e+01, -4.11422920e+01,
          -6.15551147e+01 ]
      - [ -7.14714479e+00, -2.14655418e+01, -2.81090240e+01,
          -3.10211658e+01, -6.06637077e+01, -4.18986015e+01,
          -6.15569878e+01 ]
      - [ -6.95982790e+00, -2.16656322e+01, -2.69476223e+01,
          -2.94788456e+01, -5.77174301e+01, -4.12568016e+01,
          -5.91956291e+01 ]
      - [ -7.14864779e+00, -2.02141552e+01, -2.95651302e+01,
          -2.93178043e+01, -5.93507423e+01, -3.99396553e+01,
          -5.89421844e+01 ]
      - [ -6.91940928e+00, -2.09068737e+01, -2.55349731e+01,
          -2.76440296e+01, -5.61406441e+01, -3.86362343e+01,
          -5.42446823e+01 ]
      - [ -6.88536549e+00, -1.97756538e+01, -2.69559879e+01,
          -2.84568977e+01, -5.69412231e+01, -3.88758812e+01,
          -5.62818527e+01 ]
      - [ -6.76281786e+00, -1.99735794e+01, -2.58521252e+01,
          -2.76840973e+01, -5.44660416e+01, -3.82420082e+01,
          -5.62529030e+01 ]
      - [ -6.94564962e+00, -1.71507149e+01, -2.44253654e+01,
          -2.75118656e+01, -5.34928627e+01, -3.76602554e+01,
          -5.53358612e+01 ]
      - [ -6.98405170e+00, -1.88091221e+01, -2.71370068e+01,
          -2.89652576e+01, -5.89113579e+01, -3.84312057e+01,
          -5.70278168e+01 ]
      - [ -7.03998137e+00, -2.20637875e+01, -2.86122036e+01,
          -2.70012798e+01, -5.62877731e+01, -3.88613930e+01,
          -5.48346405e+01 ]
      - [ -6.89170837e+00, -2.20021000e+01, -2.60902462e+01,
          -2.98511429e+01, -5.78627205e+01, -4.11870232e+01,
          -5.90940590e+01 ]
      - [ -6.81938887e+00, -1.89973946e+01, -2.64283676e+01,
          -2.95491657e+01, -6.04011269e+01, -4.05430641e+01,
          -5.75395622e+01 ]
      - [ -6.86065006e+00, -1.82370014e+01, -2.48556290e+01,
          -2.67029228e+01, -5.29803238e+01, -3.72261620e+01,
          -5.27126274e+01 ]
      - [ -7.04366064e+00, -1.77542152e+01, -2.67113857e+01,
          -3.05537586e+01, -5.97360039e+01, -3.96409569e+01,
          -5.93888817e+01 ]
      - [ -6.82437754e+00, -2.01635056e+01, -2.56866913e+01,
          -2.71575413e+01, -5.36892700e+01, -3.72500763e+01,
          -5.43922768e+01 ]
      - [ -6.91048384e+00, -1.97695732e+01, -2.67021179e+01,
          -2.68869553e+01, -5.36822510e+01, -3.67771416e+01,
          -5.69270897e+01 ]
      - [ -7.02269077e+00, -1.81088600e+01, -2.72821808e+01,
          -2.80223923e+01, -5.57132149e+01, -3.70795403e+01,
          -5.69753571e+01 ]
      - [ -6.96747255e+00, -2.04791470e+01, -2.45563316e+01,
          -3.29163895e+01, -6.25382233e+01, -4.34259834e+01,
          -6.17460213e+01 ]
      - [ -7.02576303e+00, -1.88682461e+01, -2.94980774e+01,
          -2.87103291e+01, -5.78824081e+01, -3.82967834e+01,
          -5.88465576e+01 ]
      - [ -7.04789686e+00, -1.64198437e+01, -2.69093437e+01,
          -2.83896637e+01, -5.60519485e+01, -3.68420753e+01,
          -5.78789177e+01 ]
      - [ -7.06671143e+00, -1.94665928e+01, -2.52358818e+01,
          -2.76265335e+01, -5.40584373e+01, -3.83013039e+01,
          -5.73467522e+01 ]
      - [ -7.00346136e+00, -1.77344322e+01, -2.50743141e+01,
          -2.65622559e+01, -5.24753990e+01, -3.57782593e+01,
          -5.32583389e+01 ]
      - [ -7.01149416e+00, -2.10189781e+01, -2.77863064e+01,
          -2.71511669e+01, -5.46199036e+01, -3.94424782e+01,
          -6.14271660e+01 ]
      - [ -7.02573824e+00, -1.95009460e+01, -2.93567028e+01,
          -2.95626698e+01, -6.17553711e+01, -4.07300835e+01,
          -5.90244751e+01 ]
      - [ -7.01881647e+00, -1.93447475e+01, -2.76053429e+01,
          -2.87398663e+01, -5.76155434e+01, -3.84191551e+01,
          -5.70530472e+01 ]
      - [ -7.01882315e+00, -2.11325436e+01, -2.61158676e+01,
          -3.12622719e+01, -6.14061661e+01, -4.36923599e+01,
          -5.99793587e+01 ]
      - [ -6.84625912e+00, -1.99252987e+01, -2.65880356e+01,
          -2.79545193e+01, -5.53558617e+01, -3.86541367e+01,
          -5.59626999e+01 ]
      - [ -6.89240599e+00, -1.90606670e+01, -2.61190662e+01,
          -2.77304440e+01, -5.48492317e+01, -3.73348694e+01,
          -5.52223778e+01 ]
      - [ -7.13807392e+00, -2.40543919e+01, -2.74303341e+01,
          -3.00363483e+01, -5.92736511e+01, -4.30588684e+01,
          -5.89967346e+01 ]
      - [ -6.98320580e+00, -2.02841415e+01, -2.70821095e+01,
          -2.85492649e+01, -5.71384659e+01, -3.87116814e+01,
          -5.64846382e+01 ]
      - [ -7.10907650e+00, -1.91232986e+01, -2.52801971e+01,
          -2.90413914e+01, -5.65087929e+01, -3.92173347e+01,
          -5.65921974e+01 ]
      - [ -6.95310116e+00, -2.14956398e+01, -2.67867432e+01,
          -2.82990952e+01, -5.66709366e+01, -3.91672745e+01,
          -5.59477119e+01 ]
      - [ -6.88733196e+00, -1.89596195e+01, -2.49420223e+01,
          -3.01471615e+01, -5.78591270e+01, -3.97571716e+01,
          -5.83203011e+01 ]
      - [ -6.98038387e+00, -2.00078850e+01, -2.80436935e+01,
          -3.00117702e+01, -5.90477142e+01, -4.00161514e+01,
          -6.10981827e+01 ]
      - [ -5.68650198e+00, -1.43443031e+01, -1.99863129e+01,
          -1.99671841e+01, -3.99441986e+01, -2.73209934e+01,
          -4.37115707e+01 ]
      - [ -6.08734608e+00, -1.53550854e+01, -1.93205700e+01,
          -2.63133469e+01, -4.93980293e+01, -3.40394020e+01,
          -4.95705338e+01 ]
      - [ -6.30588388e+00, -1.45999985e+01, -2.31087055e+01,
          -2.59526558e+01, -5.09172134e+01, -3.34487915e+01,
          -5.07556076e+01 ]
      - [ -5.13828278e+00, -1.19260082e+01, -1.70393848e+01,
          -1.89267960e+01, -3.73351212e+01, -2.52922478e+01,
          -3.71885109e+01 ]
      - [ -5.96620989e+00, -1.38249521e+01, -1.84961510e+01,
          -2.18150368e+01, -4.22442131e+01, -3.21813431e+01,
          -4.24027023e+01 ]
      - [ -5.93264532e+00, -1.74362278e+01, -1.86795597e+01,
          -2.33572865e+01, -4.47739410e+01, -3.24729462e+01,
          -4.46754646e+01 ]
      - [ -5.93928194e+00, -1.34821072e+01, -2.03177090e+01,
          -2.20440521e+01, -4.32258720e+01, -2.87895088e+01,
          -4.63629913e+01 ]
      - [ -5.71448851e+00, -1.47284002e+01, -1.73790073e+01,
          -1.98649883e+01, -3.85041389e+01, -2.72318172e+01,
          -4.01818275e+01 ]
      - [ -5.96181059e+00, -1.33253794e+01, -1.96065636e+01,
          -2.13557167e+01, -4.23740463e+01, -2.82200241e+01,
          -4.20457611e+01 ]
      - [ -5.92005205e+00, -1.30514536e+01, -2.02998238e+01,
          -2.17302570e+01, -4.34171791e+01, -2.86897984e+01,
          -4.28964310e+01 ]
      - [ -6.43361950e+00, -1.42454376e+01, -2.13850822e+01,
          -2.27811127e+01, -4.50923882e+01, -3.00133247e+01,
          -4.53662071e+01 ]
      - [ -6.62607622e+00, -1.48799181e+01, -2.22328072e+01,
          -2.41341324e+01, -5.02626572e+01, -3.18464527e+01,
          -4.73189850e+01 ]
      - [ -5.53337431e+00, -1.23786058e+01, -1.92473297e+01,
          -2.20627213e+01, -4.57603607e+01, -2.82889729e+01,
          -4.27188873e+01 ]
      - [ -6.35308504e+00, -1.53426113e+01, -2.23407383e+01,
          -2.48992653e+01, -4.92377815e+01, -3.27616234e+01,
          -4.86549301e+01 ]
      - [ -5.72078419e+00, -1.53863697e+01, -1.84751492e+01,
          -2.08902054e+01, -4.19245682e+01, -2.89605236e+01,
          -4.06075439e+01 ]
      - [ -5.01011038e+00, -1.14309187e+01, -1.63509903e+01,
          -1.81305180e+01, -3.57781525e+01, -2.40165691e+01,
          -3.56640396e+01 ]
      - [ -5.85995436e+00, -1.29675665e+01, -2.18959866e+01,
          -2.12665062e+01, -4.38421097e+01, -2.77533245e+01,
          -4.29213486e+01 ]
      - [ -6.16059780e+00, -1.49038038e+01, -2.05764809e+01,
          -2.22784290e+01, -4.40092773e+01, -2.97607594e+01,
          -4.40997200e+01 ]
      - [ -5.46303654e+00, -1.56304855e+01, -1.81632557e+01,
          -1.89893665e+01, -3.75963097e+01, -2.74838295e+01,
          -3.89771996e+01 ]
      - [ -5.40694714e+00, -1.15926657e+01, -1.83873119e+01,
          -1.96815929e+01, -3.99123383e+01, -2.60472851e+01,
          -3.87639656e+01 ]
      - [ -6.21005535e+00, -1.44604301e+01, -2.13515778e+01,
          -2.20613728e+01, -4.38048248e+01, -2.93513699e+01,
          -4.50884247e+01 ]
      - [ -5.93336105e+00, -1.34109116e+01, -1.99625530e+01,
          -2.14709454e+01, -4.25165024e+01, -2.82544651e+01,
          -4.25526886e+01 ]
      - [ -5.48478460e+00, -1.23045845e+01, -1.99879017e+01,
          -2.02933331e+01, -4.19399948e+01, -2.68599529e+01,
          -4.04591713e+01 ]
      - [ -5.57325172e+00, -1.26276379e+01, -1.87173195e+01,
          -2.09435425e+01, -4.07764397e+01, -2.74664459e+01,
          -4.34311752e+01 ]
      - [ -6.23651028e+00, -1.49134045e+01, -2.02972450e+01,
          -2.35925446e+01, -4.68406677e+01, -3.10548477e+01,
          -4.55757713e+01 ]
      - [ -6.32399273e+00, -1.36816597e+01, -2.11968937e+01,
          -2.31421547e+01, -4.74532471e+01, -3.13999462e+01,
          -4.53186264e+01 ]
      - [ -6.18122768e+00, -1.40581970e+01, -2.06347256e+01,
          -2.22126732e+01, -4.40356178e+01, -2.99171734e+01,
          -4.39352989e+01 ]
      - [ -5.72479439e+00, -1.31666346e+01, -1.79203701e+01,
          -2.02403297e+01, -3.93393898e+01, -2.68849125e+01,
          -4.09728584e+01 ]
      - [ -5.99069214e+00, -1.68994637e+01, -1.92093945e+01,
          -2.38200226e+01, -4.56348152e+01, -3.31203651e+01,
          -4.57325592e+01 ]
      - [ -6.17087364e+00, -1.38701725e+01, -2.05881443e+01,
          -2.19100494e+01, -4.43445015e+01, -2.90578079e+01,
          -4.32081795e+01 ]
      - [ -5.64864206e+00, -1.31661949e+01, -2.24059296e+01,
          -2.29511871e+01, -4.66042595e+01, -2.97904873e+01,
          -4.57065582e+01 ]
      - [ -5.56077242e+00, -1.30366564e+01, -1.74608078e+01,
          -2.01326027e+01, -3.89611053e+01, -2.68436069e+01,
          -4.03227463e+01 ]
      - [ -6.56381559e+00, -1.52612429e+01, -2.26012020e+01,
          -2.40410500e+01, -5.21850739e+01, -3.25673256e+01,
          -4.73622093e+01 ]
      - [ -6.03267384e+00, -1.32640543e+01, -1.98898067e+01,
          -2.31842575e+01, -4.47406998e+01, -2.99392586e+01,
          -4.63554344e+01 ]
      - [ -5.64054060e+00, -1.27703972e+01, -1.89643154e+01,
          -2.12504101e+01, -4.21813316e+01, -2.99910355e+01,
          -4.14647446e+01 ]
      - [ -5.80305862e+00, -1.25023432e+01, -1.88945656e+01,
          -2.09978905e+01, -4.09905701e+01, -2.72971706e+01,
          -4.21552467e+01 ]
      - [ -6.28007078e+00, -1.39028912e+01, -2.34694519e+01,
          -2.30780144e+01, -4.65494690e+01, -3.04468899e+01,
          -4.69112320e+01 ]
      - [ -5.77865839e+00, -1.48354931e+01, -1.97370605e+01,
          -2.12460823e+01, -4.46370163e+01, -3.05301590e+01,
          -4.17391701e+01 ]
      - [ -6.49878931e+00, -1.50021725e+01, -2.27507095e+01,
          -2.32742996e+01, -4.95282326e+01, -3.13860168e+01,
          -4.62875710e+01 ]
      - [ -5.77337122e+00, -1.49737139e+01, -1.89952984e+01,
          -2.17269840e+01, -4.34661598e+01, -3.01019440e+01,
          -4.21209488e+01 ]
      - [ -5.64881325e+00, -1.27783442e+01, -2.15592041e+01,
          -2.09330330e+01, -4.22853279e+01, -2.80688972e+01,
          -4.30060577e+01 ]
      - [ -6.52808285e+00, -1.54090834e+01, -2.28685894e+01,
          -2.41445293e+01, -5.09663734e+01, -3.20551643e+01,
          -4.76517487e+01 ]
      - [ -5.95645905e+00, -1.50552864e+01, -2.01498737e+01,
          -2.67332039e+01, -5.01801453e+01, -3.43159714e+01,
          -5.24414902e+01 ]
      - [ -6.02728748e+00, -1.45441818e+01, -2.26121368e+01,
          -2.46790733e+01, -4.86731987e+01, -3.25369530e+01,
          -4.86693115e+01 ]
      - [ -6.24699688e+00, -1.42450867e+01, -2.20003147e+01,
          -2.41321182e+01, -4.73083916e+01, -3.15463943e+01,
          -4.80091667e+01 ]
      - [ -6.10919046e+00, -1.37910929e+01, -2.03844185e+01,
          -2.23680401e+01, -4.39234200e+01, -2.95629597e+01,
          -4.43443604e+01 ]
      - [ -5.47578478e+00, -1.26916084e+01, -1.84509907e+01,
          -2.04192333e+01, -4.03548012e+01, -2.79071770e+01,
          -4.00834198e+01 ]
      - [ -6.13953495e+00, -1.37170229e+01, -2.07915726e+01,
          -2.49301929e+01, -4.79543304e+01, -3.19349308e+01,
          -4.84301338e+01 ]
      - [ -5.81165934e+00, -1.33467407e+01, -1.97315254e+01,
          -2.08339882e+01, -4.26882553e+01, -2.80861511e+01,
          -4.11388016e+01 ]
      - [ -5.96733856e+00, -1.36817913e+01, -2.25705605e+01,
          -2.17521172e+01, -4.49163437e+01, -2.90667477e+01,
          -4.39857140e+01 ]
      - [ -6.01606798e+00, -1.39274082e+01, -2.10062256e+01,
          -2.57404995e+01, -4.91347961e+01, -3.59367981e+01,
          -5.07108727e+01 ]
      - [ -5.66038847e+00, -1.53740644e+01, -1.81079731e+01,
          -2.18047409e+01, -4.17694893e+01, -2.95398064e+01,
          -4.38089333e+01 ]
      - [ -6.05996609e+00, -1.66458683e+01, -1.88038006e+01,
          -2.07312069e+01, -4.06661911e+01, -2.92263107e+01,
          -4.11269875e+01 ]
      - [ -6.07009363e+00, -1.40417595e+01, -2.19734287e+01,
          -2.44881687e+01, -4.77279549e+01, -3.15120621e+01,
          -4.97328529e+01 ]
      - [ -5.98622227e+00, -1.39871168e+01, -2.12281246e+01,
          -2.51525116e+01, -4.83592949e+01, -3.21574097e+01,
          -5.00577202e+01 ]
      - [ -5.84554911e+00, -1.34346056e+01, -1.84278736e+01,
          -2.16915073e+01, -4.18652725e+01, -2.85625725e+01,
          -4.25460243e+01 ]
      - [ -5.02437830e+00, -1.11800661e+01, -1.71931210e+01,
          -1.84487419e+01, -3.63934288e+01, -2.59643250e+01,
          -3.70284233e+01 ]
      - [ -6.41760254e+00, -1.42479286e+01, -2.10174370e+01,
          -2.35056667e+01, -4.66838531e+01, -3.10683861e+01,
          -4.58543282e+01 ]
      - [ -6.20478630e+00, -1.58316917e+01, -1.99392796e+01,
          -2.13334541e+01, -4.19698219e+01, -2.93130016e+01,
          -4.88701630e+01 ]
      - [ -5.81254387e+00, -1.52342358e+01, -1.86753807e+01,
          -2.20944519e+01, -4.24870796e+01, -2.97169342e+01,
          -4.45691566e+01 ]
      - [ -6.17744970e+00, -1.50798473e+01, -1.90037537e+01,
          -2.21504631e+01, -4.40641861e+01, -3.08347168e+01,
          -4.27633362e+01 ]
      - [ -5.72334671e+00, -1.39699545e+01, -1.80508785e+01,
          -2.14298630e+01, -4.12567329e+01, -2.85000515e+01,
          -4.20900917e+01 ]
      - [ -5.96576071e+00, -1.40533257e+01, -1.96042366e+01,
          -2.38137627e+01, -4.57839699e+01, -3.22792206e+01,
          -4.59723320e+01 ]
      - [ -5.83640289e+00, -1.30386276e+01, -1.93027515e+01,
          -2.11272507e+01, -4.16737747e+01, -2.78568726e+01,
          -4.17043457e+01 ]
      - [ -5.92866087e+00, -1.31123409e+01, -1.95673237e+01,
          -2.09067173e+01, -4.11526680e+01, -2.74979630e+01,
          -4.31608086e+01 ]
      - [ -6.17579460e+00, -1.47264671e+01, -2.11741352e+01,
          -2.20623379e+01, -4.40558929e+01, -3.06113663e+01,
          -4.39999657e+01 ]
      - [ -6.05924320e+00, -1.54898167e+01, -2.03966732e+01,
          -2.38796444e+01, -4.63105278e+01, -3.23752060e+01,
          -4.64247284e+01 ]
      - [ -6.08075953e+00, -1.45755844e+01, -2.24312935e+01,
          -2.26685448e+01, -4.68097992e+01, -3.02561169e+01,
          -4.52396469e+01 ]
      - [ -5.86908245e+00, -1.32029448e+01, -1.90691624e+01,
          -2.08430119e+01, -4.20585976e+01, -2.82677612e+01,
          -4.08410835e+01 ]
      - [ -5.88884401e+00, -1.24120836e+01, -2.08463078e+01,
          -2.16619244e+01, -4.29944649e+01, -2.84758987e+01,
          -4.38809738e+01 ]
      - [ -6.22598457e+00, -1.85626545e+01, -2.14625549e+01,
          -2.30760250e+01, -4.53991470e+01, -3.26751747e+01,
          -4.64863586e+01 ]
      - [ -5.58339691e+00, -1.57795458e+01, -1.78161125e+01,
          -2.15266514e+01, -4.40800781e+01, -2.95320053e+01,
          -4.11996040e+01 ]
      - [ -5.89084673e+00, -1.43958969e+01, -2.10100117e+01,
          -2.16791306e+01, -4.30835838e+01, -2.90913353e+01,
          -4.41144600e+01 ]
      - [ -6.41749048e+00, -1.42675695e+01, -2.45077572e+01,
          -2.62010880e+01, -5.17412682e+01, -3.33508377e+01,
          -5.21405983e+01 ]
      - [ -5.72127819e+00, -1.57788658e+01, -1.85525360e+01,
          -2.33323860e+01, -4.64471474e+01, -3.22409897e+01,
          -4.42813797e+01 ]
      - [ -5.72780561e+00, -1.47735558e+01, -1.91906395e+01,
          -2.46999397e+01, -4.66923637e+01, -3.25599518e+01,
          -4.78494186e+01 ]
      - [ -5.76795053e+00, -1.30684166e+01, -2.05991917e+01,
          -2.26552849e+01, -4.68968124e+01, -2.97844353e+01,
          -4.42852097e+01 ]
      - [ -6.25092793e+00, -1.57979183e+01, -2.02454357e+01,
          -2.40658836e+01, -4.74081154e+01, -3.27744141e+01,
          -4.62704506e+01 ]
      - [ -6.11242104e+00, -1.46198845e+01, -1.93613930e+01,
          -2.51777744e+01, -4.76044579e+01, -3.42476425e+01,
          -4.81027184e+01 ]
      - [ -6.09518385e+00, -1.32349043e+01, -2.18919353e+01,
          -2.43196793e+01, -4.92059975e+01, -3.09918728e+01,
          -4.74398994e+01 ]
      - [ -6.02161646e+00, -1.40587406e+01, -1.94120693e+01,
          -2.13814487e+01, -4.53971596e+01, -2.93209629e+01,
          -4.17785683e+01 ]
      - [ -5.72685051e+00, -1.26899900e+01, -2.19623470e+01,
          -2.42216721e+01, -4.76083984e+01, -3.06792431e+01,
          -4.77181206e+01 ]
      - [ -6.17490911e+00, -1.47634373e+01, -2.13923111e+01,
          -2.35669003e+01, -4.60469589e+01, -3.14823170e+01,
          -4.95528755e+01 ]
      - [ -5.84933186e+00, -1.28848286e+01, -2.39644947e+01,
          -2.29076710e+01, -4.63583946e+01, -2.97237186e+01,
          -4.81164284e+01 ]
      - [ -5.97620678e+00, -1.42528543e+01, -2.08407593e+01,
          -2.46584682e+01, -4.75190010e+01, -3.17923527e+01,
          -4.82154236e+01 ]
      - [ -5.47896290e+00, -1.26781406e+01, -1.84362755e+01,
          -2.25393677e+01, -4.33573380e+01, -2.92975407e+01,
          -4.33907471e+01 ]
      - [ -5.87305212e+00, -1.46014662e+01, -2.44361038e+01,
          -2.14513569e+01, -4.46581650e+01, -2.87520924e+01,
          -4.48419495e+01 ]
      - [ -5.65893459e+00, -1.50133677e+01, -1.82628613e+01,
          -2.24542694e+01, -4.37605438e+01, -3.13148651e+01,
          -4.28942413e+01 ]
      - [ -6.13942814e+00, -1.52828293e+01, -2.16228123e+01,
          -2.58746128e+01, -4.98246536e+01, -3.61300888e+01,
          -5.01754532e+01 ]
      - [ -5.92399120e+00, -1.52547369e+01, -1.79950523e+01,
          -2.04968529e+01, -3.97463303e+01, -2.81369114e+01,
          -4.22220001e+01 ]
      - [ -5.74352884e+00, -1.32874899e+01, -2.25731239e+01,
          -2.31278267e+01, -4.64230690e+01, -3.11140881e+01,
          -4.62428360e+01 ]
      - [ -6.56316423e+00, -1.45759201e+01, -2.16797657e+01,
          -2.33335800e+01, -4.58403816e+01, -3.06218872e+01,
          -4.99750633e+01 ]
      - [ -6.06217909e+00, -1.44405823e+01, -2.09289608e+01,
          -2.27467327e+01, -4.47068443e+01, -3.01257439e+01,
          -4.53486748e+01 ]
      - [ -5.45032597e+00, -1.38740788e+01, -1.85220928e+01,
          -1.96069717e+01, -3.87214928e+01, -2.69744320e+01,
          -3.98477058e+01 ]
      - [ -5.77659035e+00, -1.31451950e+01, -1.90628891e+01,
          -2.09647198e+01, -4.18342056e+01, -2.80359173e+01,
          -4.10781250e+01 ]
      - [ -5.58775139e+00, -1.55405121e+01, -1.83474998e+01,
          -2.11984749e+01, -4.11080513e+01, -2.93213940e+01,
          -4.16870232e+01 ]
      - [ -6.13233423e+00, -1.52134609e+01, -2.20199947e+01,
          -2.61968327e+01, -5.03417625e+01, -3.60786514e+01,
          -5.16318207e+01 ]
      - [ -5.66164780e+00, -1.38267431e+01, -1.83161144e+01,
          -2.28956528e+01, -4.40981598e+01, -3.01962242e+01,
          -4.36821899e+01 ]
      - [ -5.79378366e+00, -1.55821943e+01, -1.82217712e+01,
          -2.12805443e+01, -4.10375175e+01, -3.07920609e+01,
          -4.32614059e+01 ]
      - [ -5.65611649e+00, -1.23666182e+01, -2.03549500e+01,
          -2.34822311e+01, -4.55862389e+01, -3.08069572e+01,
          -4.59866676e+01 ]
      - [ -6.42419720e+00, -1.43402433e+01, -2.11642437e+01,
          -2.36001968e+01, -4.65723572e+01, -3.10589371e+01,
          -4.61660080e+01 ]
      - [ -5.79139853e+00, -1.47471561e+01, -2.27224998e+01,
          -2.24092426e+01, -4.56438866e+01, -3.35784264e+01,
          -4.51273537e+01 ]
      - [ -5.89820480e+00, -1.32221308e+01, -1.95169392e+01,
          -2.10922661e+01, -4.42228889e+01, -2.90293560e+01,
          -4.13986282e+01 ]
      - [ -6.00932026e+00, -1.50432405e+01, -2.06092415e+01,
          -2.27378197e+01, -4.68249130e+01, -3.08165092e+01,
          -4.44153709e+01 ]
      - [ -5.59276676e+00, -1.24222937e+01, -1.82837334e+01,
          -1.97515640e+01, -3.92539520e+01, -2.62235279e+01,
          -3.90076523e+01 ]
      - [ -5.60193539e+00, -1.39304495e+01, -1.69019146e+01,
          -1.88531418e+01, -3.67343674e+01, -2.58183765e+01,
          -3.91862602e+01 ]
      - [ -5.28634167e+00, -1.13660030e+01, -1.70806751e+01,
          -1.90406361e+01, -3.71239853e+01, -2.47611351e+01,
          -3.86588783e+01 ]
      - [ -6.51039362e+00, -1.50188761e+01, -2.24152718e+01,
          -2.34185753e+01, -4.83196297e+01, -3.19167156e+01,
          -4.63450432e+01 ]
      - [ -5.68885231e+00, -1.23605566e+01, -1.72955303e+01,
          -1.81445389e+01, -3.58651924e+01, -2.43255730e+01,
          -3.92130241e+01 ]
      - [ -6.43811560e+00, -1.68909397e+01, -2.03534431e+01,
          -2.25411930e+01, -4.53299904e+01, -3.32878838e+01,
          -4.40239182e+01 ]
      - [ -6.14261198e+00, -1.35990238e+01, -2.00756035e+01,
          -2.16393948e+01, -4.36284714e+01, -2.86621304e+01,
          -4.25518150e+01 ]
      - [ -5.90504408e+00, -1.35027390e+01, -1.97076836e+01,
          -2.22477722e+01, -4.34668655e+01, -2.97249374e+01,
          -4.37054863e+01 ]
      - [ -5.40904903e+00, -1.13865337e+01, -1.77452679e+01,
          -1.91550560e+01, -3.76848297e+01, -2.50496445e+01,
          -3.85632210e+01 ]
      - [ -5.64113474e+00, -1.25518208e+01, -1.84440250e+01,
          -2.01476936e+01, -3.98185501e+01, -2.66528454e+01,
          -3.97632294e+01 ]
      - [ -5.84395838e+00, -1.41166763e+01, -1.98605309e+01,
          -2.38988571e+01, -4.57944756e+01, -3.09597511e+01,
          -4.75098610e+01 ]
      - [ -5.78400421e+00, -1.48911810e+01, -2.18429527e+01,
          -2.12308826e+01, -4.34674416e+01, -2.86982174e+01,
          -4.29094963e+01 ]
      - [ -6.08040333e+00, -1.32732077e+01, -2.21876812e+01,
          -2.36986465e+01, -4.69168739e+01, -3.22342491e+01,
          -4.70718575e+01 ]
      - [ -6.48070192e+00, -1.56621017e+01, -1.96350994e+01,
          -2.16866989e+01, -4.23494682e+01, -2.95962582e+01,
          -4.51431503e+01 ]
      - [ -5.73647785e+00, -1.31242065e+01, -2.19896507e+01,
          -2.13120098e+01, -4.37057037e+01, -3.07600555e+01,
          -4.30911484e+01 ]
      - [ -5.99277449e+00, -1.44670677e+01, -1.86465454e+01,
          -2.25333767e+01, -4.31293640e+01, -2.98152771e+01,
          -4.53355675e+01 ]
      - [ -5.84378290e+00, -1.41562080e+01, -2.03200722e+01,
          -2.15040016e+01, -4.25991325e+01, -3.26934471e+01,
          -4.30071030e+01 ]
      - [ -5.59349728e+00, -1.20535460e+01, -1.79297218e+01,
          -2.01144714e+01, -3.92174988e+01, -2.62030582e+01,
          -4.00869865e+01 ]
      - [ -5.77988338e+00, -1.45673904e+01, -1.76390667e+01,
          -2.03265305e+01, -3.93526115e+01, -2.76211243e+01,
          -4.05542488e+01 ]
      - [ -6.19249392e+00, -1.64177132e+01, -1.94268837e+01,
          -2.33481007e+01, -4.58226166e+01, -3.17017670e+01,
          -4.47959518e+01 ]
      - [ -4.63392782e+00, -1.12721930e+01, -1.75079174e+01,
          -1.66868515e+01, -3.37935524e+01, -2.27666569e+01,
          -3.57802238e+01 ]
      - [ -6.32145119e+00, -1.54469500e+01, -2.11844006e+01,
          -2.44281788e+01, -4.75043221e+01, -3.22117882e+01,
          -4.76717033e+01 ]
      - [ -5.64632034e+00, -1.26031160e+01, -2.08259792e+01,
          -2.09518623e+01, -4.40599289e+01, -3.19904099e+01,
          -4.18467255e+01 ]
      - [ -5.99545336e+00, -1.37059174e+01, -1.89583340e+01,
          -2.20489635e+01, -4.28514557e+01, -2.93633785e+01,
          -4.29519577e+01 ]
      - [ -5.33654022e+00, -1.49877739e+01, -1.69161434e+01,
          -2.00203533e+01, -3.85513802e+01, -2.75353241e+01,
          -3.95571365e+01 ]
      - [ -6.28322268e+00, -1.43571863e+01, -2.26537018e+01,
          -2.63413544e+01, -5.09543457e+01, -3.41648827e+01,
          -5.16283340e+01 ]
      - [ -6.20446825e+00, -1.39351473e+01, -2.42019863e+01,
          -2.48984089e+01, -4.94654694e+01, -3.19083996e+01,
          -5.11517868e+01 ]
      - [ -6.14237213e+00, -1.44337120e+01, -2.13279781e+01,
          -2.38531361e+01, -4.68928146e+01, -3.12752075e+01,
          -4.67052116e+01 ]
      - [ -5.68207598e+00, -1.26649704e+01, -1.86355782e+01,
          -2.03949051e+01, -4.02942810e+01, -2.69625473e+01,
          -4.02217827e+01 ]
      - [ -6.06025314e+00, -1.45064783e+01, -1.86783447e+01,
          -2.19396839e+01, -4.22493820e+01, -2.92403202e+01,
          -4.55459709e+01 ]
      - [ -5.84163713e+00, -1.55787888e+01, -1.96896191e+01,
          -2.49590473e+01, -4.77774544e+01, -3.55530014e+01,
          -4.75161972e+01 ]
      - [ -5.89389896e+00, -1.30351267e+01, -2.14356766e+01,
          -2.25552750e+01, -4.47043991e+01, -3.10485516e+01,
          -4.52155876e+01 ]
      - [ -5.84112835e+00, -1.39091358e+01, -2.02718430e+01,
          -2.15272942e+01, -4.28633080e+01, -3.08263588e+01,
          -4.26972809e+01 ]
      - [ -6.12501764e+00, -1.39391317e+01, -2.11657085e+01,
          -2.29557076e+01, -4.55454445e+01, -3.19879436e+01,
          -4.52296028e+01 ]
      - [ -6.04457951e+00, -1.45779877e+01, -1.94620743e+01,
          -2.21126537e+01, -4.29073029e+01, -3.42284851e+01,
