%YAML:1.0
---
opencv_ml_svm:
   format: 3
   svmType: C_SVC
   kernel:
      type: RBF
      gamma: 2.9999999999999999e-02
   C: 15.
   term_criteria: { epsilon:1.1920928955078125e-07, iterations:1000 }
   var_count: 7
   class_count: 8
   class_labels: !!opencv-matrix
      rows: 8
      cols: 1
      dt: i
      data: [ 0, 4, 8, 10, 11, 12, 13, 14 ]
   sv_total: 1278
   support_vectors:
      - [ -5.89980745e+00, -1.64085979e+01, -2.60913830e+01,
          -2.27679787e+01, -4.81311684e+01, -3.09838295e+01,
          -4.72816238e+01 ]
      - [ -5.79444122e+00, -1.58167496e+01, -2.30733318e+01,
          -2.21578274e+01, -4.53029861e+01, -3.24597549e+01,
          -4.49863014e+01 ]
      - [ -5.82389116e+00, -1.61168957e+01, -2.25345936e+01,
          -2.21718979e+01, -4.45326347e+01, -3.02359276e+01,
          -4.66295166e+01 ]
      - [ -6.16091776e+00, -1.73152122e+01, -2.46215725e+01,
          -2.50546856e+01, -4.98928185e+01, -3.37723045e+01,
          -5.61243172e+01 ]
      - [ -6.08623648e+00, -1.76265945e+01, -2.87911797e+01,
          -2.33559437e+01, -4.94399605e+01, -3.22735672e+01,
          -5.13685646e+01 ]
      - [ -5.61684132e+00, -1.75720825e+01, -2.11523838e+01,
          -2.33923969e+01, -4.56905441e+01, -3.30112267e+01,
          -4.71606140e+01 ]
      - [ -6.36193752e+00, -1.65041008e+01, -2.47877178e+01,
          -2.50745430e+01, -5.00070496e+01, -3.33443642e+01,
          -5.29532852e+01 ]
      - [ -6.04258442e+00, -1.68563290e+01, -2.59619923e+01,
          -2.40224609e+01, -5.18752632e+01, -3.74726715e+01,
          -4.90163269e+01 ]
      - [ -5.93854284e+00, -1.64724903e+01, -2.33685322e+01,
          -2.32414970e+01, -4.66086044e+01, -3.18010902e+01,
          -4.76202240e+01 ]
      - [ -5.82137918e+00, -1.83401661e+01, -2.27855167e+01,
          -2.74293766e+01, -5.28088036e+01, -3.81882477e+01,
          -5.29711075e+01 ]
      - [ -5.96258736e+00, -1.72094383e+01, -2.90989037e+01,
          -2.25136929e+01, -4.88520126e+01, -3.11189842e+01,
          -4.85315933e+01 ]
      - [ -5.94238997e+00, -1.51078281e+01, -2.30961876e+01,
          -2.24790516e+01, -4.72244377e+01, -3.08632774e+01,
          -4.52767372e+01 ]
      - [ -6.30510569e+00, -1.81255856e+01, -2.53870697e+01,
          -2.96733036e+01, -5.81400185e+01, -3.87510567e+01,
          -5.72869034e+01 ]
      - [ -6.55177450e+00, -1.81803055e+01, -2.59772606e+01,
          -3.01201305e+01, -5.81717224e+01, -3.92136612e+01,
          -6.07455559e+01 ]
      - [ -6.69820404e+00, -1.78457642e+01, -2.81347923e+01,
          -2.50626850e+01, -5.17275620e+01, -3.42891159e+01,
          -5.27055473e+01 ]
      - [ -6.27417660e+00, -1.67301197e+01, -2.37125664e+01,
          -2.46563034e+01, -4.88934021e+01, -3.30611000e+01,
          -4.99921875e+01 ]
      - [ -6.41336966e+00, -1.91029739e+01, -2.57013817e+01,
          -2.59055176e+01, -5.18945236e+01, -3.59642944e+01,
          -5.22945061e+01 ]
      - [ -6.42003250e+00, -1.93227539e+01, -2.56210003e+01,
          -2.60312347e+01, -5.20298386e+01, -3.60679169e+01,
          -5.24732704e+01 ]
      - [ -5.72490835e+00, -1.74868298e+01, -2.30480576e+01,
          -2.07920513e+01, -4.41083603e+01, -2.97015648e+01,
          -4.27437172e+01 ]
      - [ -6.30358219e+00, -1.80861340e+01, -2.60300903e+01,
          -2.99371548e+01, -5.99010468e+01, -3.98347740e+01,
          -5.79303970e+01 ]
      - [ -6.25474167e+00, -1.88027744e+01, -2.46427860e+01,
          -2.58810711e+01, -5.23967896e+01, -3.64829483e+01,
          -5.11854858e+01 ]
      - [ -6.02785826e+00, -1.69756508e+01, -2.24940510e+01,
          -2.47758789e+01, -4.90864449e+01, -3.36809349e+01,
          -4.85606766e+01 ]
      - [ -6.43450546e+00, -1.80954647e+01, -2.54994488e+01,
          -2.68513107e+01, -5.46087646e+01, -3.59330788e+01,
          -5.30482750e+01 ]
      - [ -6.53134441e+00, -1.90003014e+01, -2.79217243e+01,
          -2.92638245e+01, -5.89081459e+01, -3.90227051e+01,
          -5.79216995e+01 ]
      - [ -6.16593027e+00, -2.09887791e+01, -2.30017262e+01,
          -2.41235027e+01, -4.88070602e+01, -3.46381264e+01,
          -4.77422867e+01 ]
      - [ -6.43739843e+00, -1.82246323e+01, -2.58026428e+01,
          -2.68394375e+01, -5.67186966e+01, -3.59792061e+01,
          -5.31608810e+01 ]
      - [ -6.41511059e+00, -1.90423069e+01, -2.59327698e+01,
          -2.59233532e+01, -5.19594002e+01, -3.59913673e+01,
          -5.26707420e+01 ]
      - [ -6.34209061e+00, -2.15621490e+01, -2.70588341e+01,
          -2.58567181e+01, -5.23145485e+01, -3.67407913e+01,
          -5.68976288e+01 ]
      - [ -5.93189764e+00, -1.65596790e+01, -2.35704250e+01,
          -2.32541161e+01, -4.67514610e+01, -3.19417057e+01,
          -4.75938416e+01 ]
      - [ -6.33617401e+00, -1.67161579e+01, -2.49681778e+01,
          -2.51760654e+01, -5.13676682e+01, -3.35413208e+01,
          -5.03045311e+01 ]
      - [ -6.33744001e+00, -1.68688774e+01, -2.43797798e+01,
          -2.50352592e+01, -5.05492172e+01, -3.34775391e+01,
          -4.98539238e+01 ]
      - [ -6.76702929e+00, -1.96566448e+01, -2.69755688e+01,
          -2.86829224e+01, -5.73632927e+01, -3.85160065e+01,
          -5.66127815e+01 ]
      - [ -6.00733709e+00, -1.86491299e+01, -2.51741104e+01,
          -2.57111816e+01, -5.11549606e+01, -3.50805588e+01,
          -5.41987495e+01 ]
      - [ -5.99613047e+00, -1.61097679e+01, -2.41704388e+01,
          -2.40973110e+01, -5.00410500e+01, -3.21656380e+01,
          -4.82447624e+01 ]
      - [ -6.17232943e+00, -1.78821869e+01, -2.37985420e+01,
          -2.47910805e+01, -4.98324127e+01, -3.49391136e+01,
          -4.92131386e+01 ]
      - [ -6.99787664e+00, -2.00757484e+01, -2.74066868e+01,
          -2.74466591e+01, -5.52502556e+01, -3.82373123e+01,
          -5.51912956e+01 ]
      - [ -6.44963741e+00, -2.00979996e+01, -2.65379124e+01,
          -2.70503635e+01, -5.41912041e+01, -3.75469017e+01,
          -5.41909485e+01 ]
      - [ -6.23652840e+00, -2.00512695e+01, -2.68613701e+01,
          -3.04709778e+01, -5.97818260e+01, -4.06922493e+01,
          -5.92982559e+01 ]
      - [ -6.51835060e+00, -1.74056759e+01, -2.65914059e+01,
          -2.64850674e+01, -5.30528984e+01, -3.79114342e+01,
          -5.44515152e+01 ]
      - [ -6.43439865e+00, -1.85299873e+01, -2.55859928e+01,
          -2.33440208e+01, -4.82595329e+01, -3.27265091e+01,
          -4.80695992e+01 ]
      - [ -6.49365425e+00, -1.97536602e+01, -2.55916462e+01,
          -2.47406349e+01, -4.99652290e+01, -3.61823273e+01,
          -5.10089264e+01 ]
      - [ -6.40185308e+00, -2.17663345e+01, -2.62790451e+01,
          -2.58203754e+01, -5.28561554e+01, -3.67068977e+01,
          -5.19450073e+01 ]
      - [ -6.41754150e+00, -1.71830597e+01, -2.54977512e+01,
          -2.55259094e+01, -5.24605064e+01, -3.41183777e+01,
          -5.10676689e+01 ]
      - [ -6.37252045e+00, -1.91352158e+01, -2.53726254e+01,
          -2.53571758e+01, -5.08106956e+01, -3.71923943e+01,
          -5.16308556e+01 ]
      - [ -6.83424377e+00, -2.09299622e+01, -2.89558792e+01,
          -2.90347977e+01, -5.83653145e+01, -3.95057755e+01,
          -5.83883705e+01 ]
      - [ -6.58603573e+00, -1.89064598e+01, -2.63092709e+01,
          -2.72088795e+01, -5.39940414e+01, -3.71586151e+01,
          -5.54575577e+01 ]
      - [ -6.57888174e+00, -2.28757439e+01, -2.65233765e+01,
          -2.61689682e+01, -5.34705734e+01, -3.80309753e+01,
          -5.25951958e+01 ]
      - [ -6.71236801e+00, -2.03742542e+01, -2.70252457e+01,
          -2.59210968e+01, -5.25557480e+01, -3.68176460e+01,
          -5.30379486e+01 ]
      - [ -6.55718374e+00, -1.63303547e+01, -2.54262161e+01,
          -2.47434978e+01, -5.05809441e+01, -3.37907410e+01,
          -4.99538536e+01 ]
      - [ -6.76809120e+00, -1.93092728e+01, -2.67205620e+01,
          -2.85728397e+01, -5.84529953e+01, -3.82407837e+01,
          -5.62253151e+01 ]
      - [ -6.46990442e+00, -1.98129921e+01, -2.89474316e+01,
          -2.85058994e+01, -5.76211891e+01, -3.85389633e+01,
          -5.75403519e+01 ]
      - [ -6.65299034e+00, -1.76003494e+01, -2.58846130e+01,
          -2.52340069e+01, -5.08597336e+01, -3.50521202e+01,
          -5.18355141e+01 ]
      - [ -6.73482275e+00, -2.14712315e+01, -2.76171837e+01,
          -2.69169769e+01, -5.43361092e+01, -3.79584770e+01,
          -5.48533478e+01 ]
      - [ -6.56174898e+00, -1.98997746e+01, -2.59945107e+01,
          -2.84809208e+01, -5.57527733e+01, -3.85137215e+01,
          -5.70777397e+01 ]
      - [ -6.44718695e+00, -1.78866444e+01, -2.47594681e+01,
          -2.60555859e+01, -5.22424316e+01, -3.86890945e+01,
          -5.15812416e+01 ]
      - [ -6.78064775e+00, -1.85200977e+01, -2.83323593e+01,
          -3.04796524e+01, -6.10006866e+01, -3.97939987e+01,
          -5.99425354e+01 ]
      - [ -6.63585377e+00, -2.08208561e+01, -2.59865704e+01,
          -2.54664211e+01, -5.65219650e+01, -3.68309517e+01,
          -5.11929283e+01 ]
      - [ -6.68051863e+00, -1.97708530e+01, -2.77044792e+01,
          -2.66930046e+01, -5.45324249e+01, -3.97638741e+01,
          -5.40543747e+01 ]
      - [ -6.71480083e+00, -1.89437294e+01, -2.64613972e+01,
          -2.69628868e+01, -5.36776505e+01, -3.64796562e+01,
          -5.63018913e+01 ]
      - [ -6.77637672e+00, -2.25560360e+01, -2.76205597e+01,
          -2.71532288e+01, -5.60962677e+01, -3.92166862e+01,
          -5.45628815e+01 ]
      - [ -6.31929588e+00, -1.60984058e+01, -2.41775360e+01,
          -2.39564667e+01, -4.94416275e+01, -3.31271935e+01,
          -4.80536842e+01 ]
      - [ -6.44655275e+00, -1.96536427e+01, -2.86995430e+01,
          -2.65520515e+01, -5.52941437e+01, -3.77236671e+01,
          -5.42345734e+01 ]
      - [ -6.68238497e+00, -2.14026833e+01, -2.74475460e+01,
          -2.72016563e+01, -5.52169075e+01, -3.89856453e+01,
          -5.46709328e+01 ]
      - [ -6.46600580e+00, -2.32646236e+01, -2.68704834e+01,
          -2.66560936e+01, -5.38030624e+01, -3.83091774e+01,
          -5.37314148e+01 ]
      - [ -6.72623682e+00, -2.17842960e+01, -2.67229385e+01,
          -2.79174252e+01, -5.57853546e+01, -3.94488754e+01,
          -5.54411201e+01 ]
      - [ -6.57381487e+00, -1.83458862e+01, -2.49636059e+01,
          -2.49612541e+01, -4.99602470e+01, -3.46525688e+01,
          -5.12496681e+01 ]
      - [ -6.68681431e+00, -1.84285965e+01, -2.90879173e+01,
          -2.52953224e+01, -5.41357994e+01, -3.45784798e+01,
          -5.25057755e+01 ]
      - [ -6.71300697e+00, -1.94187222e+01, -3.16511726e+01,
          -2.61895046e+01, -5.52371140e+01, -3.91355972e+01,
          -5.58562813e+01 ]
      - [ -7.02747917e+00, -2.04437065e+01, -2.97516460e+01,
          -3.01987057e+01, -6.03396568e+01, -4.17714081e+01,
          -6.08064690e+01 ]
      - [ -7.08964777e+00, -2.18256302e+01, -2.75016155e+01,
          -2.68989697e+01, -5.50100098e+01, -3.82686768e+01,
          -5.41875000e+01 ]
      - [ -6.57618141e+00, -1.84217987e+01, -2.48543358e+01,
          -2.50028057e+01, -4.99616928e+01, -3.47326279e+01,
          -5.13478775e+01 ]
      - [ -6.70055056e+00, -1.78970375e+01, -2.84330063e+01,
          -2.50428066e+01, -5.18382416e+01, -3.43025284e+01,
          -5.28903694e+01 ]
      - [ -7.20974445e+00, -1.90522804e+01, -2.68425198e+01,
          -2.98562832e+01, -5.83611183e+01, -3.93827629e+01,
          -5.88655853e+01 ]
      - [ -6.53716087e+00, -1.89370995e+01, -2.81475887e+01,
          -2.94312553e+01, -6.05577354e+01, -3.90981407e+01,
          -5.82253685e+01 ]
      - [ -6.91781187e+00, -1.99246979e+01, -2.81200657e+01,
          -2.77474251e+01, -5.58428001e+01, -3.77662430e+01,
          -5.63244591e+01 ]
      - [ -6.33914137e+00, -2.12249603e+01, -2.67795982e+01,
          -2.57907772e+01, -5.20837059e+01, -3.66111412e+01,
          -5.41639481e+01 ]
      - [ -6.55275679e+00, -1.87134647e+01, -2.66574764e+01,
          -2.73845787e+01, -5.64282303e+01, -3.72528114e+01,
          -5.44144363e+01 ]
      - [ -6.27396250e+00, -1.76875610e+01, -2.40393639e+01,
          -2.36948605e+01, -4.76890411e+01, -3.25387688e+01,
          -4.83091011e+01 ]
      - [ -6.60544491e+00, -1.76887798e+01, -2.61630211e+01,
          -2.59483967e+01, -5.23241615e+01, -3.50472145e+01,
          -5.23786812e+01 ]
      - [ -6.04536152e+00, -1.60597782e+01, -2.51125393e+01,
          -2.32289085e+01, -4.75190392e+01, -3.19120598e+01,
          -4.81741943e+01 ]
      - [ -6.45503235e+00, -1.86382656e+01, -2.59239445e+01,
          -2.44795609e+01, -5.12434425e+01, -3.41744919e+01,
          -4.97037964e+01 ]
      - [ -6.50465059e+00, -1.79839935e+01, -2.69397087e+01,
          -2.37701359e+01, -4.92015457e+01, -3.28021851e+01,
          -5.01015549e+01 ]
      - [ -6.54797554e+00, -2.11640701e+01, -2.65162582e+01,
          -2.48868504e+01, -5.09661179e+01, -3.61023521e+01,
          -5.09056664e+01 ]
      - [ -6.73612595e+00, -1.75254230e+01, -2.95826206e+01,
          -2.72617741e+01, -5.56851349e+01, -3.63808327e+01,
          -5.87165451e+01 ]
      - [ -6.54925966e+00, -1.66372299e+01, -2.52473011e+01,
          -2.48215237e+01, -5.15905685e+01, -3.38667564e+01,
          -4.98717537e+01 ]
      - [ -6.29996967e+00, -1.79025211e+01, -2.61004391e+01,
          -3.06120472e+01, -5.93236427e+01, -4.02243423e+01,
          -5.93062325e+01 ]
      - [ -6.61128235e+00, -1.87107563e+01, -2.54305801e+01,
          -2.48504314e+01, -4.99928741e+01, -3.42288933e+01,
          -5.27689247e+01 ]
      - [ -6.38811779e+00, -2.11189804e+01, -2.50713596e+01,
          -2.36954842e+01, -4.81226425e+01, -3.42961044e+01,
          -4.93188362e+01 ]
      - [ -6.56209421e+00, -1.78995438e+01, -2.57796135e+01,
          -2.68982315e+01, -5.34837761e+01, -3.66578293e+01,
          -5.37087746e+01 ]
      - [ -6.51015568e+00, -1.77489338e+01, -2.82119446e+01,
          -2.64611301e+01, -5.39777489e+01, -3.55899200e+01,
          -5.43956032e+01 ]
      - [ -6.45852423e+00, -1.84947433e+01, -2.70218620e+01,
          -3.03751659e+01, -5.91930008e+01, -4.01534920e+01,
          -5.98485641e+01 ]
      - [ -6.70065451e+00, -2.00279369e+01, -2.64689407e+01,
          -2.51737709e+01, -5.13038826e+01, -3.77078781e+01,
          -5.13826141e+01 ]
      - [ -6.79481030e+00, -2.00768261e+01, -2.94212818e+01,
          -2.81963673e+01, -5.71143723e+01, -3.84455757e+01,
          -5.78195839e+01 ]
      - [ -6.53500080e+00, -1.78922825e+01, -2.42245159e+01,
          -2.48030300e+01, -4.98470650e+01, -3.38315125e+01,
          -4.95293388e+01 ]
      - [ -7.08923817e+00, -2.09769230e+01, -2.78271160e+01,
          -2.78037128e+01, -5.73646278e+01, -3.83693962e+01,
          -5.56345978e+01 ]
      - [ -6.82008219e+00, -1.91466637e+01, -2.75228901e+01,
          -2.74589977e+01, -5.49846306e+01, -3.71412659e+01,
          -5.63012543e+01 ]
      - [ -6.79252148e+00, -1.97664967e+01, -2.88855705e+01,
          -2.86697388e+01, -5.77807426e+01, -3.89300537e+01,
          -5.78075523e+01 ]
      - [ -6.54794216e+00, -1.88814011e+01, -2.72711506e+01,
          -2.33479824e+01, -4.90891876e+01, -3.30051537e+01,
          -4.89314461e+01 ]
      - [ -6.69161987e+00, -1.80671101e+01, -2.80459499e+01,
          -2.59189415e+01, -5.36239891e+01, -3.50115814e+01,
          -5.30357819e+01 ]
      - [ -6.42238903e+00, -1.85860977e+01, -2.61036587e+01,
          -2.60378647e+01, -5.40571518e+01, -3.53761559e+01,
          -5.21188812e+01 ]
      - [ -6.65878391e+00, -1.98971081e+01, -2.70782166e+01,
          -2.46664886e+01, -5.13783607e+01, -3.46220474e+01,
          -5.06420784e+01 ]
      - [ -6.64108610e+00, -1.81448669e+01, -2.71028347e+01,
          -2.72108727e+01, -5.50537148e+01, -3.68940392e+01,
          -5.45139771e+01 ]
      - [ -6.66477346e+00, -1.71855030e+01, -2.58288765e+01,
          -2.70016460e+01, -5.53279648e+01, -3.60876846e+01,
          -5.34279709e+01 ]
      - [ -6.83990002e+00, -1.94366055e+01, -2.77708778e+01,
          -2.85824947e+01, -5.76972351e+01, -3.83877296e+01,
          -5.68423157e+01 ]
      - [ -6.71138954e+00, -1.99741192e+01, -3.01295395e+01,
          -2.80074406e+01, -5.82405128e+01, -3.81075058e+01,
          -5.71271553e+01 ]
      - [ -6.89687967e+00, -1.82661877e+01, -2.67707977e+01,
          -2.72204952e+01, -5.42479706e+01, -3.63545303e+01,
          -5.56090965e+01 ]
      - [ -6.88803101e+00, -2.03083172e+01, -2.74630394e+01,
          -2.69614887e+01, -5.75435181e+01, -3.71820374e+01,
          -5.41743431e+01 ]
      - [ -6.46290302e+00, -2.40540276e+01, -2.77488823e+01,
          -2.68056412e+01, -5.57540970e+01, -3.88328476e+01,
          -5.41008987e+01 ]
      - [ -6.66026545e+00, -1.82437859e+01, -2.58318768e+01,
          -2.71506233e+01, -5.37500763e+01, -3.64063644e+01,
          -5.44602928e+01 ]
      - [ -6.60521746e+00, -2.07207279e+01, -2.76545258e+01,
          -2.60077763e+01, -5.28392715e+01, -3.64128380e+01,
          -5.64805641e+01 ]
      - [ -6.91579580e+00, -1.91645203e+01, -2.85870342e+01,
          -2.90099964e+01, -6.07966843e+01, -3.93181496e+01,
          -5.78097801e+01 ]
      - [ -6.59270382e+00, -1.84776249e+01, -2.58910732e+01,
          -2.39114418e+01, -4.88128510e+01, -3.31568031e+01,
          -5.28620148e+01 ]
      - [ -7.09508801e+00, -1.86482964e+01, -2.76362667e+01,
          -2.81966763e+01, -5.61215477e+01, -3.75389824e+01,
          -5.81604042e+01 ]
      - [ -6.60549068e+00, -1.75104084e+01, -2.52165794e+01,
          -2.49517689e+01, -5.14620018e+01, -3.40350151e+01,
          -5.00656700e+01 ]
      - [ -6.66948605e+00, -1.70477085e+01, -2.57145977e+01,
          -2.64332657e+01, -5.31212311e+01, -3.52174797e+01,
          -5.26804619e+01 ]
      - [ -6.51323080e+00, -2.01722717e+01, -2.68854694e+01,
          -2.66133327e+01, -5.39903793e+01, -3.67498093e+01,
          -5.35304680e+01 ]
      - [ -6.73158455e+00, -1.94597912e+01, -2.63567371e+01,
          -2.65386448e+01, -5.30079041e+01, -3.62933540e+01,
          -5.45687027e+01 ]
      - [ -6.20931387e+00, -1.74610443e+01, -2.38996582e+01,
          -2.38923931e+01, -4.79148407e+01, -3.43123436e+01,
          -4.85377922e+01 ]
      - [ -6.30227137e+00, -1.88965244e+01, -2.90600853e+01,
          -2.55228043e+01, -5.28363152e+01, -3.50859566e+01,
          -5.43855247e+01 ]
      - [ -6.62414980e+00, -1.69118118e+01, -2.72124672e+01,
          -2.51400185e+01, -5.37803116e+01, -3.41204987e+01,
          -5.13198929e+01 ]
      - [ -6.79119873e+00, -1.97669868e+01, -2.90670891e+01,
          -2.87591133e+01, -5.81740646e+01, -3.92243195e+01,
          -5.79004784e+01 ]
      - [ -6.46210289e+00, -1.71752415e+01, -2.50700340e+01,
          -2.46685658e+01, -4.96921883e+01, -3.39360580e+01,
          -5.02008209e+01 ]
      - [ -6.20792580e+00, -1.75820904e+01, -2.37909966e+01,
          -2.38494987e+01, -4.77963600e+01, -3.43783035e+01,
          -4.84184380e+01 ]
      - [ -6.83367491e+00, -1.61968937e+01, -2.48464336e+01,
          -2.92532749e+01, -5.64164581e+01, -3.74167366e+01,
          -5.71008835e+01 ]
      - [ -7.01790571e+00, -2.05320148e+01, -2.62649460e+01,
          -2.89028320e+01, -5.96167412e+01, -4.03802223e+01,
          -5.64876785e+01 ]
      - [ -7.10893154e+00, -2.13161221e+01, -2.94366875e+01,
          -3.02029629e+01, -6.15488892e+01, -4.39748878e+01,
          -6.00469894e+01 ]
      - [ -7.01505327e+00, -1.68793621e+01, -2.58072929e+01,
          -2.77561722e+01, -5.54323349e+01, -3.75977020e+01,
          -5.46293564e+01 ]
      - [ -7.18333960e+00, -1.85842724e+01, -2.91935730e+01,
          -3.15763264e+01, -6.19703293e+01, -4.08684807e+01,
          -6.39715309e+01 ]
      - [ -7.11243916e+00, -1.76778870e+01, -2.65705433e+01,
          -2.96054497e+01, -5.83919907e+01, -4.21865654e+01,
          -5.78354988e+01 ]
      - [ -6.93756104e+00, -1.61629601e+01, -2.74789677e+01,
          -2.81722527e+01, -5.99819794e+01, -3.63445282e+01,
          -5.59980354e+01 ]
      - [ -6.87196112e+00, -1.95736504e+01, -3.05385017e+01,
          -2.65053921e+01, -5.62224617e+01, -3.62982521e+01,
          -5.50753784e+01 ]
      - [ -7.07824516e+00, -1.81325092e+01, -2.61466942e+01,
          -2.92088947e+01, -5.69537010e+01, -3.83448334e+01,
          -5.79246941e+01 ]
      - [ -6.94782877e+00, -2.10101414e+01, -2.66557274e+01,
          -2.81773720e+01, -5.64030037e+01, -3.89008789e+01,
          -5.57044067e+01 ]
      - [ -6.82859802e+00, -2.06352348e+01, -2.86281166e+01,
          -2.81616211e+01, -5.71233978e+01, -3.87379799e+01,
          -5.67506485e+01 ]
      - [ -6.91573238e+00, -2.03885193e+01, -2.60674858e+01,
          -2.88478966e+01, -5.66361389e+01, -3.92834816e+01,
          -5.66687164e+01 ]
      - [ -6.99386692e+00, -1.86351185e+01, -2.59774437e+01,
          -2.84715900e+01, -5.62916794e+01, -3.78271446e+01,
          -5.58772202e+01 ]
      - [ -6.97685671e+00, -1.90898685e+01, -2.62933102e+01,
          -2.75595264e+01, -5.51866302e+01, -3.71786232e+01,
          -5.46273003e+01 ]
      - [ -6.89669466e+00, -2.04815903e+01, -2.54878941e+01,
          -2.88554630e+01, -5.65486526e+01, -3.94220428e+01,
          -5.62443733e+01 ]
      - [ -6.86427784e+00, -1.91520863e+01, -2.79432793e+01,
          -2.77843552e+01, -5.58895874e+01, -3.75040932e+01,
          -5.61280785e+01 ]
      - [ -7.00019503e+00, -1.83551941e+01, -2.72633820e+01,
          -2.75256729e+01, -5.58842163e+01, -3.68702965e+01,
          -5.49987793e+01 ]
      - [ -7.05142117e+00, -1.94399261e+01, -2.69761715e+01,
          -2.67657795e+01, -5.46656761e+01, -3.66072807e+01,
          -5.37050819e+01 ]
      - [ -6.86815882e+00, -1.92068806e+01, -2.59487858e+01,
          -2.93295307e+01, -5.73827705e+01, -3.89383736e+01,
          -5.72557907e+01 ]
      - [ -6.91143274e+00, -1.98082428e+01, -2.74755211e+01,
          -2.86230145e+01, -5.72840424e+01, -4.25964355e+01,
          -5.68464851e+01 ]
      - [ -6.87836313e+00, -1.80862885e+01, -2.52281532e+01,
          -3.01529388e+01, -5.79141655e+01, -4.06162453e+01,
          -5.88566246e+01 ]
      - [ -6.96516514e+00, -2.10451908e+01, -2.61189022e+01,
          -2.95787468e+01, -5.84654427e+01, -4.09332542e+01,
          -5.74946022e+01 ]
      - [ -6.89990473e+00, -1.87433758e+01, -2.39830627e+01,
          -2.62481518e+01, -5.13722916e+01, -3.71353264e+01,
          -5.34034271e+01 ]
      - [ -6.98456240e+00, -1.70176411e+01, -2.61344643e+01,
          -3.23659401e+01, -6.30888710e+01, -4.08773994e+01,
          -6.16431427e+01 ]
      - [ -7.01709032e+00, -2.16116066e+01, -3.10336189e+01,
          -2.91463470e+01, -5.92371597e+01, -4.00278511e+01,
          -6.24381638e+01 ]
      - [ -6.88824034e+00, -2.10259647e+01, -2.58891430e+01,
          -2.97487946e+01, -5.75774193e+01, -4.02840347e+01,
          -5.95461311e+01 ]
      - [ -6.99786615e+00, -1.69318676e+01, -2.62876797e+01,
          -2.66947441e+01, -5.46071281e+01, -3.56596642e+01,
          -5.32159843e+01 ]
      - [ -6.97265244e+00, -2.13351479e+01, -2.79956169e+01,
          -2.94888687e+01, -5.90967598e+01, -4.02465591e+01,
          -5.83285446e+01 ]
      - [ -6.83735180e+00, -2.16564007e+01, -2.60426941e+01,
          -2.63144665e+01, -5.45325775e+01, -3.74147339e+01,
          -5.25015793e+01 ]
      - [ -6.90992165e+00, -1.94134941e+01, -2.69007301e+01,
          -2.85027103e+01, -5.74692421e+01, -3.82855759e+01,
          -5.62459526e+01 ]
      - [ -6.97903061e+00, -1.90328960e+01, -2.57894650e+01,
          -2.95148220e+01, -5.84185257e+01, -3.92831116e+01,
          -5.72096519e+01 ]
      - [ -6.95147800e+00, -2.10831718e+01, -2.73428593e+01,
          -2.88227272e+01, -5.72345047e+01, -3.93643341e+01,
          -5.72703247e+01 ]
      - [ -6.95018339e+00, -2.13590240e+01, -2.64652233e+01,
          -3.11161060e+01, -5.99095612e+01, -4.19660835e+01,
          -6.25019073e+01 ]
      - [ -7.05426407e+00, -1.87573547e+01, -2.74417229e+01,
          -2.93267193e+01, -5.77127113e+01, -3.87204971e+01,
          -6.05334358e+01 ]
      - [ -7.05380440e+00, -2.01090126e+01, -2.97978706e+01,
          -2.82338638e+01, -5.76425781e+01, -3.82908707e+01,
          -5.75539513e+01 ]
      - [ -6.99838543e+00, -2.00784683e+01, -2.79371929e+01,
          -2.81186047e+01, -5.61712265e+01, -3.87539101e+01,
          -5.76621819e+01 ]
      - [ -6.86440611e+00, -2.22388802e+01, -2.59730072e+01,
          -2.69897995e+01, -5.49608192e+01, -3.85774994e+01,
          -5.34972878e+01 ]
      - [ -6.98677778e+00, -1.97809219e+01, -2.62419205e+01,
          -2.97465096e+01, -5.77471619e+01, -3.97320328e+01,
          -5.99202538e+01 ]
      - [ -7.05127525e+00, -2.10336456e+01, -2.96988106e+01,
          -2.94808559e+01, -5.90988770e+01, -4.00604897e+01,
          -6.05225868e+01 ]
      - [ -7.00636053e+00, -1.97616539e+01, -2.60941448e+01,
          -2.88861523e+01, -5.75678902e+01, -3.91533051e+01,
          -5.64246979e+01 ]
      - [ -7.14651203e+00, -1.84100075e+01, -3.34489250e+01,
          -2.83413506e+01, -5.94658966e+01, -3.75733604e+01,
          -5.97363625e+01 ]
      - [ -6.95608139e+00, -2.28839989e+01, -2.59357700e+01,
          -2.74716549e+01, -5.43282776e+01, -3.92999611e+01,
          -5.48422546e+01 ]
      - [ -7.05728006e+00, -1.91261044e+01, -2.73491917e+01,
          -2.83473721e+01, -5.75013657e+01, -3.79267235e+01,
          -5.62337875e+01 ]
      - [ -7.15294647e+00, -2.23099556e+01, -2.79640751e+01,
          -2.98699951e+01, -5.93521919e+01, -4.10573845e+01,
          -5.89820213e+01 ]
      - [ -6.91412926e+00, -1.92452641e+01, -2.62233334e+01,
          -2.78562202e+01, -5.49016380e+01, -3.77800179e+01,
          -5.71412659e+01 ]
      - [ -6.97471285e+00, -2.12075520e+01, -2.72574177e+01,
          -2.84288445e+01, -5.62854118e+01, -3.91063995e+01,
          -5.80870171e+01 ]
      - [ -7.12436914e+00, -2.14149246e+01, -2.80362282e+01,
          -3.08310051e+01, -6.08462372e+01, -4.15747871e+01,
          -6.04519463e+01 ]
      - [ -6.99348354e+00, -1.69866753e+01, -2.57590370e+01,
          -2.79883633e+01, -5.52112312e+01, -3.68229866e+01,
          -5.52060585e+01 ]
      - [ -7.17543745e+00, -2.17007484e+01, -2.78844147e+01,
          -2.92676620e+01, -6.18892555e+01, -4.01795235e+01,
          -5.78438530e+01 ]
      - [ -6.99438572e+00, -1.90604038e+01, -2.63450222e+01,
          -2.81317406e+01, -5.55911789e+01, -3.77339516e+01,
          -5.58846741e+01 ]
      - [ -7.06042862e+00, -2.12707844e+01, -2.62542458e+01,
          -2.76367702e+01, -5.49868774e+01, -3.83601723e+01,
          -5.48768616e+01 ]
      - [ -7.05446196e+00, -2.73811607e+01, -2.68577576e+01,
          -3.24135551e+01, -6.21168365e+01, -4.61268959e+01,
          -6.30829620e+01 ]
      - [ -7.02392864e+00, -1.83891830e+01, -2.79134579e+01,
          -2.75663071e+01, -5.53095398e+01, -3.71056290e+01,
          -5.78108330e+01 ]
      - [ -7.13654804e+00, -1.98961754e+01, -2.64768867e+01,
          -2.78451462e+01, -5.80611687e+01, -3.81561623e+01,
          -5.50072746e+01 ]
      - [ -7.08021307e+00, -1.78061409e+01, -2.71532955e+01,
          -2.75558243e+01, -5.56112785e+01, -3.65468864e+01,
          -5.50516663e+01 ]
      - [ -7.04125261e+00, -1.76026402e+01, -2.66816120e+01,
          -2.91230240e+01, -5.86859970e+01, -3.85583267e+01,
          -5.70437279e+01 ]
      - [ -6.90028095e+00, -1.87796154e+01, -2.50118351e+01,
          -2.78691425e+01, -5.48307610e+01, -3.82098007e+01,
          -5.45270729e+01 ]
      - [ -7.07457972e+00, -1.78244247e+01, -2.89027348e+01,
          -2.87300491e+01, -5.75664902e+01, -3.82379456e+01,
          -5.91646500e+01 ]
      - [ -7.07623243e+00, -2.34546471e+01, -2.82048740e+01,
          -3.21988182e+01, -6.24007797e+01, -4.44927483e+01,
          -6.65929947e+01 ]
      - [ -7.05451250e+00, -1.85519447e+01, -2.81113720e+01,
          -2.86817837e+01, -5.70946045e+01, -3.81046982e+01,
          -5.87998505e+01 ]
      - [ -6.94289875e+00, -2.11243134e+01, -2.82055321e+01,
          -2.80508060e+01, -5.71848373e+01, -3.95042305e+01,
          -5.62507706e+01 ]
      - [ -7.07703066e+00, -1.73636417e+01, -2.55230827e+01,
          -2.85917664e+01, -5.58035049e+01, -3.72739258e+01,
          -5.63121796e+01 ]
      - [ -7.07044220e+00, -1.88760986e+01, -2.64296703e+01,
          -2.79507828e+01, -5.59580421e+01, -3.74985123e+01,
          -5.52495499e+01 ]
      - [ -7.02452183e+00, -1.86870232e+01, -2.86876297e+01,
          -2.83058758e+01, -5.68095245e+01, -3.88840790e+01,
          -5.89479103e+01 ]
      - [ -7.04562759e+00, -2.04433022e+01, -2.72036686e+01,
          -2.89418182e+01, -5.71575623e+01, -4.01891022e+01,
          -5.77102470e+01 ]
      - [ -6.94338846e+00, -1.71726017e+01, -2.64935818e+01,
          -2.90814934e+01, -5.73625984e+01, -3.77100258e+01,
          -5.71021538e+01 ]
      - [ -6.99934530e+00, -1.92525883e+01, -3.06697445e+01,
          -2.89182472e+01, -5.89051018e+01, -3.85975456e+01,
          -5.92818947e+01 ]
      - [ -6.87002993e+00, -1.78983974e+01, -2.57871876e+01,
          -2.74557419e+01, -5.48171577e+01, -3.78889236e+01,
          -5.42063713e+01 ]
      - [ -7.16725016e+00, -2.74858780e+01, -2.89774265e+01,
          -3.07376461e+01, -6.06028709e+01, -4.49168930e+01,
          -6.26865120e+01 ]
      - [ -6.94008875e+00, -1.65917072e+01, -2.57746525e+01,
          -2.77886982e+01, -5.45813789e+01, -3.60963135e+01,
          -5.64840088e+01 ]
      - [ -6.85989046e+00, -1.75010662e+01, -2.62724094e+01,
          -2.62584553e+01, -5.25262070e+01, -3.70900078e+01,
          -5.52113571e+01 ]
      - [ -7.05451298e+00, -2.10628128e+01, -2.77855949e+01,
          -3.16720390e+01, -6.16032104e+01, -4.25692902e+01,
          -6.19509163e+01 ]
      - [ -7.04975080e+00, -1.63721027e+01, -2.69992504e+01,
          -2.84833393e+01, -5.62271614e+01, -3.69651337e+01,
          -5.88698387e+01 ]
      - [ -7.01292229e+00, -1.67869244e+01, -2.59224834e+01,
          -2.77270718e+01, -5.55811920e+01, -3.74148140e+01,
          -5.46201134e+01 ]
      - [ -6.93517494e+00, -1.61383171e+01, -2.75998936e+01,
          -2.81705475e+01, -5.90828667e+01, -3.63501511e+01,
          -5.60569458e+01 ]
      - [ -7.10715532e+00, -1.76238117e+01, -2.63231621e+01,
          -3.01000004e+01, -5.86222229e+01, -3.90155220e+01,
          -5.86968727e+01 ]
      - [ -7.17403412e+00, -1.70715313e+01, -2.53228302e+01,
          -3.10958138e+01, -5.98487663e+01, -4.10382080e+01,
          -5.95107307e+01 ]
      - [ -6.80393648e+00, -1.51978445e+01, -2.97611713e+01,
          -2.93809700e+01, -5.92610435e+01, -3.70328522e+01,
          -5.93392372e+01 ]
      - [ -7.16953707e+00, -1.70699863e+01, -2.52684708e+01,
          -2.96623611e+01, -5.71402435e+01, -3.85105629e+01,
          -5.89797935e+01 ]
      - [ -7.11129379e+00, -2.03657436e+01, -2.95472450e+01,
          -3.10591793e+01, -6.46648407e+01, -4.34041405e+01,
          -6.13630714e+01 ]
      - [ -7.02064705e+00, -1.98430061e+01, -2.63615837e+01,
          -2.87767925e+01, -6.22288513e+01, -3.96919441e+01,
          -5.63459854e+01 ]
      - [ -6.97837591e+00, -1.72604809e+01, -2.48263340e+01,
          -2.65171852e+01, -5.28284492e+01, -3.61132393e+01,
          -5.23520241e+01 ]
      - [ -7.01911211e+00, -1.95208893e+01, -2.61921501e+01,
          -2.86190510e+01, -5.75247307e+01, -3.93129349e+01,
          -5.60501823e+01 ]
      - [ -7.01857853e+00, -1.72149448e+01, -2.66882057e+01,
          -3.03930016e+01, -5.90253983e+01, -3.90154037e+01,
          -5.98263359e+01 ]
      - [ -7.00909281e+00, -1.75374928e+01, -2.54616432e+01,
          -2.64756527e+01, -5.30225029e+01, -3.52449417e+01,
          -5.26331863e+01 ]
      - [ -6.96412706e+00, -1.94596138e+01, -2.70490742e+01,
          -2.71015530e+01, -5.51046219e+01, -3.78058319e+01,
          -5.42618904e+01 ]
      - [ -6.98181915e+00, -1.89431400e+01, -2.61655941e+01,
          -2.69753819e+01, -5.38289719e+01, -3.79014244e+01,
          -5.39651604e+01 ]
      - [ -6.93031693e+00, -1.77490616e+01, -2.50089245e+01,
          -2.71991673e+01, -5.47515488e+01, -3.60867004e+01,
          -5.33316078e+01 ]
      - [ -7.10089493e+00, -1.90195389e+01, -2.65153637e+01,
          -2.90065269e+01, -5.97185707e+01, -3.89541512e+01,
          -5.67688408e+01 ]
      - [ -6.94808340e+00, -1.72260818e+01, -2.65717010e+01,
          -2.88901730e+01, -5.75682907e+01, -3.78055725e+01,
          -5.67026138e+01 ]
      - [ -6.97129774e+00, -1.94873810e+01, -3.00151672e+01,
          -2.94599476e+01, -5.93301811e+01, -3.93004456e+01,
          -5.99257317e+01 ]
      - [ -7.00217962e+00, -1.95496502e+01, -3.05625267e+01,
          -2.90544338e+01, -5.89979706e+01, -3.88576851e+01,
          -5.95833778e+01 ]
      - [ -7.10692596e+00, -1.92794456e+01, -2.99742928e+01,
          -3.29539948e+01, -6.44919281e+01, -4.26325340e+01,
          -6.54113083e+01 ]
      - [ -7.05195045e+00, -1.64151306e+01, -2.69090366e+01,
          -2.85252628e+01, -5.62635460e+01, -3.69317474e+01,
          -5.78348389e+01 ]
      - [ -6.89770460e+00, -2.02723846e+01, -2.57138405e+01,
          -2.88208046e+01, -5.68560600e+01, -3.92107620e+01,
          -5.62093315e+01 ]
      - [ -7.00401592e+00, -2.03452377e+01, -2.80373077e+01,
          -2.93754616e+01, -5.84719429e+01, -3.97122154e+01,
          -5.83883820e+01 ]
      - [ -6.94164515e+00, -1.67012844e+01, -2.56955357e+01,
          -2.77911835e+01, -5.45447235e+01, -3.61536789e+01,
          -5.64867668e+01 ]
      - [ -7.01773643e+00, -2.11163960e+01, -2.60645695e+01,
          -3.01092606e+01, -5.83106499e+01, -4.09736519e+01,
          -5.89894447e+01 ]
      - [ -7.05134439e+00, -2.03681126e+01, -2.69599438e+01,
          -2.90965977e+01, -5.71498718e+01, -4.07184715e+01,
          -5.86351738e+01 ]
      - [ -7.07605553e+00, -2.01440067e+01, -2.58133011e+01,
          -2.95847607e+01, -5.86984825e+01, -4.07659378e+01,
          -5.73142242e+01 ]
      - [ -6.92953205e+00, -2.09714336e+01, -2.56140156e+01,
          -2.78021107e+01, -5.76170883e+01, -3.95326042e+01,
          -5.45111732e+01 ]
      - [ -6.88743591e+00, -1.92298851e+01, -2.70200481e+01,
          -2.84125900e+01, -5.67830162e+01, -3.84086952e+01,
          -5.62864723e+01 ]
      - [ -6.95384264e+00, -1.71231327e+01, -2.45481834e+01,
          -2.76997356e+01, -5.38508301e+01, -3.75922585e+01,
          -5.52940865e+01 ]
      - [ -6.83492231e+00, -1.92217865e+01, -2.81920223e+01,
          -2.93843479e+01, -5.95006371e+01, -3.89955330e+01,
          -5.82089348e+01 ]
      - [ -7.01613760e+00, -1.93229237e+01, -2.70908985e+01,
          -3.03663521e+01, -5.90975952e+01, -4.00328636e+01,
          -6.17224731e+01 ]
      - [ -6.91413260e+00, -1.98618031e+01, -2.68198166e+01,
          -2.68719044e+01, -5.37276840e+01, -3.68141060e+01,
          -5.56828194e+01 ]
      - [ -6.90359402e+00, -1.88913250e+01, -2.49902954e+01,
          -2.79038811e+01, -5.49052963e+01, -3.84924889e+01,
          -5.45512085e+01 ]
      - [ -6.91485453e+00, -1.94086304e+01, -2.61748199e+01,
          -2.79081459e+01, -5.49499588e+01, -3.81487579e+01,
          -5.86108208e+01 ]
      - [ -6.75682974e+00, -1.88093472e+01, -2.69318066e+01,
          -2.54550533e+01, -5.25490417e+01, -3.56630249e+01,
          -5.17387123e+01 ]
      - [ -6.78248835e+00, -1.83176708e+01, -2.37963982e+01,
          -2.85227165e+01, -5.52514763e+01, -3.81801872e+01,
          -5.48753471e+01 ]
      - [ -7.10201836e+00, -2.48733997e+01, -2.52791138e+01,
          -2.93739891e+01, -5.67496490e+01, -4.35416832e+01,
          -5.78851891e+01 ]
      - [ -7.05967808e+00, -2.02388401e+01, -2.64885311e+01,
          -2.75684223e+01, -5.51298981e+01, -3.78264046e+01,
          -5.48079910e+01 ]
      - [ -7.06591272e+00, -2.02352676e+01, -2.59784050e+01,
          -2.93140469e+01, -5.86969719e+01, -4.00431938e+01,
          -5.69760246e+01 ]
      - [ -6.91655779e+00, -1.90930309e+01, -2.62780628e+01,
          -2.80464993e+01, -5.52261658e+01, -3.76791496e+01,
          -5.68969345e+01 ]
      - [ -7.09704208e+00, -2.11908245e+01, -2.83062000e+01,
          -2.90315304e+01, -5.77998657e+01, -4.18384285e+01,
          -5.85566826e+01 ]
      - [ -6.91485357e+00, -1.95515518e+01, -2.79591064e+01,
          -3.02780304e+01, -6.01978722e+01, -4.00626602e+01,
          -5.95090370e+01 ]
      - [ -7.10188198e+00, -2.27130909e+01, -2.52921734e+01,
          -2.92953148e+01, -5.65896378e+01, -4.07382202e+01,
          -5.99696121e+01 ]
      - [ -7.10763168e+00, -1.82696724e+01, -2.88092289e+01,
          -2.99674835e+01, -5.93774338e+01, -3.91232681e+01,
          -6.09376678e+01 ]
      - [ -7.04199600e+00, -2.11387157e+01, -3.01736050e+01,
          -2.92271309e+01, -6.05044518e+01, -3.98151970e+01,
          -5.89493103e+01 ]
      - [ -6.93717003e+00, -1.92711182e+01, -2.97343254e+01,
          -2.76935215e+01, -5.64494019e+01, -3.74885674e+01,
          -5.76672592e+01 ]
      - [ -7.07195902e+00, -1.73312817e+01, -2.74609356e+01,
          -2.93267899e+01, -5.92849884e+01, -3.80586090e+01,
          -5.77430344e+01 ]
      - [ -7.09667921e+00, -2.22508869e+01, -2.55224819e+01,
          -2.87936687e+01, -5.60289841e+01, -4.31526375e+01,
          -5.69236984e+01 ]
      - [ -7.08244467e+00, -2.11106873e+01, -2.72048569e+01,
          -3.16482525e+01, -6.23501358e+01, -4.23755417e+01,
          -6.11154289e+01 ]
      - [ -7.00228739e+00, -1.87236271e+01, -2.77575684e+01,
          -2.92682762e+01, -5.82192078e+01, -3.86400833e+01,
          -5.80505028e+01 ]
      - [ -6.99920368e+00, -1.92371769e+01, -2.63223381e+01,
          -2.88874931e+01, -5.81634064e+01, -3.89755020e+01,
          -5.65104141e+01 ]
      - [ -7.04830885e+00, -1.85497627e+01, -2.85415440e+01,
          -2.90401974e+01, -5.78377991e+01, -3.83349915e+01,
          -5.99882469e+01 ]
      - [ -7.08569431e+00, -2.13958111e+01, -2.81355858e+01,
          -2.89315872e+01, -5.78433723e+01, -4.09146690e+01,
          -5.77820053e+01 ]
      - [ -7.01686954e+00, -1.75253429e+01, -2.69986610e+01,
          -2.79411945e+01, -5.58879776e+01, -3.74665451e+01,
          -5.56544380e+01 ]
      - [ -6.81670761e+00, -1.94345760e+01, -2.60870934e+01,
          -2.73628960e+01, -5.46879578e+01, -3.79739990e+01,
          -5.42670517e+01 ]
      - [ -7.05469751e+00, -1.93800240e+01, -2.47925205e+01,
          -2.77735481e+01, -5.80858879e+01, -3.81636581e+01,
          -5.40567398e+01 ]
      - [ -7.16157675e+00, -2.23207970e+01, -2.73018608e+01,
          -3.14989529e+01, -6.13085594e+01, -4.34930611e+01,
          -6.11902885e+01 ]
      - [ -7.17212248e+00, -2.02301884e+01, -2.57339420e+01,
          -3.18859596e+01, -6.09791412e+01, -4.20481949e+01,
          -6.11150284e+01 ]
      - [ -7.23811388e+00, -2.10203056e+01, -3.04007587e+01,
          -3.05672092e+01, -6.17045021e+01, -4.15244102e+01,
          -6.12090530e+01 ]
      - [ -7.14560270e+00, -2.01967106e+01, -2.99978123e+01,
          -2.84615669e+01, -5.84535255e+01, -3.88226395e+01,
          -5.78140297e+01 ]
      - [ -7.04643154e+00, -2.09213619e+01, -3.09369850e+01,
          -3.06237831e+01, -6.20765877e+01, -4.11422920e+01,
          -6.15551147e+01 ]
      - [ -6.95982790e+00, -2.16656322e+01, -2.69476223e+01,
          -2.94788456e+01, -5.77174301e+01, -4.12568016e+01,
          -5.91956291e+01 ]
      - [ -6.91940928e+00, -2.09068737e+01, -2.55349731e+01,
          -2.76440296e+01, -5.61406441e+01, -3.86362343e+01,
          -5.42446823e+01 ]
      - [ -6.88536549e+00, -1.97756538e+01, -2.69559879e+01,
          -2.84568977e+01, -5.69412231e+01, -3.88758812e+01,
          -5.62818527e+01 ]
      - [ -6.76281786e+00, -1.99735794e+01, -2.58521252e+01,
          -2.76840973e+01, -5.44660416e+01, -3.82420082e+01,
          -5.62529030e+01 ]
      - [ -6.94564962e+00, -1.71507149e+01, -2.44253654e+01,
          -2.75118656e+01, -5.34928627e+01, -3.76602554e+01,
          -5.53358612e+01 ]
      - [ -6.98405170e+00, -1.88091221e+01, -2.71370068e+01,
          -2.89652576e+01, -5.89113579e+01, -3.84312057e+01,
          -5.70278168e+01 ]
      - [ -7.03998137e+00, -2.20637875e+01, -2.86122036e+01,
          -2.70012798e+01, -5.62877731e+01, -3.88613930e+01,
          -5.48346405e+01 ]
      - [ -6.89170837e+00, -2.20021000e+01, -2.60902462e+01,
          -2.98511429e+01, -5.78627205e+01, -4.11870232e+01,
          -5.90940590e+01 ]
      - [ -6.81938887e+00, -1.89973946e+01, -2.64283676e+01,
          -2.95491657e+01, -6.04011269e+01, -4.05430641e+01,
          -5.75395622e+01 ]
      - [ -6.86065006e+00, -1.82370014e+01, -2.48556290e+01,
          -2.67029228e+01, -5.29803238e+01, -3.72261620e+01,
          -5.27126274e+01 ]
      - [ -7.04366064e+00, -1.77542152e+01, -2.67113857e+01,
          -3.05537586e+01, -5.97360039e+01, -3.96409569e+01,
          -5.93888817e+01 ]
      - [ -6.82437754e+00, -2.01635056e+01, -2.56866913e+01,
          -2.71575413e+01, -5.36892700e+01, -3.72500763e+01,
          -5.43922768e+01 ]
      - [ -6.91048384e+00, -1.97695732e+01, -2.67021179e+01,
          -2.68869553e+01, -5.36822510e+01, -3.67771416e+01,
          -5.69270897e+01 ]
      - [ -7.02269077e+00, -1.81088600e+01, -2.72821808e+01,
          -2.80223923e+01, -5.57132149e+01, -3.70795403e+01,
          -5.69753571e+01 ]
      - [ -6.96747255e+00, -2.04791470e+01, -2.45563316e+01,
          -3.29163895e+01, -6.25382233e+01, -4.34259834e+01,
          -6.17460213e+01 ]
      - [ -7.02576303e+00, -1.88682461e+01, -2.94980774e+01,
          -2.87103291e+01, -5.78824081e+01, -3.82967834e+01,
          -5.88465576e+01 ]
      - [ -7.04789686e+00, -1.64198437e+01, -2.69093437e+01,
          -2.83896637e+01, -5.60519485e+01, -3.68420753e+01,
          -5.78789177e+01 ]
      - [ -7.06671143e+00, -1.94665928e+01, -2.52358818e+01,
          -2.76265335e+01, -5.40584373e+01, -3.83013039e+01,
          -5.73467522e+01 ]
      - [ -7.00346136e+00, -1.77344322e+01, -2.50743141e+01,
          -2.65622559e+01, -5.24753990e+01, -3.57782593e+01,
          -5.32583389e+01 ]
      - [ -7.01149416e+00, -2.10189781e+01, -2.77863064e+01,
          -2.71511669e+01, -5.46199036e+01, -3.94424782e+01,
          -6.14271660e+01 ]
      - [ -7.02573824e+00, -1.95009460e+01, -2.93567028e+01,
          -2.95626698e+01, -6.17553711e+01, -4.07300835e+01,
          -5.90244751e+01 ]
      - [ -7.01881647e+00, -1.93447475e+01, -2.76053429e+01,
          -2.87398663e+01, -5.76155434e+01, -3.84191551e+01,
          -5.70530472e+01 ]
      - [ -7.01882315e+00, -2.11325436e+01, -2.61158676e+01,
          -3.12622719e+01, -6.14061661e+01, -4.36923599e+01,
          -5.99793587e+01 ]
      - [ -6.84625912e+00, -1.99252987e+01, -2.65880356e+01,
          -2.79545193e+01, -5.53558617e+01, -3.86541367e+01,
          -5.59626999e+01 ]
      - [ -6.89240599e+00, -1.90606670e+01, -2.61190662e+01,
          -2.77304440e+01, -5.48492317e+01, -3.73348694e+01,
          -5.52223778e+01 ]
      - [ -7.13807392e+00, -2.40543919e+01, -2.74303341e+01,
          -3.00363483e+01, -5.92736511e+01, -4.30588684e+01,
          -5.89967346e+01 ]
      - [ -7.10907650e+00, -1.91232986e+01, -2.52801971e+01,
          -2.90413914e+01, -5.65087929e+01, -3.92173347e+01,
          -5.65921974e+01 ]
      - [ -6.95310116e+00, -2.14956398e+01, -2.67867432e+01,
          -2.82990952e+01, -5.66709366e+01, -3.91672745e+01,
          -5.59477119e+01 ]
      - [ -7.14112234e+00, -2.09353218e+01, -2.79995766e+01,
          -3.20235291e+01, -6.28050880e+01, -4.25359001e+01,
          -6.21557236e+01 ]
      - [ -6.88733196e+00, -1.89596195e+01, -2.49420223e+01,
          -3.01471615e+01, -5.78591270e+01, -3.97571716e+01,
          -5.83203011e+01 ]
      - [ -6.98038387e+00, -2.00078850e+01, -2.80436935e+01,
          -3.00117702e+01, -5.90477142e+01, -4.00161514e+01,
          -6.10981827e+01 ]
      - [ -5.68650198e+00, -1.43443031e+01, -1.99863129e+01,
          -1.99671841e+01, -3.99441986e+01, -2.73209934e+01,
          -4.37115707e+01 ]
      - [ -6.08734608e+00, -1.53550854e+01, -1.93205700e+01,
          -2.63133469e+01, -4.93980293e+01, -3.40394020e+01,
          -4.95705338e+01 ]
      - [ -6.30588388e+00, -1.45999985e+01, -2.31087055e+01,
          -2.59526558e+01, -5.09172134e+01, -3.34487915e+01,
          -5.07556076e+01 ]
      - [ -5.13828278e+00, -1.19260082e+01, -1.70393848e+01,
          -1.89267960e+01, -3.73351212e+01, -2.52922478e+01,
          -3.71885109e+01 ]
      - [ -5.96620989e+00, -1.38249521e+01, -1.84961510e+01,
          -2.18150368e+01, -4.22442131e+01, -3.21813431e+01,
          -4.24027023e+01 ]
      - [ -5.93928194e+00, -1.34821072e+01, -2.03177090e+01,
          -2.20440521e+01, -4.32258720e+01, -2.87895088e+01,
          -4.63629913e+01 ]
      - [ -5.71448851e+00, -1.47284002e+01, -1.73790073e+01,
          -1.98649883e+01, -3.85041389e+01, -2.72318172e+01,
          -4.01818275e+01 ]
      - [ -5.96181059e+00, -1.33253794e+01, -1.96065636e+01,
          -2.13557167e+01, -4.23740463e+01, -2.82200241e+01,
          -4.20457611e+01 ]
      - [ -5.92005205e+00, -1.30514536e+01, -2.02998238e+01,
          -2.17302570e+01, -4.34171791e+01, -2.86897984e+01,
          -4.28964310e+01 ]
      - [ -6.43361950e+00, -1.42454376e+01, -2.13850822e+01,
          -2.27811127e+01, -4.50923882e+01, -3.00133247e+01,
          -4.53662071e+01 ]
      - [ -6.62607622e+00, -1.48799181e+01, -2.22328072e+01,
          -2.41341324e+01, -5.02626572e+01, -3.18464527e+01,
          -4.73189850e+01 ]
      - [ -5.53337431e+00, -1.23786058e+01, -1.92473297e+01,
          -2.20627213e+01, -4.57603607e+01, -2.82889729e+01,
          -4.27188873e+01 ]
      - [ -6.35308504e+00, -1.53426113e+01, -2.23407383e+01,
          -2.48992653e+01, -4.92377815e+01, -3.27616234e+01,
          -4.86549301e+01 ]
      - [ -5.72078419e+00, -1.53863697e+01, -1.84751492e+01,
          -2.08902054e+01, -4.19245682e+01, -2.89605236e+01,
          -4.06075439e+01 ]
      - [ -5.01011038e+00, -1.14309187e+01, -1.63509903e+01,
          -1.81305180e+01, -3.57781525e+01, -2.40165691e+01,
          -3.56640396e+01 ]
      - [ -5.85995436e+00, -1.29675665e+01, -2.18959866e+01,
          -2.12665062e+01, -4.38421097e+01, -2.77533245e+01,
          -4.29213486e+01 ]
      - [ -6.16059780e+00, -1.49038038e+01, -2.05764809e+01,
          -2.22784290e+01, -4.40092773e+01, -2.97607594e+01,
          -4.40997200e+01 ]
      - [ -5.46303654e+00, -1.56304855e+01, -1.81632557e+01,
          -1.89893665e+01, -3.75963097e+01, -2.74838295e+01,
          -3.89771996e+01 ]
      - [ -5.40694714e+00, -1.15926657e+01, -1.83873119e+01,
          -1.96815929e+01, -3.99123383e+01, -2.60472851e+01,
          -3.87639656e+01 ]
      - [ -6.21005535e+00, -1.44604301e+01, -2.13515778e+01,
          -2.20613728e+01, -4.38048248e+01, -2.93513699e+01,
          -4.50884247e+01 ]
      - [ -5.93336105e+00, -1.34109116e+01, -1.99625530e+01,
          -2.14709454e+01, -4.25165024e+01, -2.82544651e+01,
          -4.25526886e+01 ]
      - [ -6.02433014e+00, -1.43741169e+01, -2.26780205e+01,
          -2.47686481e+01, -4.94196472e+01, -3.25842781e+01,
          -4.85770226e+01 ]
      - [ -5.48478460e+00, -1.23045845e+01, -1.99879017e+01,
          -2.02933331e+01, -4.19399948e+01, -2.68599529e+01,
          -4.04591713e+01 ]
      - [ -5.74757528e+00, -1.32762899e+01, -1.99889202e+01,
          -2.08940697e+01, -4.32684555e+01, -2.84007130e+01,
          -4.13461494e+01 ]
      - [ -5.57325172e+00, -1.26276379e+01, -1.87173195e+01,
          -2.09435425e+01, -4.07764397e+01, -2.74664459e+01,
          -4.34311752e+01 ]
      - [ -6.23651028e+00, -1.49134045e+01, -2.02972450e+01,
          -2.35925446e+01, -4.68406677e+01, -3.10548477e+01,
          -4.55757713e+01 ]
      - [ -6.32399273e+00, -1.36816597e+01, -2.11968937e+01,
          -2.31421547e+01, -4.74532471e+01, -3.13999462e+01,
          -4.53186264e+01 ]
      - [ -6.18122768e+00, -1.40581970e+01, -2.06347256e+01,
          -2.22126732e+01, -4.40356178e+01, -2.99171734e+01,
          -4.39352989e+01 ]
      - [ -5.72479439e+00, -1.31666346e+01, -1.79203701e+01,
          -2.02403297e+01, -3.93393898e+01, -2.68849125e+01,
          -4.09728584e+01 ]
      - [ -6.17087364e+00, -1.38701725e+01, -2.05881443e+01,
          -2.19100494e+01, -4.43445015e+01, -2.90578079e+01,
          -4.32081795e+01 ]
      - [ -5.56077242e+00, -1.30366564e+01, -1.74608078e+01,
          -2.01326027e+01, -3.89611053e+01, -2.68436069e+01,
          -4.03227463e+01 ]
      - [ -6.56381559e+00, -1.52612429e+01, -2.26012020e+01,
          -2.40410500e+01, -5.21850739e+01, -3.25673256e+01,
          -4.73622093e+01 ]
      - [ -6.03267384e+00, -1.32640543e+01, -1.98898067e+01,
          -2.31842575e+01, -4.47406998e+01, -2.99392586e+01,
          -4.63554344e+01 ]
      - [ -5.64054060e+00, -1.27703972e+01, -1.89643154e+01,
          -2.12504101e+01, -4.21813316e+01, -2.99910355e+01,
          -4.14647446e+01 ]
      - [ -5.80305862e+00, -1.25023432e+01, -1.88945656e+01,
          -2.09978905e+01, -4.09905701e+01, -2.72971706e+01,
          -4.21552467e+01 ]
      - [ -6.28007078e+00, -1.39028912e+01, -2.34694519e+01,
          -2.30780144e+01, -4.65494690e+01, -3.04468899e+01,
          -4.69112320e+01 ]
      - [ -5.77865839e+00, -1.48354931e+01, -1.97370605e+01,
          -2.12460823e+01, -4.46370163e+01, -3.05301590e+01,
          -4.17391701e+01 ]
      - [ -6.49878931e+00, -1.50021725e+01, -2.27507095e+01,
          -2.32742996e+01, -4.95282326e+01, -3.13860168e+01,
          -4.62875710e+01 ]
      - [ -5.77337122e+00, -1.49737139e+01, -1.89952984e+01,
          -2.17269840e+01, -4.34661598e+01, -3.01019440e+01,
          -4.21209488e+01 ]
      - [ -5.64881325e+00, -1.27783442e+01, -2.15592041e+01,
          -2.09330330e+01, -4.22853279e+01, -2.80688972e+01,
          -4.30060577e+01 ]
      - [ -5.76952648e+00, -1.72799110e+01, -1.89180641e+01,
          -2.32986126e+01, -4.47473831e+01, -3.32497978e+01,
          -4.47597427e+01 ]
      - [ -6.52808285e+00, -1.54090834e+01, -2.28685894e+01,
          -2.41445293e+01, -5.09663734e+01, -3.20551643e+01,
          -4.76517487e+01 ]
      - [ -5.98675728e+00, -1.36234341e+01, -2.12665310e+01,
          -2.26312237e+01, -4.51335297e+01, -3.05968418e+01,
          -4.47807846e+01 ]
      - [ -5.95645905e+00, -1.50552864e+01, -2.01498737e+01,
          -2.67332039e+01, -5.01801453e+01, -3.43159714e+01,
          -5.24414902e+01 ]
      - [ -6.02728748e+00, -1.45441818e+01, -2.26121368e+01,
          -2.46790733e+01, -4.86731987e+01, -3.25369530e+01,
          -4.86693115e+01 ]
      - [ -6.24699688e+00, -1.42450867e+01, -2.20003147e+01,
          -2.41321182e+01, -4.73083916e+01, -3.15463943e+01,
          -4.80091667e+01 ]
      - [ -6.10919046e+00, -1.37910929e+01, -2.03844185e+01,
          -2.23680401e+01, -4.39234200e+01, -2.95629597e+01,
          -4.43443604e+01 ]
      - [ -5.47578478e+00, -1.26916084e+01, -1.84509907e+01,
          -2.04192333e+01, -4.03548012e+01, -2.79071770e+01,
          -4.00834198e+01 ]
      - [ -6.13953495e+00, -1.37170229e+01, -2.07915726e+01,
          -2.49301929e+01, -4.79543304e+01, -3.19349308e+01,
          -4.84301338e+01 ]
      - [ -5.81165934e+00, -1.33467407e+01, -1.97315254e+01,
          -2.08339882e+01, -4.26882553e+01, -2.80861511e+01,
          -4.11388016e+01 ]
      - [ -5.96733856e+00, -1.36817913e+01, -2.25705605e+01,
          -2.17521172e+01, -4.49163437e+01, -2.90667477e+01,
          -4.39857140e+01 ]
      - [ -6.01606798e+00, -1.39274082e+01, -2.10062256e+01,
          -2.57404995e+01, -4.91347961e+01, -3.59367981e+01,
          -5.07108727e+01 ]
      - [ -5.66038847e+00, -1.53740644e+01, -1.81079731e+01,
          -2.18047409e+01, -4.17694893e+01, -2.95398064e+01,
          -4.38089333e+01 ]
      - [ -6.05996609e+00, -1.66458683e+01, -1.88038006e+01,
          -2.07312069e+01, -4.06661911e+01, -2.92263107e+01,
          -4.11269875e+01 ]
      - [ -6.07009363e+00, -1.40417595e+01, -2.19734287e+01,
          -2.44881687e+01, -4.77279549e+01, -3.15120621e+01,
          -4.97328529e+01 ]
      - [ -5.84554911e+00, -1.34346056e+01, -1.84278736e+01,
          -2.16915073e+01, -4.18652725e+01, -2.85625725e+01,
          -4.25460243e+01 ]
      - [ -5.02437830e+00, -1.11800661e+01, -1.71931210e+01,
          -1.84487419e+01, -3.63934288e+01, -2.59643250e+01,
          -3.70284233e+01 ]
      - [ -6.41760254e+00, -1.42479286e+01, -2.10174370e+01,
          -2.35056667e+01, -4.66838531e+01, -3.10683861e+01,
          -4.58543282e+01 ]
      - [ -6.20478630e+00, -1.58316917e+01, -1.99392796e+01,
          -2.13334541e+01, -4.19698219e+01, -2.93130016e+01,
          -4.88701630e+01 ]
      - [ -6.12411022e+00, -1.34733868e+01, -2.27773209e+01,
          -2.59905567e+01, -5.06280632e+01, -3.27469406e+01,
          -5.08354225e+01 ]
      - [ -5.81254387e+00, -1.52342358e+01, -1.86753807e+01,
          -2.20944519e+01, -4.24870796e+01, -2.97169342e+01,
          -4.45691566e+01 ]
      - [ -6.17744970e+00, -1.50798473e+01, -1.90037537e+01,
          -2.21504631e+01, -4.40641861e+01, -3.08347168e+01,
          -4.27633362e+01 ]
      - [ -5.72334671e+00, -1.39699545e+01, -1.80508785e+01,
          -2.14298630e+01, -4.12567329e+01, -2.85000515e+01,
          -4.20900917e+01 ]
      - [ -5.96576071e+00, -1.40533257e+01, -1.96042366e+01,
          -2.38137627e+01, -4.57839699e+01, -3.22792206e+01,
          -4.59723320e+01 ]
      - [ -5.83640289e+00, -1.30386276e+01, -1.93027515e+01,
          -2.11272507e+01, -4.16737747e+01, -2.78568726e+01,
          -4.17043457e+01 ]
      - [ -5.92866087e+00, -1.31123409e+01, -1.95673237e+01,
          -2.09067173e+01, -4.11526680e+01, -2.74979630e+01,
          -4.31608086e+01 ]
      - [ -6.17579460e+00, -1.47264671e+01, -2.11741352e+01,
          -2.20623379e+01, -4.40558929e+01, -3.06113663e+01,
          -4.39999657e+01 ]
      - [ -6.05924320e+00, -1.54898167e+01, -2.03966732e+01,
          -2.38796444e+01, -4.63105278e+01, -3.23752060e+01,
          -4.64247284e+01 ]
      - [ -6.08075953e+00, -1.45755844e+01, -2.24312935e+01,
          -2.26685448e+01, -4.68097992e+01, -3.02561169e+01,
          -4.52396469e+01 ]
      - [ -5.86908245e+00, -1.32029448e+01, -1.90691624e+01,
          -2.08430119e+01, -4.20585976e+01, -2.82677612e+01,
          -4.08410835e+01 ]
      - [ -5.88884401e+00, -1.24120836e+01, -2.08463078e+01,
          -2.16619244e+01, -4.29944649e+01, -2.84758987e+01,
          -4.38809738e+01 ]
      - [ -6.22598457e+00, -1.85626545e+01, -2.14625549e+01,
          -2.30760250e+01, -4.53991470e+01, -3.26751747e+01,
          -4.64863586e+01 ]
      - [ -5.58339691e+00, -1.57795458e+01, -1.78161125e+01,
          -2.15266514e+01, -4.40800781e+01, -2.95320053e+01,
          -4.11996040e+01 ]
      - [ -5.98661470e+00, -1.32330961e+01, -2.03466148e+01,
          -2.29114990e+01, -4.46217690e+01, -2.95903931e+01,
          -4.54893684e+01 ]
      - [ -5.03290939e+00, -1.11859865e+01, -1.72446365e+01,
          -1.85016041e+01, -3.64888268e+01, -2.59264545e+01,
          -3.71694450e+01 ]
      - [ -5.89084673e+00, -1.43958969e+01, -2.10100117e+01,
          -2.16791306e+01, -4.30835838e+01, -2.90913353e+01,
          -4.41144600e+01 ]
      - [ -6.41749048e+00, -1.42675695e+01, -2.45077572e+01,
          -2.62010880e+01, -5.17412682e+01, -3.33508377e+01,
          -5.21405983e+01 ]
      - [ -5.98032045e+00, -1.71946526e+01, -1.92679176e+01,
          -2.37410316e+01, -4.63302536e+01, -3.27714195e+01,
          -4.53061600e+01 ]
      - [ -5.72780561e+00, -1.47735558e+01, -1.91906395e+01,
          -2.46999397e+01, -4.66923637e+01, -3.25599518e+01,
          -4.78494186e+01 ]
      - [ -5.76795053e+00, -1.30684166e+01, -2.05991917e+01,
          -2.26552849e+01, -4.68968124e+01, -2.97844353e+01,
          -4.42852097e+01 ]
      - [ -6.25092793e+00, -1.57979183e+01, -2.02454357e+01,
          -2.40658836e+01, -4.74081154e+01, -3.27744141e+01,
          -4.62704506e+01 ]
      - [ -6.11242104e+00, -1.46198845e+01, -1.93613930e+01,
          -2.51777744e+01, -4.76044579e+01, -3.42476425e+01,
          -4.81027184e+01 ]
      - [ -6.02161646e+00, -1.40587406e+01, -1.94120693e+01,
          -2.13814487e+01, -4.53971596e+01, -2.93209629e+01,
          -4.17785683e+01 ]
      - [ -6.17490911e+00, -1.47634373e+01, -2.13923111e+01,
          -2.35669003e+01, -4.60469589e+01, -3.14823170e+01,
          -4.95528755e+01 ]
      - [ -5.84933186e+00, -1.28848286e+01, -2.39644947e+01,
          -2.29076710e+01, -4.63583946e+01, -2.97237186e+01,
          -4.81164284e+01 ]
      - [ -5.97620678e+00, -1.42528543e+01, -2.08407593e+01,
          -2.46584682e+01, -4.75190010e+01, -3.17923527e+01,
          -4.82154236e+01 ]
      - [ -5.47896290e+00, -1.26781406e+01, -1.84362755e+01,
          -2.25393677e+01, -4.33573380e+01, -2.92975407e+01,
          -4.33907471e+01 ]
      - [ -5.87305212e+00, -1.46014662e+01, -2.44361038e+01,
          -2.14513569e+01, -4.46581650e+01, -2.87520924e+01,
          -4.48419495e+01 ]
      - [ -5.65893459e+00, -1.50133677e+01, -1.82628613e+01,
          -2.24542694e+01, -4.37605438e+01, -3.13148651e+01,
          -4.28942413e+01 ]
      - [ -6.13942814e+00, -1.52828293e+01, -2.16228123e+01,
          -2.58746128e+01, -4.98246536e+01, -3.61300888e+01,
          -5.01754532e+01 ]
      - [ -5.88088179e+00, -1.39243689e+01, -1.92878246e+01,
          -2.32193832e+01, -4.45032043e+01, -3.03616734e+01,
          -4.58911362e+01 ]
      - [ -5.92399120e+00, -1.52547369e+01, -1.79950523e+01,
          -2.04968529e+01, -3.97463303e+01, -2.81369114e+01,
          -4.22220001e+01 ]
      - [ -6.09887075e+00, -1.66473656e+01, -1.91192608e+01,
          -2.18033142e+01, -4.49494400e+01, -3.12671814e+01,
          -4.22669334e+01 ]
      - [ -6.56316423e+00, -1.45759201e+01, -2.16797657e+01,
          -2.33335800e+01, -4.58403816e+01, -3.06218872e+01,
          -4.99750633e+01 ]
      - [ -6.06217909e+00, -1.44405823e+01, -2.09289608e+01,
          -2.27467327e+01, -4.47068443e+01, -3.01257439e+01,
          -4.53486748e+01 ]
      - [ -5.45032597e+00, -1.38740788e+01, -1.85220928e+01,
          -1.96069717e+01, -3.87214928e+01, -2.69744320e+01,
          -3.98477058e+01 ]
      - [ -5.88852835e+00, -1.41281118e+01, -2.16199112e+01,
          -2.19225502e+01, -4.38709335e+01, -2.97837563e+01,
          -4.42985458e+01 ]
      - [ -5.77659035e+00, -1.31451950e+01, -1.90628891e+01,
          -2.09647198e+01, -4.18342056e+01, -2.80359173e+01,
          -4.10781250e+01 ]
      - [ -5.58775139e+00, -1.55405121e+01, -1.83474998e+01,
          -2.11984749e+01, -4.11080513e+01, -2.93213940e+01,
          -4.16870232e+01 ]
      - [ -6.13233423e+00, -1.52134609e+01, -2.20199947e+01,
          -2.61968327e+01, -5.03417625e+01, -3.60786514e+01,
          -5.16318207e+01 ]
      - [ -5.93863630e+00, -1.32521095e+01, -2.24355621e+01,
          -2.25534000e+01, -4.65763893e+01, -3.24673996e+01,
          -4.50719681e+01 ]
      - [ -5.66164780e+00, -1.38267431e+01, -1.83161144e+01,
          -2.28956528e+01, -4.40981598e+01, -3.01962242e+01,
          -4.36821899e+01 ]
      - [ -5.79378366e+00, -1.55821943e+01, -1.82217712e+01,
          -2.12805443e+01, -4.10375175e+01, -3.07920609e+01,
          -4.32614059e+01 ]
      - [ -5.83384418e+00, -1.40884562e+01, -1.99109592e+01,
          -2.33988247e+01, -4.50737457e+01, -3.04438858e+01,
          -4.66724815e+01 ]
      - [ -5.65611649e+00, -1.23666182e+01, -2.03549500e+01,
          -2.34822311e+01, -4.55862389e+01, -3.08069572e+01,
          -4.59866676e+01 ]
      - [ -6.42419720e+00, -1.43402433e+01, -2.11642437e+01,
          -2.36001968e+01, -4.65723572e+01, -3.10589371e+01,
          -4.61660080e+01 ]
      - [ -5.79139853e+00, -1.47471561e+01, -2.27224998e+01,
          -2.24092426e+01, -4.56438866e+01, -3.35784264e+01,
          -4.51273537e+01 ]
      - [ -5.89820480e+00, -1.32221308e+01, -1.95169392e+01,
          -2.10922661e+01, -4.42228889e+01, -2.90293560e+01,
          -4.13986282e+01 ]
      - [ -6.00932026e+00, -1.50432405e+01, -2.06092415e+01,
          -2.27378197e+01, -4.68249130e+01, -3.08165092e+01,
          -4.44153709e+01 ]
      - [ -5.59276676e+00, -1.24222937e+01, -1.82837334e+01,
          -1.97515640e+01, -3.92539520e+01, -2.62235279e+01,
          -3.90076523e+01 ]
      - [ -6.06811142e+00, -1.36733694e+01, -2.08176479e+01,
          -2.31420135e+01, -4.59647026e+01, -3.20818481e+01,
          -4.52243195e+01 ]
      - [ -5.60193539e+00, -1.39304495e+01, -1.69019146e+01,
          -1.88531418e+01, -3.67343674e+01, -2.58183765e+01,
          -3.91862602e+01 ]
      - [ -5.28634167e+00, -1.13660030e+01, -1.70806751e+01,
          -1.90406361e+01, -3.71239853e+01, -2.47611351e+01,
          -3.86588783e+01 ]
      - [ -6.51039362e+00, -1.50188761e+01, -2.24152718e+01,
          -2.34185753e+01, -4.83196297e+01, -3.19167156e+01,
          -4.63450432e+01 ]
      - [ -5.68885231e+00, -1.23605566e+01, -1.72955303e+01,
          -1.81445389e+01, -3.58651924e+01, -2.43255730e+01,
          -3.92130241e+01 ]
      - [ -6.43811560e+00, -1.68909397e+01, -2.03534431e+01,
          -2.25411930e+01, -4.53299904e+01, -3.32878838e+01,
          -4.40239182e+01 ]
      - [ -6.14261198e+00, -1.35990238e+01, -2.00756035e+01,
          -2.16393948e+01, -4.36284714e+01, -2.86621304e+01,
          -4.25518150e+01 ]
      - [ -5.90504408e+00, -1.35027390e+01, -1.97076836e+01,
          -2.22477722e+01, -4.34668655e+01, -2.97249374e+01,
          -4.37054863e+01 ]
      - [ -6.04548931e+00, -1.30594883e+01, -2.12379551e+01,
          -2.31885910e+01, -4.58707237e+01, -3.01365509e+01,
          -4.56502609e+01 ]
      - [ -5.40904903e+00, -1.13865337e+01, -1.77452679e+01,
          -1.91550560e+01, -3.76848297e+01, -2.50496445e+01,
          -3.85632210e+01 ]
      - [ -5.64113474e+00, -1.25518208e+01, -1.84440250e+01,
          -2.01476936e+01, -3.98185501e+01, -2.66528454e+01,
          -3.97632294e+01 ]
      - [ -5.84395838e+00, -1.41166763e+01, -1.98605309e+01,
          -2.38988571e+01, -4.57944756e+01, -3.09597511e+01,
          -4.75098610e+01 ]
      - [ -5.78400421e+00, -1.48911810e+01, -2.18429527e+01,
          -2.12308826e+01, -4.34674416e+01, -2.86982174e+01,
          -4.29094963e+01 ]
      - [ -6.08040333e+00, -1.32732077e+01, -2.21876812e+01,
          -2.36986465e+01, -4.69168739e+01, -3.22342491e+01,
          -4.70718575e+01 ]
      - [ -6.48070192e+00, -1.56621017e+01, -1.96350994e+01,
          -2.16866989e+01, -4.23494682e+01, -2.95962582e+01,
          -4.51431503e+01 ]
      - [ -6.03071880e+00, -1.38804092e+01, -2.23997650e+01,
          -2.30530701e+01, -4.68302879e+01, -3.06240673e+01,
          -4.58446884e+01 ]
      - [ -5.73647785e+00, -1.31242065e+01, -2.19896507e+01,
          -2.13120098e+01, -4.37057037e+01, -3.07600555e+01,
          -4.30911484e+01 ]
      - [ -5.99277449e+00, -1.44670677e+01, -1.86465454e+01,
          -2.25333767e+01, -4.31293640e+01, -2.98152771e+01,
          -4.53355675e+01 ]
      - [ -5.84378290e+00, -1.41562080e+01, -2.03200722e+01,
          -2.15040016e+01, -4.25991325e+01, -3.26934471e+01,
          -4.30071030e+01 ]
      - [ -5.59349728e+00, -1.20535460e+01, -1.79297218e+01,
          -2.01144714e+01, -3.92174988e+01, -2.62030582e+01,
          -4.00869865e+01 ]
      - [ -5.77988338e+00, -1.45673904e+01, -1.76390667e+01,
          -2.03265305e+01, -3.93526115e+01, -2.76211243e+01,
          -4.05542488e+01 ]
      - [ -6.19249392e+00, -1.64177132e+01, -1.94268837e+01,
          -2.33481007e+01, -4.58226166e+01, -3.17017670e+01,
          -4.47959518e+01 ]
      - [ -4.63392782e+00, -1.12721930e+01, -1.75079174e+01,
          -1.66868515e+01, -3.37935524e+01, -2.27666569e+01,
          -3.57802238e+01 ]
      - [ -6.32145119e+00, -1.54469500e+01, -2.11844006e+01,
          -2.44281788e+01, -4.75043221e+01, -3.22117882e+01,
          -4.76717033e+01 ]
      - [ -5.64632034e+00, -1.26031160e+01, -2.08259792e+01,
          -2.09518623e+01, -4.40599289e+01, -3.19904099e+01,
          -4.18467255e+01 ]
      - [ -5.99545336e+00, -1.37059174e+01, -1.89583340e+01,
          -2.20489635e+01, -4.28514557e+01, -2.93633785e+01,
          -4.29519577e+01 ]
      - [ -5.33654022e+00, -1.49877739e+01, -1.69161434e+01,
          -2.00203533e+01, -3.85513802e+01, -2.75353241e+01,
          -3.95571365e+01 ]
      - [ -6.28322268e+00, -1.43571863e+01, -2.26537018e+01,
          -2.63413544e+01, -5.09543457e+01, -3.41648827e+01,
          -5.16283340e+01 ]
      - [ -6.20446825e+00, -1.39351473e+01, -2.42019863e+01,
          -2.48984089e+01, -4.94654694e+01, -3.19083996e+01,
          -5.11517868e+01 ]
      - [ -5.68207598e+00, -1.26649704e+01, -1.86355782e+01,
          -2.03949051e+01, -4.02942810e+01, -2.69625473e+01,
          -4.02217827e+01 ]
      - [ -6.06025314e+00, -1.45064783e+01, -1.86783447e+01,
          -2.19396839e+01, -4.22493820e+01, -2.92403202e+01,
          -4.55459709e+01 ]
      - [ -5.84163713e+00, -1.55787888e+01, -1.96896191e+01,
          -2.49590473e+01, -4.77774544e+01, -3.55530014e+01,
          -4.75161972e+01 ]
      - [ -5.89389896e+00, -1.30351267e+01, -2.14356766e+01,
          -2.25552750e+01, -4.47043991e+01, -3.10485516e+01,
          -4.52155876e+01 ]
      - [ -5.84112835e+00, -1.39091358e+01, -2.02718430e+01,
          -2.15272942e+01, -4.28633080e+01, -3.08263588e+01,
          -4.26972809e+01 ]
      - [ -6.12501764e+00, -1.39391317e+01, -2.11657085e+01,
          -2.29557076e+01, -4.55454445e+01, -3.19879436e+01,
          -4.52296028e+01 ]
      - [ -6.04457951e+00, -1.45779877e+01, -1.94620743e+01,
          -2.21126537e+01, -4.29073029e+01, -3.42284851e+01,
          -4.50180588e+01 ]
      - [ -5.73941374e+00, -1.36195974e+01, -1.81710358e+01,
          -2.11755199e+01, -4.08790398e+01, -2.80821114e+01,
          -4.22665634e+01 ]
      - [ -4.85436583e+00, -1.23262043e+01, -1.67763062e+01,
          -1.69188976e+01, -3.37971001e+01, -2.32576847e+01,
          -3.51784973e+01 ]
      - [ -6.15641069e+00, -1.48723059e+01, -2.05691833e+01,
          -2.22620068e+01, -4.39732666e+01, -2.97259827e+01,
          -4.40808640e+01 ]
      - [ -6.35204935e+00, -1.53595657e+01, -2.22736626e+01,
          -2.49118099e+01, -4.92587814e+01, -3.27970772e+01,
          -4.86295776e+01 ]
      - [ -6.08016968e+00, -1.30123787e+01, -2.17765732e+01,
          -2.27243366e+01, -4.61853600e+01, -3.13648167e+01,
          -4.50212975e+01 ]
      - [ -5.89862013e+00, -1.31412792e+01, -2.37586422e+01,
          -2.31675453e+01, -4.76058350e+01, -3.00358334e+01,
          -4.67073441e+01 ]
      - [ -5.88679695e+00, -1.24051600e+01, -2.07489777e+01,
          -2.15946045e+01, -4.28109436e+01, -2.82792645e+01,
          -4.39975510e+01 ]
      - [ -5.46843147e+00, -1.18450270e+01, -1.83219891e+01,
          -1.97298088e+01, -4.03994102e+01, -2.63696976e+01,
          -3.87747421e+01 ]
      - [ -5.66784573e+00, -1.21164255e+01, -1.80011253e+01,
          -1.98694725e+01, -3.97348480e+01, -2.62397671e+01,
          -3.88893623e+01 ]
      - [ -5.96932650e+00, -1.39759912e+01, -2.08786488e+01,
          -2.52255459e+01, -5.13547478e+01, -3.27375908e+01,
          -4.82787056e+01 ]
      - [ -5.70590305e+00, -1.53119402e+01, -1.80105381e+01,
          -2.06559086e+01, -3.99893074e+01, -2.93697338e+01,
          -4.39626961e+01 ]
      - [ -6.36283064e+00, -1.58839674e+01, -2.23327179e+01,
          -2.51877441e+01, -4.94527855e+01, -3.37017288e+01,
          -4.91745338e+01 ]
      - [ -5.93734121e+00, -1.38302603e+01, -1.96209831e+01,
          -2.22265472e+01, -4.48213081e+01, -2.98420372e+01,
          -4.31683159e+01 ]
      - [ -5.74061012e+00, -1.28448610e+01, -1.90660763e+01,
          -2.08128796e+01, -4.10557442e+01, -2.74340801e+01,
          -4.11462059e+01 ]
      - [ -5.98920774e+00, -1.31583700e+01, -2.45638695e+01,
          -2.34873257e+01, -4.75836906e+01, -3.01287918e+01,
          -4.85254974e+01 ]
      - [ -6.07400084e+00, -1.38399458e+01, -1.99354572e+01,
          -2.12478256e+01, -4.19753494e+01, -2.84417400e+01,
          -4.25572777e+01 ]
      - [ -6.98264265e+00, -1.50867310e+01, -2.82518673e+01,
          -3.05881710e+01, -6.00376587e+01, -3.90740662e+01,
          -6.14384918e+01 ]
      - [ -7.11981440e+00, -1.76681919e+01, -2.47539749e+01,
          -2.67221603e+01, -5.26654205e+01, -3.55834389e+01,
          -5.30046463e+01 ]
      - [ -7.13365650e+00, -1.69550076e+01, -2.47888260e+01,
          -2.68616257e+01, -5.48637047e+01, -3.54247437e+01,
          -5.26933250e+01 ]
      - [ -6.92115259e+00, -1.53601484e+01, -2.42623596e+01,
          -2.67224483e+01, -5.22249222e+01, -3.44500732e+01,
          -5.41724281e+01 ]
      - [ -6.82058287e+00, -1.48708782e+01, -2.30080452e+01,
          -2.62542877e+01, -5.17353210e+01, -3.46444626e+01,
          -5.09863472e+01 ]
      - [ -7.10317421e+00, -1.72870960e+01, -2.37979107e+01,
          -3.01382465e+01, -5.78063316e+01, -3.87958107e+01,
          -5.72479019e+01 ]
      - [ -6.99281549e+00, -1.74194412e+01, -2.46213875e+01,
          -2.60161076e+01, -5.23343124e+01, -3.67256737e+01,
          -5.14076462e+01 ]
      - [ -6.80947876e+00, -1.55431767e+01, -2.10857372e+01,
          -2.35997753e+01, -5.01413002e+01, -3.16969986e+01,
          -4.59426422e+01 ]
      - [ -6.95144272e+00, -1.58954763e+01, -2.26943302e+01,
          -2.62724705e+01, -5.12222023e+01, -3.66214943e+01,
          -5.10059013e+01 ]
      - [ -6.97003603e+00, -1.61564369e+01, -2.28143616e+01,
          -2.50653553e+01, -4.91947098e+01, -3.37966347e+01,
          -4.95820885e+01 ]
      - [ -6.80940151e+00, -1.48461809e+01, -2.40191841e+01,
          -2.64344501e+01, -5.16780014e+01, -3.39973717e+01,
          -5.33682022e+01 ]
      - [ -6.97442055e+00, -1.63765945e+01, -2.33684025e+01,
          -2.74532127e+01, -5.82217407e+01, -3.82447815e+01,
          -5.28640289e+01 ]
      - [ -7.10091209e+00, -1.61206608e+01, -2.66104298e+01,
          -2.68563938e+01, -5.35958061e+01, -3.49174118e+01,
          -5.58044014e+01 ]
      - [ -6.93328619e+00, -1.51127634e+01, -2.42645836e+01,
          -2.63328285e+01, -5.16650276e+01, -3.42990227e+01,
          -5.29998016e+01 ]
      - [ -6.95803499e+00, -1.60372047e+01, -2.38324757e+01,
          -2.76320038e+01, -5.46187668e+01, -3.57489929e+01,
          -5.34066658e+01 ]
      - [ -6.97128201e+00, -1.61491051e+01, -2.28211441e+01,
          -2.50787888e+01, -4.92047997e+01, -3.38264580e+01,
          -4.96361389e+01 ]
      - [ -7.19126749e+00, -1.75768948e+01, -2.70241261e+01,
          -2.90613785e+01, -6.20395737e+01, -3.80689659e+01,
          -5.71041565e+01 ]
      - [ -6.85939455e+00, -1.51061659e+01, -2.49128685e+01,
          -2.69913616e+01, -5.30528069e+01, -3.56084442e+01,
          -5.37572556e+01 ]
      - [ -6.61460161e+00, -1.42447729e+01, -2.36001873e+01,
          -2.70291786e+01, -5.35040207e+01, -3.42162094e+01,
          -5.23955650e+01 ]
      - [ -7.00286245e+00, -1.53162270e+01, -2.60077858e+01,
          -2.69850750e+01, -5.38243484e+01, -3.47618027e+01,
          -5.38318367e+01 ]
      - [ -7.09622860e+00, -1.68760204e+01, -2.43039112e+01,
          -2.61146622e+01, -5.22256546e+01, -3.47572899e+01,
          -5.14139519e+01 ]
      - [ -6.86695814e+00, -1.48981628e+01, -2.23829155e+01,
          -2.53109646e+01, -4.91712112e+01, -3.29272537e+01,
          -5.09777336e+01 ]
      - [ -7.18096256e+00, -1.64422951e+01, -2.64466171e+01,
          -2.93690910e+01, -5.99004898e+01, -3.76086235e+01,
          -5.72795830e+01 ]
      - [ -7.09519196e+00, -1.65820427e+01, -2.45482769e+01,
          -2.64665432e+01, -5.43259277e+01, -3.48093376e+01,
          -5.19785042e+01 ]
      - [ -7.22519541e+00, -1.77336903e+01, -2.52135754e+01,
          -2.68563423e+01, -5.37263641e+01, -3.57314568e+01,
          -5.29955635e+01 ]
      - [ -7.10486174e+00, -1.69722290e+01, -2.46999302e+01,
          -2.68155155e+01, -5.46350288e+01, -3.53681145e+01,
          -5.25813980e+01 ]
      - [ -6.98004723e+00, -1.51621532e+01, -2.82054939e+01,
          -3.06652088e+01, -6.26188545e+01, -3.83776627e+01,
          -6.01038208e+01 ]
      - [ -7.04294300e+00, -1.73101616e+01, -2.35301685e+01,
          -2.79791756e+01, -5.37593307e+01, -3.84980431e+01,
          -5.52348251e+01 ]
      - [ -7.10048008e+00, -1.73207550e+01, -2.37925682e+01,
          -3.00035572e+01, -5.72123222e+01, -3.86650772e+01,
          -5.72868347e+01 ]
      - [ -7.01857328e+00, -1.65075493e+01, -2.86837749e+01,
          -2.76705799e+01, -5.60319557e+01, -3.74930649e+01,
          -5.64363289e+01 ]
      - [ -6.98794174e+00, -1.52334337e+01, -2.71932106e+01,
          -2.94810371e+01, -5.79006577e+01, -3.70977554e+01,
          -5.87597618e+01 ]
      - [ -6.86590862e+00, -1.57996626e+01, -2.29220486e+01,
          -2.40703735e+01, -4.76238327e+01, -3.22563744e+01,
          -4.86785469e+01 ]
      - [ -6.78041506e+00, -1.56793957e+01, -2.32624207e+01,
          -2.53907681e+01, -5.07394028e+01, -3.34065819e+01,
          -4.97867050e+01 ]
      - [ -6.94835043e+00, -1.73840809e+01, -2.19893970e+01,
          -2.55027599e+01, -4.97045097e+01, -3.41993294e+01,
          -4.95059052e+01 ]
      - [ -6.95080853e+00, -1.68817654e+01, -2.19926586e+01,
          -2.52591515e+01, -4.92580910e+01, -3.37150612e+01,
          -4.92065010e+01 ]
      - [ -6.93713284e+00, -1.56539688e+01, -2.21390228e+01,
          -2.52678928e+01, -4.99065895e+01, -3.31207886e+01,
          -4.90549965e+01 ]
      - [ -7.17833853e+00, -2.13040085e+01, -2.71728153e+01,
          -3.08541489e+01, -6.05728073e+01, -4.17285500e+01,
          -6.00075264e+01 ]
      - [ -7.09690428e+00, -1.66429081e+01, -2.45201607e+01,
          -2.64580708e+01, -5.49479446e+01, -3.48383102e+01,
          -5.19484253e+01 ]
      - [ -7.24981737e+00, -1.79379368e+01, -2.50546608e+01,
          -2.78196678e+01, -5.43082466e+01, -3.69148712e+01,
          -5.54196701e+01 ]
      - [ -7.07435322e+00, -1.71348171e+01, -2.49919109e+01,
          -2.61879101e+01, -5.18061333e+01, -3.50398750e+01,
          -5.32275848e+01 ]
      - [ -7.04335499e+00, -1.72980728e+01, -2.35241089e+01,
          -2.79739799e+01, -5.37549057e+01, -3.84882698e+01,
          -5.51151505e+01 ]
      - [ -7.10161209e+00, -1.72865772e+01, -2.37981815e+01,
          -2.98023720e+01, -5.68806801e+01, -3.84466667e+01,
          -5.70286751e+01 ]
      - [ -7.02179670e+00, -1.65772820e+01, -2.81132584e+01,
          -2.76441345e+01, -5.59506874e+01, -3.77207527e+01,
          -5.57995033e+01 ]
      - [ -6.79526234e+00, -1.59099846e+01, -2.25233898e+01,
          -2.55134277e+01, -4.96261024e+01, -3.37108040e+01,
          -5.04124641e+01 ]
      - [ -6.97314835e+00, -1.59087534e+01, -2.27736244e+01,
          -2.63289833e+01, -5.13404541e+01, -3.64993095e+01,
          -5.11343575e+01 ]
      - [ -6.70517015e+00, -1.42939816e+01, -2.26551456e+01,
          -2.40876846e+01, -4.75499535e+01, -3.16660881e+01,
          -4.83565254e+01 ]
      - [ -6.96603346e+00, -1.63595505e+01, -2.33467236e+01,
          -2.74308071e+01, -5.50713158e+01, -3.96009712e+01,
          -5.28251381e+01 ]
      - [ -7.11377478e+00, -1.84155731e+01, -2.35852222e+01,
          -2.74473763e+01, -5.29648590e+01, -3.67371025e+01,
          -5.59868355e+01 ]
      - [ -6.98555565e+00, -1.53021479e+01, -2.24096642e+01,
          -2.47139950e+01, -4.89721603e+01, -3.26358986e+01,
          -4.84186058e+01 ]
      - [ -7.07740164e+00, -1.55120420e+01, -2.38397427e+01,
          -2.63302956e+01, -5.58113632e+01, -3.47424126e+01,
          -5.14153900e+01 ]
      - [ -7.09645510e+00, -1.83895397e+01, -2.35232773e+01,
          -2.72866001e+01, -5.26962242e+01, -3.65402184e+01,
          -5.50290871e+01 ]
      - [ -7.14944410e+00, -1.82760487e+01, -2.36349716e+01,
          -2.84055252e+01, -5.46643295e+01, -4.18931351e+01,
          -5.49103203e+01 ]
      - [ -7.14514828e+00, -1.81740742e+01, -2.39053974e+01,
          -2.92329998e+01, -5.71130791e+01, -3.84094200e+01,
          -5.58399239e+01 ]
      - [ -7.07636356e+00, -1.88683014e+01, -2.58932972e+01,
          -2.68007469e+01, -5.31565781e+01, -3.63318634e+01,
          -5.51716003e+01 ]
      - [ -6.81064272e+00, -1.67330818e+01, -2.47403202e+01,
          -2.64394131e+01, -5.21128159e+01, -3.48524094e+01,
          -5.29651222e+01 ]
      - [ -6.73127317e+00, -1.58236475e+01, -2.32911243e+01,
          -2.81228561e+01, -5.42185555e+01, -3.66003609e+01,
          -5.41375580e+01 ]
      - [ -6.90211391e+00, -1.63388901e+01, -2.36278706e+01,
          -2.48504696e+01, -4.92085266e+01, -3.37259941e+01,
          -4.98661270e+01 ]
      - [ -7.08824873e+00, -1.67645760e+01, -2.46111908e+01,
          -2.65151062e+01, -5.20786209e+01, -3.57189217e+01,
          -5.56855927e+01 ]
      - [ -6.78881359e+00, -1.58987799e+01, -2.25046806e+01,
          -2.54991589e+01, -4.95858536e+01, -3.36792145e+01,
          -5.04301720e+01 ]
      - [ -7.09512901e+00, -1.64016762e+01, -2.46842461e+01,
          -2.75967846e+01, -5.44128227e+01, -3.78864365e+01,
          -5.38871536e+01 ]
      - [ -6.94100428e+00, -1.62321854e+01, -2.30733528e+01,
          -2.68826714e+01, -5.18820915e+01, -3.55005608e+01,
          -5.34467430e+01 ]
      - [ -6.97687006e+00, -1.62056961e+01, -2.35043354e+01,
          -2.73475132e+01, -5.69648819e+01, -3.78144798e+01,
          -5.27735519e+01 ]
      - [ -7.00086260e+00, -1.72248249e+01, -2.61239262e+01,
          -2.77101746e+01, -5.48558540e+01, -3.63798141e+01,
          -5.51284485e+01 ]
      - [ -6.82649612e+00, -1.62325420e+01, -2.37681007e+01,
          -2.45655594e+01, -4.92585411e+01, -3.27619057e+01,
          -4.89471130e+01 ]
      - [ -6.94169331e+00, -1.73875504e+01, -2.38075981e+01,
          -2.66737213e+01, -5.27527237e+01, -3.62521667e+01,
          -5.20178909e+01 ]
      - [ -6.96899700e+00, -1.73087387e+01, -2.46563873e+01,
          -2.53137341e+01, -5.15061989e+01, -3.45191841e+01,
          -5.03456116e+01 ]
      - [ -6.95608568e+00, -1.69036217e+01, -2.40115795e+01,
          -2.56320858e+01, -5.45026321e+01, -3.44298019e+01,
          -5.04540710e+01 ]
      - [ -6.98002148e+00, -1.64554768e+01, -2.30168877e+01,
          -2.49652557e+01, -4.89580994e+01, -3.37053871e+01,
          -5.17786942e+01 ]
      - [ -7.03178215e+00, -1.56868124e+01, -2.50104675e+01,
          -2.74442825e+01, -5.56083717e+01, -3.56697273e+01,
          -5.36821632e+01 ]
      - [ -7.13440037e+00, -1.68551617e+01, -2.64557133e+01,
          -2.64133530e+01, -5.28484268e+01, -3.55985298e+01,
          -5.62631569e+01 ]
      - [ -7.19653893e+00, -1.59457445e+01, -2.72357445e+01,
          -2.94552860e+01, -5.80866165e+01, -3.81705818e+01,
          -5.82165489e+01 ]
      - [ -7.29422092e+00, -1.95561104e+01, -2.53769760e+01,
          -2.83157043e+01, -5.68285751e+01, -3.83109436e+01,
          -5.51802101e+01 ]
      - [ -7.21217537e+00, -1.86783829e+01, -2.50675297e+01,
          -2.69635067e+01, -5.32812653e+01, -3.76543655e+01,
          -5.33742447e+01 ]
      - [ -7.11334085e+00, -1.53318529e+01, -2.52289619e+01,
          -2.76558342e+01, -5.64979324e+01, -3.65692253e+01,
          -5.41023674e+01 ]
      - [ -6.99377966e+00, -1.57705879e+01, -2.36449413e+01,
          -2.69280720e+01, -5.32396889e+01, -3.53448372e+01,
          -5.22834663e+01 ]
      - [ -7.14527369e+00, -1.60695362e+01, -2.44275169e+01,
          -2.83003960e+01, -5.65295029e+01, -3.65494041e+01,
          -5.46764908e+01 ]
      - [ -7.17907333e+00, -1.63132534e+01, -2.66966324e+01,
          -2.77509708e+01, -5.57665901e+01, -3.68330612e+01,
          -5.50896225e+01 ]
      - [ -7.10126734e+00, -1.72999268e+01, -2.48091240e+01,
          -2.80227108e+01, -5.58800049e+01, -3.76193504e+01,
          -5.44674339e+01 ]
      - [ -7.11761999e+00, -1.77694988e+01, -2.65579281e+01,
          -2.99391613e+01, -5.95615959e+01, -3.88332748e+01,
          -5.82208138e+01 ]
      - [ -7.13912582e+00, -1.91879177e+01, -2.68738251e+01,
          -2.73856430e+01, -5.45780258e+01, -3.75824738e+01,
          -5.55849113e+01 ]
      - [ -7.20324755e+00, -1.78327770e+01, -2.62348824e+01,
          -2.67773628e+01, -5.43794136e+01, -3.56958389e+01,
          -5.33427124e+01 ]
      - [ -6.95927525e+00, -2.07215233e+01, -2.31720829e+01,
          -2.53658447e+01, -5.20878410e+01, -3.57270241e+01,
          -4.96385231e+01 ]
      - [ -7.18929052e+00, -1.91516838e+01, -2.45787888e+01,
          -2.90442753e+01, -5.69256210e+01, -3.95070610e+01,
          -5.59184189e+01 ]
      - [ -7.27011633e+00, -1.82798119e+01, -2.50529270e+01,
          -2.99603996e+01, -5.77454758e+01, -3.91373863e+01,
          -5.78925743e+01 ]
      - [ -7.23746061e+00, -1.69222813e+01, -2.61837082e+01,
          -2.82166348e+01, -5.63059235e+01, -3.67585640e+01,
          -5.55093307e+01 ]
      - [ -6.95180416e+00, -1.61595020e+01, -2.34827213e+01,
          -2.73176365e+01, -5.48728714e+01, -4.19788132e+01,
          -5.27245750e+01 ]
      - [ -7.19864368e+00, -1.87866383e+01, -2.36255894e+01,
          -2.78790264e+01, -5.38516541e+01, -3.77384300e+01,
          -5.41472206e+01 ]
      - [ -6.92890835e+00, -1.67524090e+01, -2.35944653e+01,
          -2.66020203e+01, -5.25000648e+01, -3.72423668e+01,
          -5.18130722e+01 ]
      - [ -6.74064350e+00, -1.56539621e+01, -2.29538345e+01,
          -2.71281967e+01, -5.21892967e+01, -3.50673218e+01,
          -5.37865677e+01 ]
      - [ -7.02247810e+00, -1.64662666e+01, -2.41786861e+01,
          -2.65115414e+01, -5.22044945e+01, -3.55708275e+01,
          -5.22019615e+01 ]
      - [ -6.92676544e+00, -1.66922359e+01, -2.35866528e+01,
          -2.65701313e+01, -5.24507751e+01, -3.69424057e+01,
          -5.17607117e+01 ]
      - [ -7.01159096e+00, -1.73483582e+01, -2.70866070e+01,
          -2.83838749e+01, -5.61383286e+01, -3.70588722e+01,
          -5.77581940e+01 ]
      - [ -7.00636387e+00, -1.50399780e+01, -2.31751690e+01,
          -2.48712139e+01, -4.88972130e+01, -3.24097252e+01,
          -5.14868164e+01 ]
      - [ -7.00382996e+00, -1.56817169e+01, -2.46442928e+01,
          -2.69634380e+01, -5.29555817e+01, -3.51187134e+01,
          -5.33468323e+01 ]
      - [ -7.07176447e+00, -1.52511349e+01, -2.51693573e+01,
          -2.80602818e+01, -5.49456673e+01, -3.58966942e+01,
          -5.51113434e+01 ]
      - [ -6.76763153e+00, -1.53575525e+01, -2.19985275e+01,
          -2.50176277e+01, -4.94174004e+01, -3.32117119e+01,
          -4.86177063e+01 ]
      - [ -6.73403502e+00, -1.47938890e+01, -2.16122341e+01,
          -2.33967743e+01, -4.78788681e+01, -3.12686043e+01,
          -4.59109497e+01 ]
      - [ -7.04179716e+00, -1.77735367e+01, -2.31741924e+01,
          -2.63855419e+01, -5.13034859e+01, -3.53086929e+01,
          -5.18762550e+01 ]
      - [ -6.97148752e+00, -1.81467876e+01, -2.15761147e+01,
          -2.30862465e+01, -4.54174385e+01, -3.21943359e+01,
          -5.07546463e+01 ]
      - [ -7.18897343e+00, -1.59754248e+01, -2.55420227e+01,
          -2.93682785e+01, -5.80302124e+01, -4.45921822e+01,
          -5.68703079e+01 ]
      - [ -6.89592934e+00, -1.69745541e+01, -2.14170017e+01,
          -2.37992821e+01, -4.64109497e+01, -3.26436501e+01,
          -4.88866081e+01 ]
      - [ -7.22245789e+00, -1.91905499e+01, -2.69059486e+01,
          -2.86217613e+01, -5.63947029e+01, -3.82590904e+01,
          -5.83940735e+01 ]
      - [ -6.87571430e+00, -1.65098858e+01, -2.10026627e+01,
          -2.25556335e+01, -4.43833275e+01, -3.09901867e+01,
          -4.55248833e+01 ]
      - [ -6.98025036e+00, -1.48722963e+01, -2.63582592e+01,
          -2.73222790e+01, -5.45283585e+01, -3.58444901e+01,
          -5.44906006e+01 ]
      - [ -7.03784704e+00, -1.70447483e+01, -2.31722183e+01,
          -2.51090488e+01, -4.92584534e+01, -3.38169479e+01,
          -5.12755661e+01 ]
      - [ -6.88333607e+00, -1.45830250e+01, -2.33758984e+01,
          -2.46783810e+01, -4.87537231e+01, -3.21453705e+01,
          -4.98990173e+01 ]
      - [ -7.03623343e+00, -1.55247593e+01, -2.39889126e+01,
          -2.61345844e+01, -5.22995758e+01, -3.50788879e+01,
          -5.12546501e+01 ]
      - [ -6.54826498e+00, -1.49578276e+01, -2.00732288e+01,
          -2.37007446e+01, -4.67217293e+01, -3.15370331e+01,
          -4.56423721e+01 ]
      - [ -6.93805695e+00, -1.62669048e+01, -2.20478802e+01,
          -2.51199303e+01, -5.02462807e+01, -3.33808327e+01,
          -4.87272415e+01 ]
      - [ -6.79822159e+00, -1.51910524e+01, -2.37567844e+01,
          -2.54948521e+01, -5.03384171e+01, -3.46965370e+01,
          -5.06412354e+01 ]
      - [ -6.94591713e+00, -1.68729763e+01, -2.29500484e+01,
          -2.51468143e+01, -4.92388916e+01, -3.51431808e+01,
          -5.04361610e+01 ]
      - [ -6.89463711e+00, -1.55018806e+01, -2.46748009e+01,
          -2.59773159e+01, -5.14733429e+01, -3.37347069e+01,
          -5.19254532e+01 ]
      - [ -6.82097054e+00, -1.53584604e+01, -2.28996010e+01,
          -2.45571251e+01, -4.85147400e+01, -3.43746490e+01,
          -4.87856331e+01 ]
      - [ -7.00379467e+00, -1.58662825e+01, -2.35553684e+01,
          -2.51860371e+01, -4.98239746e+01, -3.52402534e+01,
          -4.99976616e+01 ]
      - [ -6.99739408e+00, -1.51533051e+01, -2.75069714e+01,
          -2.95307369e+01, -5.81693611e+01, -3.71127129e+01,
          -5.88227921e+01 ]
      - [ -6.69896221e+00, -1.42728386e+01, -2.26368580e+01,
          -2.40606384e+01, -4.75024643e+01, -3.16514874e+01,
          -4.82957993e+01 ]
      - [ -7.09931326e+00, -1.68985767e+01, -2.47158775e+01,
          -2.65854683e+01, -5.43763084e+01, -3.50904884e+01,
          -5.22431068e+01 ]
      - [ -7.10251188e+00, -1.73551846e+01, -2.38008022e+01,
          -3.00222797e+01, -5.71898308e+01, -3.87052422e+01,
          -5.73910713e+01 ]
      - [ -7.25318050e+00, -1.71856728e+01, -2.63436852e+01,
          -2.90825539e+01, -5.68284149e+01, -3.78103065e+01,
          -5.81749496e+01 ]
      - [ -6.83673477e+00, -1.88634834e+01, -2.29556980e+01,
          -2.80692329e+01, -5.37208633e+01, -3.81649437e+01,
          -5.42891464e+01 ]
      - [ -6.97617674e+00, -1.59438038e+01, -2.27784100e+01,
          -2.64061356e+01, -5.15184555e+01, -3.72655258e+01,
          -5.12164345e+01 ]
      - [ -7.02035236e+00, -1.67863731e+01, -2.54550457e+01,
          -2.74695759e+01, -5.41152420e+01, -3.60447769e+01,
          -5.45223541e+01 ]
      - [ -7.13366365e+00, -1.76231194e+01, -2.48432922e+01,
          -2.69092751e+01, -5.29793396e+01, -3.57589760e+01,
          -5.33532715e+01 ]
      - [ -7.00819731e+00, -1.65805492e+01, -2.51570263e+01,
          -2.72381363e+01, -5.34585266e+01, -3.55579262e+01,
          -5.49907761e+01 ]
      - [ -7.01975441e+00, -1.55665932e+01, -2.50558014e+01,
          -2.67371120e+01, -5.26539497e+01, -3.50737724e+01,
          -5.42437325e+01 ]
      - [ -6.88986397e+00, -1.63861256e+01, -2.31524067e+01,
          -2.72015476e+01, -5.35399246e+01, -3.64436111e+01,
          -5.24300919e+01 ]
      - [ -6.93229437e+00, -1.57381363e+01, -2.53308563e+01,
          -2.78104057e+01, -5.49309425e+01, -3.57658424e+01,
          -5.45834694e+01 ]
      - [ -7.13571119e+00, -1.81898384e+01, -2.62128010e+01,
          -2.70892143e+01, -5.43227501e+01, -3.62941971e+01,
          -5.39271393e+01 ]
      - [ -7.18471670e+00, -1.69229813e+01, -2.67123241e+01,
          -2.80348263e+01, -5.55481415e+01, -3.64968071e+01,
          -5.61140556e+01 ]
      - [ -6.99560547e+00, -1.58571463e+01, -2.51771374e+01,
          -2.75715237e+01, -5.40866966e+01, -3.55242615e+01,
          -5.46481094e+01 ]
      - [ -6.99239063e+00, -1.59968510e+01, -2.40875740e+01,
          -2.64447765e+01, -5.17313614e+01, -3.45127296e+01,
          -5.33204613e+01 ]
      - [ -7.15321064e+00, -1.67425709e+01, -2.44922047e+01,
          -3.05145550e+01, -5.81872520e+01, -3.98859749e+01,
          -5.86416321e+01 ]
      - [ -7.03258896e+00, -1.61710281e+01, -2.55245228e+01,
          -2.72706223e+01, -5.41905365e+01, -3.60870171e+01,
          -5.38849754e+01 ]
      - [ -6.99124575e+00, -1.56080008e+01, -2.51275883e+01,
          -2.70592136e+01, -5.41716957e+01, -3.48749466e+01,
          -5.32224007e+01 ]
      - [ -7.02879286e+00, -1.80594769e+01, -2.40172825e+01,
          -2.82737122e+01, -5.45372849e+01, -4.19553413e+01,
          -5.51987190e+01 ]
      - [ -6.91414356e+00, -1.61559734e+01, -2.50638161e+01,
          -2.49961700e+01, -5.12088242e+01, -3.33010979e+01,
          -5.00754776e+01 ]
      - [ -6.87706566e+00, -1.56626463e+01, -2.39600067e+01,
          -2.68981171e+01, -5.23560219e+01, -3.48197174e+01,
          -5.37678604e+01 ]
      - [ -6.99446630e+00, -1.52453547e+01, -2.44689388e+01,
          -2.70442123e+01, -5.28098297e+01, -3.46675491e+01,
          -5.48116760e+01 ]
      - [ -7.00455141e+00, -1.51479120e+01, -2.28708096e+01,
          -2.46604137e+01, -4.84511909e+01, -3.22399750e+01,
          -4.99331741e+01 ]
      - [ -7.23178196e+00, -1.87427883e+01, -2.49619923e+01,
          -2.84284840e+01, -5.77517624e+01, -4.00312691e+01,
          -5.51263390e+01 ]
      - [ -6.92120266e+00, -1.77379875e+01, -2.44515915e+01,
          -2.66076202e+01, -5.22966042e+01, -3.60814209e+01,
          -5.27864609e+01 ]
      - [ -7.00637865e+00, -1.63246326e+01, -2.49100990e+01,
          -2.66975555e+01, -5.28531227e+01, -3.56254005e+01,
          -5.28428383e+01 ]
      - [ -6.93287754e+00, -1.69591255e+01, -2.33046455e+01,
          -2.56456280e+01, -5.01821785e+01, -3.44031944e+01,
          -5.11996498e+01 ]
      - [ -7.08150196e+00, -1.65948830e+01, -2.21937141e+01,
          -2.63972321e+01, -5.07700577e+01, -3.58075371e+01,
          -5.16640015e+01 ]
      - [ -7.02494669e+00, -1.56499834e+01, -2.31253910e+01,
          -2.57707329e+01, -5.05962296e+01, -3.36949959e+01,
          -5.05363045e+01 ]
      - [ -7.14089632e+00, -1.73402634e+01, -2.51919289e+01,
          -2.90590725e+01, -5.80428581e+01, -3.80682068e+01,
          -5.61968803e+01 ]
      - [ -7.19821167e+00, -1.88300800e+01, -2.35982399e+01,
          -2.79176731e+01, -5.38775558e+01, -3.77411842e+01,
          -5.42265472e+01 ]
      - [ -7.03658056e+00, -1.69227581e+01, -2.38106499e+01,
          -2.86545963e+01, -5.50238495e+01, -3.71544075e+01,
          -5.56026459e+01 ]
      - [ -6.99626684e+00, -1.54087276e+01, -2.22989902e+01,
          -2.68963451e+01, -5.19311104e+01, -3.66064987e+01,
          -5.17639656e+01 ]
      - [ -6.97541428e+00, -1.62203083e+01, -2.34792442e+01,
          -2.73841095e+01, -5.58048172e+01, -3.81412163e+01,
          -5.28170547e+01 ]
      - [ -6.89628792e+00, -1.66269932e+01, -2.23188171e+01,
          -2.60718231e+01, -5.05044861e+01, -3.72579498e+01,
          -5.07536812e+01 ]
      - [ -7.09641743e+00, -1.84114857e+01, -2.35382290e+01,
          -2.73288021e+01, -5.27641678e+01, -3.66189194e+01,
          -5.55630760e+01 ]
      - [ -7.02489614e+00, -1.63937321e+01, -2.26714287e+01,
          -2.69813042e+01, -5.33040543e+01, -3.55247993e+01,
          -5.18333969e+01 ]
      - [ -7.10470915e+00, -1.63067627e+01, -2.31446991e+01,
          -2.64611149e+01, -5.68857422e+01, -3.46273308e+01,
          -5.12640266e+01 ]
      - [ -6.53057623e+00, -1.37962875e+01, -2.04480095e+01,
          -2.14321632e+01, -4.24365997e+01, -2.84350300e+01,
          -4.34292183e+01 ]
      - [ -7.07582617e+00, -1.55543776e+01, -2.48369274e+01,
          -2.80641003e+01, -5.81198540e+01, -3.66615219e+01,
          -5.45149841e+01 ]
      - [ -6.84327126e+00, -1.54693842e+01, -2.13931046e+01,
          -2.40110989e+01, -4.78382797e+01, -3.18114529e+01,
          -4.67688789e+01 ]
      - [ -7.17045927e+00, -1.99445763e+01, -2.48932495e+01,
          -2.97453518e+01, -5.71997299e+01, -3.97457695e+01,
          -5.77850456e+01 ]
      - [ -7.07282972e+00, -1.86045017e+01, -2.30370941e+01,
          -2.69905300e+01, -5.20050659e+01, -3.67320938e+01,
          -5.52730789e+01 ]
      - [ -7.00928068e+00, -1.57844753e+01, -2.67059441e+01,
          -2.87739697e+01, -5.65999603e+01, -3.66792107e+01,
          -5.74362679e+01 ]
      - [ -6.79227591e+00, -1.59552326e+01, -2.35394077e+01,
          -2.67737312e+01, -5.20003662e+01, -3.75246658e+01,
          -5.29475136e+01 ]
      - [ -6.90825510e+00, -1.54870491e+01, -2.36829338e+01,
          -2.64995575e+01, -5.27516212e+01, -3.78713837e+01,
          -5.16424370e+01 ]
      - [ -6.30672455e+00, -1.40026369e+01, -2.16604481e+01,
          -2.46123066e+01, -4.79651680e+01, -3.16503201e+01,
          -4.82715759e+01 ]
      - [ -7.02307129e+00, -1.62406025e+01, -2.43225994e+01,
          -2.74240742e+01, -5.47415810e+01, -3.63102150e+01,
          -5.33260498e+01 ]
      - [ -6.77968788e+00, -1.52138062e+01, -2.42502747e+01,
          -2.69515533e+01, -5.30443230e+01, -3.56324463e+01,
          -5.27866058e+01 ]
      - [ -6.87304020e+00, -1.54630919e+01, -2.82543793e+01,
          -2.84158344e+01, -5.67510490e+01, -3.65485039e+01,
          -6.09742317e+01 ]
      - [ -6.85178471e+00, -1.55514250e+01, -2.43086720e+01,
          -2.99243317e+01, -5.71731339e+01, -3.77139015e+01,
          -5.77702904e+01 ]
      - [ -6.99971104e+00, -1.69953003e+01, -2.57549248e+01,
          -2.69857311e+01, -5.36219788e+01, -3.57200394e+01,
          -5.37988434e+01 ]
      - [ -6.83342314e+00, -1.70436306e+01, -2.29815464e+01,
          -2.60588894e+01, -5.05848923e+01, -3.45807877e+01,
          -5.28117332e+01 ]
      - [ -6.80056572e+00, -1.53988552e+01, -2.38513069e+01,
          -2.60781975e+01, -5.16847267e+01, -3.47500038e+01,
          -5.12051582e+01 ]
      - [ -6.66302633e+00, -1.60609913e+01, -2.18843708e+01,
          -2.46489658e+01, -4.79419250e+01, -3.39488716e+01,
          -4.94013977e+01 ]
      - [ -6.87051392e+00, -1.52095671e+01, -2.54238567e+01,
          -2.67104855e+01, -5.57886581e+01, -3.50954018e+01,
          -5.27788696e+01 ]
      - [ -7.04937077e+00, -1.78150749e+01, -2.47998600e+01,
          -2.96553040e+01, -5.73689308e+01, -3.85972672e+01,
          -5.71205254e+01 ]
      - [ -6.93878746e+00, -1.63392315e+01, -2.61306210e+01,
          -2.91642742e+01, -5.68117256e+01, -3.73503914e+01,
          -6.25773735e+01 ]
      - [ -6.59899473e+00, -1.43787584e+01, -2.39716949e+01,
          -2.63763371e+01, -5.19850235e+01, -3.38384399e+01,
          -5.18220482e+01 ]
      - [ -6.73593283e+00, -1.59060335e+01, -2.57795525e+01,
          -2.60602894e+01, -5.22304230e+01, -3.40916176e+01,
          -5.24462547e+01 ]
      - [ -6.89408112e+00, -1.70490513e+01, -2.61402950e+01,
          -2.60053329e+01, -5.21362801e+01, -3.46468811e+01,
          -5.31828651e+01 ]
      - [ -6.69309616e+00, -1.42958746e+01, -2.37837067e+01,
          -2.56681023e+01, -5.36910553e+01, -3.38656921e+01,
          -5.03946915e+01 ]
      - [ -6.52899742e+00, -1.38951445e+01, -2.27840443e+01,
          -2.53830013e+01, -4.94769936e+01, -3.23361816e+01,
          -5.14049263e+01 ]
      - [ -6.86718607e+00, -1.51910419e+01, -2.54052410e+01,
          -2.66865463e+01, -5.64779205e+01, -3.50657768e+01,
          -5.27327194e+01 ]
      - [ -6.77799416e+00, -1.63970814e+01, -2.37634296e+01,
          -2.53222389e+01, -5.09876595e+01, -3.39144135e+01,
          -4.99210472e+01 ]
      - [ -6.79442883e+00, -1.60217133e+01, -2.37334099e+01,
          -2.62862148e+01, -5.13256302e+01, -3.43111038e+01,
          -5.27240753e+01 ]
      - [ -6.91833353e+00, -1.58695097e+01, -2.82493382e+01,
          -2.68531895e+01, -5.45104599e+01, -3.51803398e+01,
          -5.52320671e+01 ]
      - [ -6.86860132e+00, -1.57706280e+01, -2.50662632e+01,
          -2.57732754e+01, -5.14497566e+01, -3.39772148e+01,
          -5.16492462e+01 ]
      - [ -6.85131788e+00, -1.75226860e+01, -2.31073380e+01,
          -2.77352428e+01, -5.33060989e+01, -3.65718040e+01,
          -5.38328896e+01 ]
      - [ -6.60962009e+00, -1.41411953e+01, -2.35100269e+01,
          -2.35039711e+01, -4.70396881e+01, -3.14493179e+01,
          -4.84538078e+01 ]
      - [ -6.72846317e+00, -1.49905462e+01, -2.22994270e+01,
          -2.45175285e+01, -4.85912971e+01, -3.26174316e+01,
          -4.80794868e+01 ]
      - [ -6.81055880e+00, -1.53119249e+01, -2.24334583e+01,
          -2.51987076e+01, -4.95595856e+01, -3.38228416e+01,
          -4.92197952e+01 ]
      - [ -6.93897247e+00, -1.61774788e+01, -2.38267155e+01,
          -2.65553551e+01, -5.17475739e+01, -3.47356453e+01,
          -5.47705002e+01 ]
      - [ -6.83203888e+00, -1.66890106e+01, -2.29522324e+01,
          -2.71211281e+01, -5.35838737e+01, -3.66394577e+01,
          -5.21875343e+01 ]
      - [ -6.65454435e+00, -1.60035858e+01, -2.36249790e+01,
          -2.52013130e+01, -4.96157570e+01, -3.32728195e+01,
          -5.25926018e+01 ]
      - [ -6.90571356e+00, -1.60922394e+01, -2.36395721e+01,
          -2.52014465e+01, -4.96658478e+01, -3.32530861e+01,
          -5.08601685e+01 ]
      - [ -7.04891825e+00, -1.58339043e+01, -2.51169167e+01,
          -2.91639404e+01, -5.74262314e+01, -3.99015617e+01,
          -5.63604279e+01 ]
      - [ -6.73597050e+00, -1.54152479e+01, -2.34142036e+01,
          -2.53587093e+01, -5.01438751e+01, -3.35307617e+01,
          -5.00445328e+01 ]
      - [ -6.79612684e+00, -1.48748150e+01, -2.28291817e+01,
          -2.47251396e+01, -4.85430412e+01, -3.33628578e+01,
          -4.97762108e+01 ]
      - [ -6.69630671e+00, -1.49564037e+01, -2.47903309e+01,
          -2.71129589e+01, -5.90265312e+01, -3.56380768e+01,
          -5.30646057e+01 ]
      - [ -6.74860001e+00, -1.53629799e+01, -2.28775425e+01,
          -2.56629124e+01, -5.02055473e+01, -3.33526421e+01,
          -5.03668289e+01 ]
      - [ -6.83450937e+00, -1.77005444e+01, -2.34011021e+01,
          -2.62227230e+01, -5.23758087e+01, -3.54628181e+01,
          -5.10700645e+01 ]
      - [ -6.87685013e+00, -1.85420017e+01, -2.25865936e+01,
          -2.80631199e+01, -5.59923859e+01, -3.80302391e+01,
          -5.33907204e+01 ]
      - [ -6.86103296e+00, -1.54344292e+01, -2.40571270e+01,
          -2.94668102e+01, -5.71111488e+01, -3.81947365e+01,
