%YAML:1.0
---
opencv_ml_svm:
   format: 3
   svmType: C_SVC
   kernel:
      type: RBF
      gamma: 2.9999999999999999e-02
   C: 25.
   term_criteria: { epsilon:1.1920928955078125e-07, iterations:1000 }
   var_count: 7
   class_count: 8
   class_labels: !!opencv-matrix
      rows: 8
      cols: 1
      dt: i
      data: [ 0, 2, 4, 10, 11, 12, 13, 14 ]
   sv_total: 1269
   support_vectors:
      - [ -5.79444122e+00, -1.58167496e+01, -2.30733318e+01,
          -2.21578274e+01, -4.53029861e+01, -3.24597549e+01,
          -4.49863014e+01 ]
      - [ -5.82389116e+00, -1.61168957e+01, -2.25345936e+01,
          -2.21718979e+01, -4.45326347e+01, -3.02359276e+01,
          -4.66295166e+01 ]
      - [ -6.16091776e+00, -1.73152122e+01, -2.46215725e+01,
          -2.50546856e+01, -4.98928185e+01, -3.37723045e+01,
          -5.61243172e+01 ]
      - [ -6.08623648e+00, -1.76265945e+01, -2.87911797e+01,
          -2.33559437e+01, -4.94399605e+01, -3.22735672e+01,
          -5.13685646e+01 ]
      - [ -5.61684132e+00, -1.75720825e+01, -2.11523838e+01,
          -2.33923969e+01, -4.56905441e+01, -3.30112267e+01,
          -4.71606140e+01 ]
      - [ -6.36193752e+00, -1.65041008e+01, -2.47877178e+01,
          -2.50745430e+01, -5.00070496e+01, -3.33443642e+01,
          -5.29532852e+01 ]
      - [ -6.04258442e+00, -1.68563290e+01, -2.59619923e+01,
          -2.40224609e+01, -5.18752632e+01, -3.74726715e+01,
          -4.90163269e+01 ]
      - [ -5.93854284e+00, -1.64724903e+01, -2.33685322e+01,
          -2.32414970e+01, -4.66086044e+01, -3.18010902e+01,
          -4.76202240e+01 ]
      - [ -5.82137918e+00, -1.83401661e+01, -2.27855167e+01,
          -2.74293766e+01, -5.28088036e+01, -3.81882477e+01,
          -5.29711075e+01 ]
      - [ -5.96258736e+00, -1.72094383e+01, -2.90989037e+01,
          -2.25136929e+01, -4.88520126e+01, -3.11189842e+01,
          -4.85315933e+01 ]
      - [ -5.94238997e+00, -1.51078281e+01, -2.30961876e+01,
          -2.24790516e+01, -4.72244377e+01, -3.08632774e+01,
          -4.52767372e+01 ]
      - [ -6.30510569e+00, -1.81255856e+01, -2.53870697e+01,
          -2.96733036e+01, -5.81400185e+01, -3.87510567e+01,
          -5.72869034e+01 ]
      - [ -6.55177450e+00, -1.81803055e+01, -2.59772606e+01,
          -3.01201305e+01, -5.81717224e+01, -3.92136612e+01,
          -6.07455559e+01 ]
      - [ -6.69820404e+00, -1.78457642e+01, -2.81347923e+01,
          -2.50626850e+01, -5.17275620e+01, -3.42891159e+01,
          -5.27055473e+01 ]
      - [ -6.27417660e+00, -1.67301197e+01, -2.37125664e+01,
          -2.46563034e+01, -4.88934021e+01, -3.30611000e+01,
          -4.99921875e+01 ]
      - [ -6.41336966e+00, -1.91029739e+01, -2.57013817e+01,
          -2.59055176e+01, -5.18945236e+01, -3.59642944e+01,
          -5.22945061e+01 ]
      - [ -6.42003250e+00, -1.93227539e+01, -2.56210003e+01,
          -2.60312347e+01, -5.20298386e+01, -3.60679169e+01,
          -5.24732704e+01 ]
      - [ -5.72490835e+00, -1.74868298e+01, -2.30480576e+01,
          -2.07920513e+01, -4.41083603e+01, -2.97015648e+01,
          -4.27437172e+01 ]
      - [ -6.30358219e+00, -1.80861340e+01, -2.60300903e+01,
          -2.99371548e+01, -5.99010468e+01, -3.98347740e+01,
          -5.79303970e+01 ]
      - [ -6.25474167e+00, -1.88027744e+01, -2.46427860e+01,
          -2.58810711e+01, -5.23967896e+01, -3.64829483e+01,
          -5.11854858e+01 ]
      - [ -6.02785826e+00, -1.69756508e+01, -2.24940510e+01,
          -2.47758789e+01, -4.90864449e+01, -3.36809349e+01,
          -4.85606766e+01 ]
      - [ -6.43450546e+00, -1.80954647e+01, -2.54994488e+01,
          -2.68513107e+01, -5.46087646e+01, -3.59330788e+01,
          -5.30482750e+01 ]
      - [ -6.53134441e+00, -1.90003014e+01, -2.79217243e+01,
          -2.92638245e+01, -5.89081459e+01, -3.90227051e+01,
          -5.79216995e+01 ]
      - [ -6.16593027e+00, -2.09887791e+01, -2.30017262e+01,
          -2.41235027e+01, -4.88070602e+01, -3.46381264e+01,
          -4.77422867e+01 ]
      - [ -6.43739843e+00, -1.82246323e+01, -2.58026428e+01,
          -2.68394375e+01, -5.67186966e+01, -3.59792061e+01,
          -5.31608810e+01 ]
      - [ -6.41511059e+00, -1.90423069e+01, -2.59327698e+01,
          -2.59233532e+01, -5.19594002e+01, -3.59913673e+01,
          -5.26707420e+01 ]
      - [ -6.34209061e+00, -2.15621490e+01, -2.70588341e+01,
          -2.58567181e+01, -5.23145485e+01, -3.67407913e+01,
          -5.68976288e+01 ]
      - [ -6.33617401e+00, -1.67161579e+01, -2.49681778e+01,
          -2.51760654e+01, -5.13676682e+01, -3.35413208e+01,
          -5.03045311e+01 ]
      - [ -6.33744001e+00, -1.68688774e+01, -2.43797798e+01,
          -2.50352592e+01, -5.05492172e+01, -3.34775391e+01,
          -4.98539238e+01 ]
      - [ -6.76702929e+00, -1.96566448e+01, -2.69755688e+01,
          -2.86829224e+01, -5.73632927e+01, -3.85160065e+01,
          -5.66127815e+01 ]
      - [ -6.00733709e+00, -1.86491299e+01, -2.51741104e+01,
          -2.57111816e+01, -5.11549606e+01, -3.50805588e+01,
          -5.41987495e+01 ]
      - [ -5.99613047e+00, -1.61097679e+01, -2.41704388e+01,
          -2.40973110e+01, -5.00410500e+01, -3.21656380e+01,
          -4.82447624e+01 ]
      - [ -6.17232943e+00, -1.78821869e+01, -2.37985420e+01,
          -2.47910805e+01, -4.98324127e+01, -3.49391136e+01,
          -4.92131386e+01 ]
      - [ -6.99787664e+00, -2.00757484e+01, -2.74066868e+01,
          -2.74466591e+01, -5.52502556e+01, -3.82373123e+01,
          -5.51912956e+01 ]
      - [ -6.44963741e+00, -2.00979996e+01, -2.65379124e+01,
          -2.70503635e+01, -5.41912041e+01, -3.75469017e+01,
          -5.41909485e+01 ]
      - [ -6.23652840e+00, -2.00512695e+01, -2.68613701e+01,
          -3.04709778e+01, -5.97818260e+01, -4.06922493e+01,
          -5.92982559e+01 ]
      - [ -6.51835060e+00, -1.74056759e+01, -2.65914059e+01,
          -2.64850674e+01, -5.30528984e+01, -3.79114342e+01,
          -5.44515152e+01 ]
      - [ -6.43439865e+00, -1.85299873e+01, -2.55859928e+01,
          -2.33440208e+01, -4.82595329e+01, -3.27265091e+01,
          -4.80695992e+01 ]
      - [ -6.49365425e+00, -1.97536602e+01, -2.55916462e+01,
          -2.47406349e+01, -4.99652290e+01, -3.61823273e+01,
          -5.10089264e+01 ]
      - [ -6.40185308e+00, -2.17663345e+01, -2.62790451e+01,
          -2.58203754e+01, -5.28561554e+01, -3.67068977e+01,
          -5.19450073e+01 ]
      - [ -6.41754150e+00, -1.71830597e+01, -2.54977512e+01,
          -2.55259094e+01, -5.24605064e+01, -3.41183777e+01,
          -5.10676689e+01 ]
      - [ -6.37252045e+00, -1.91352158e+01, -2.53726254e+01,
          -2.53571758e+01, -5.08106956e+01, -3.71923943e+01,
          -5.16308556e+01 ]
      - [ -6.83424377e+00, -2.09299622e+01, -2.89558792e+01,
          -2.90347977e+01, -5.83653145e+01, -3.95057755e+01,
          -5.83883705e+01 ]
      - [ -6.58603573e+00, -1.89064598e+01, -2.63092709e+01,
          -2.72088795e+01, -5.39940414e+01, -3.71586151e+01,
          -5.54575577e+01 ]
      - [ -6.41046000e+00, -1.68503323e+01, -2.61498413e+01,
          -2.49297390e+01, -5.17375069e+01, -3.35268593e+01,
          -5.05107765e+01 ]
      - [ -6.57888174e+00, -2.28757439e+01, -2.65233765e+01,
          -2.61689682e+01, -5.34705734e+01, -3.80309753e+01,
          -5.25951958e+01 ]
      - [ -6.71236801e+00, -2.03742542e+01, -2.70252457e+01,
          -2.59210968e+01, -5.25557480e+01, -3.68176460e+01,
          -5.30379486e+01 ]
      - [ -6.55718374e+00, -1.63303547e+01, -2.54262161e+01,
          -2.47434978e+01, -5.05809441e+01, -3.37907410e+01,
          -4.99538536e+01 ]
      - [ -6.76809120e+00, -1.93092728e+01, -2.67205620e+01,
          -2.85728397e+01, -5.84529953e+01, -3.82407837e+01,
          -5.62253151e+01 ]
      - [ -6.46990442e+00, -1.98129921e+01, -2.89474316e+01,
          -2.85058994e+01, -5.76211891e+01, -3.85389633e+01,
          -5.75403519e+01 ]
      - [ -6.65299034e+00, -1.76003494e+01, -2.58846130e+01,
          -2.52340069e+01, -5.08597336e+01, -3.50521202e+01,
          -5.18355141e+01 ]
      - [ -6.73482275e+00, -2.14712315e+01, -2.76171837e+01,
          -2.69169769e+01, -5.43361092e+01, -3.79584770e+01,
          -5.48533478e+01 ]
      - [ -6.56174898e+00, -1.98997746e+01, -2.59945107e+01,
          -2.84809208e+01, -5.57527733e+01, -3.85137215e+01,
          -5.70777397e+01 ]
      - [ -6.44718695e+00, -1.78866444e+01, -2.47594681e+01,
          -2.60555859e+01, -5.22424316e+01, -3.86890945e+01,
          -5.15812416e+01 ]
      - [ -6.78064775e+00, -1.85200977e+01, -2.83323593e+01,
          -3.04796524e+01, -6.10006866e+01, -3.97939987e+01,
          -5.99425354e+01 ]
      - [ -6.63585377e+00, -2.08208561e+01, -2.59865704e+01,
          -2.54664211e+01, -5.65219650e+01, -3.68309517e+01,
          -5.11929283e+01 ]
      - [ -6.68051863e+00, -1.97708530e+01, -2.77044792e+01,
          -2.66930046e+01, -5.45324249e+01, -3.97638741e+01,
          -5.40543747e+01 ]
      - [ -6.71480083e+00, -1.89437294e+01, -2.64613972e+01,
          -2.69628868e+01, -5.36776505e+01, -3.64796562e+01,
          -5.63018913e+01 ]
      - [ -6.31929588e+00, -1.60984058e+01, -2.41775360e+01,
          -2.39564667e+01, -4.94416275e+01, -3.31271935e+01,
          -4.80536842e+01 ]
      - [ -6.44655275e+00, -1.96536427e+01, -2.86995430e+01,
          -2.65520515e+01, -5.52941437e+01, -3.77236671e+01,
          -5.42345734e+01 ]
      - [ -6.21148920e+00, -1.65115719e+01, -2.40286140e+01,
          -2.41369534e+01, -4.92710724e+01, -3.35023956e+01,
          -4.82848625e+01 ]
      - [ -6.46600580e+00, -2.32646236e+01, -2.68704834e+01,
          -2.66560936e+01, -5.38030624e+01, -3.83091774e+01,
          -5.37314148e+01 ]
      - [ -6.72623682e+00, -2.17842960e+01, -2.67229385e+01,
          -2.79174252e+01, -5.57853546e+01, -3.94488754e+01,
          -5.54411201e+01 ]
      - [ -6.57381487e+00, -1.83458862e+01, -2.49636059e+01,
          -2.49612541e+01, -4.99602470e+01, -3.46525688e+01,
          -5.12496681e+01 ]
      - [ -6.68681431e+00, -1.84285965e+01, -2.90879173e+01,
          -2.52953224e+01, -5.41357994e+01, -3.45784798e+01,
          -5.25057755e+01 ]
      - [ -6.41162205e+00, -1.84769535e+01, -2.47707710e+01,
          -2.41601028e+01, -5.20717735e+01, -3.55490036e+01,
          -4.86260490e+01 ]
      - [ -6.71300697e+00, -1.94187222e+01, -3.16511726e+01,
          -2.61895046e+01, -5.52371140e+01, -3.91355972e+01,
          -5.58562813e+01 ]
      - [ -7.02747917e+00, -2.04437065e+01, -2.97516460e+01,
          -3.01987057e+01, -6.03396568e+01, -4.17714081e+01,
          -6.08064690e+01 ]
      - [ -7.08964777e+00, -2.18256302e+01, -2.75016155e+01,
          -2.68989697e+01, -5.50100098e+01, -3.82686768e+01,
          -5.41875000e+01 ]
      - [ -6.57618141e+00, -1.84217987e+01, -2.48543358e+01,
          -2.50028057e+01, -4.99616928e+01, -3.47326279e+01,
          -5.13478775e+01 ]
      - [ -6.70055056e+00, -1.78970375e+01, -2.84330063e+01,
          -2.50428066e+01, -5.18382416e+01, -3.43025284e+01,
          -5.28903694e+01 ]
      - [ -6.51149082e+00, -1.86697636e+01, -2.57646790e+01,
          -2.48622360e+01, -5.08053970e+01, -3.50277100e+01,
          -5.03426056e+01 ]
      - [ -7.20974445e+00, -1.90522804e+01, -2.68425198e+01,
          -2.98562832e+01, -5.83611183e+01, -3.93827629e+01,
          -5.88655853e+01 ]
      - [ -6.02623320e+00, -1.61980228e+01, -2.33426437e+01,
          -2.25942516e+01, -4.56454239e+01, -3.10063305e+01,
          -4.65030403e+01 ]
      - [ -6.91781187e+00, -1.99246979e+01, -2.81200657e+01,
          -2.77474251e+01, -5.58428001e+01, -3.77662430e+01,
          -5.63244591e+01 ]
      - [ -6.33914137e+00, -2.12249603e+01, -2.67795982e+01,
          -2.57907772e+01, -5.20837059e+01, -3.66111412e+01,
          -5.41639481e+01 ]
      - [ -6.55275679e+00, -1.87134647e+01, -2.66574764e+01,
          -2.73845787e+01, -5.64282303e+01, -3.72528114e+01,
          -5.44144363e+01 ]
      - [ -6.27396250e+00, -1.76875610e+01, -2.40393639e+01,
          -2.36948605e+01, -4.76890411e+01, -3.25387688e+01,
          -4.83091011e+01 ]
      - [ -6.60544491e+00, -1.76887798e+01, -2.61630211e+01,
          -2.59483967e+01, -5.23241615e+01, -3.50472145e+01,
          -5.23786812e+01 ]
      - [ -6.04536152e+00, -1.60597782e+01, -2.51125393e+01,
          -2.32289085e+01, -4.75190392e+01, -3.19120598e+01,
          -4.81741943e+01 ]
      - [ -6.54521370e+00, -1.87053165e+01, -2.65613041e+01,
          -2.54221153e+01, -5.19902229e+01, -3.49341278e+01,
          -5.16035423e+01 ]
      - [ -6.45503235e+00, -1.86382656e+01, -2.59239445e+01,
          -2.44795609e+01, -5.12434425e+01, -3.41744919e+01,
          -4.97037964e+01 ]
      - [ -6.50465059e+00, -1.79839935e+01, -2.69397087e+01,
          -2.37701359e+01, -4.92015457e+01, -3.28021851e+01,
          -5.01015549e+01 ]
      - [ -6.73612595e+00, -1.75254230e+01, -2.95826206e+01,
          -2.72617741e+01, -5.56851349e+01, -3.63808327e+01,
          -5.87165451e+01 ]
      - [ -6.54925966e+00, -1.66372299e+01, -2.52473011e+01,
          -2.48215237e+01, -5.15905685e+01, -3.38667564e+01,
          -4.98717537e+01 ]
      - [ -6.29996967e+00, -1.79025211e+01, -2.61004391e+01,
          -3.06120472e+01, -5.93236427e+01, -4.02243423e+01,
          -5.93062325e+01 ]
      - [ -6.61128235e+00, -1.87107563e+01, -2.54305801e+01,
          -2.48504314e+01, -4.99928741e+01, -3.42288933e+01,
          -5.27689247e+01 ]
      - [ -6.38811779e+00, -2.11189804e+01, -2.50713596e+01,
          -2.36954842e+01, -4.81226425e+01, -3.42961044e+01,
          -4.93188362e+01 ]
      - [ -6.56209421e+00, -1.78995438e+01, -2.57796135e+01,
          -2.68982315e+01, -5.34837761e+01, -3.66578293e+01,
          -5.37087746e+01 ]
      - [ -6.51015568e+00, -1.77489338e+01, -2.82119446e+01,
          -2.64611301e+01, -5.39777489e+01, -3.55899200e+01,
          -5.43956032e+01 ]
      - [ -6.45852423e+00, -1.84947433e+01, -2.70218620e+01,
          -3.03751659e+01, -5.91930008e+01, -4.01534920e+01,
          -5.98485641e+01 ]
      - [ -6.70065451e+00, -2.00279369e+01, -2.64689407e+01,
          -2.51737709e+01, -5.13038826e+01, -3.77078781e+01,
          -5.13826141e+01 ]
      - [ -6.79481030e+00, -2.00768261e+01, -2.94212818e+01,
          -2.81963673e+01, -5.71143723e+01, -3.84455757e+01,
          -5.78195839e+01 ]
      - [ -6.53500080e+00, -1.78922825e+01, -2.42245159e+01,
          -2.48030300e+01, -4.98470650e+01, -3.38315125e+01,
          -4.95293388e+01 ]
      - [ -7.08923817e+00, -2.09769230e+01, -2.78271160e+01,
          -2.78037128e+01, -5.73646278e+01, -3.83693962e+01,
          -5.56345978e+01 ]
      - [ -6.82008219e+00, -1.91466637e+01, -2.75228901e+01,
          -2.74589977e+01, -5.49846306e+01, -3.71412659e+01,
          -5.63012543e+01 ]
      - [ -6.79252148e+00, -1.97664967e+01, -2.88855705e+01,
          -2.86697388e+01, -5.77807426e+01, -3.89300537e+01,
          -5.78075523e+01 ]
      - [ -6.54794216e+00, -1.88814011e+01, -2.72711506e+01,
          -2.33479824e+01, -4.90891876e+01, -3.30051537e+01,
          -4.89314461e+01 ]
      - [ -6.69161987e+00, -1.80671101e+01, -2.80459499e+01,
          -2.59189415e+01, -5.36239891e+01, -3.50115814e+01,
          -5.30357819e+01 ]
      - [ -6.65878391e+00, -1.98971081e+01, -2.70782166e+01,
          -2.46664886e+01, -5.13783607e+01, -3.46220474e+01,
          -5.06420784e+01 ]
      - [ -6.64108610e+00, -1.81448669e+01, -2.71028347e+01,
          -2.72108727e+01, -5.50537148e+01, -3.68940392e+01,
          -5.45139771e+01 ]
      - [ -6.44678307e+00, -1.88301277e+01, -2.57075462e+01,
          -2.47232571e+01, -5.00259933e+01, -3.41482468e+01,
          -5.08541107e+01 ]
      - [ -6.66477346e+00, -1.71855030e+01, -2.58288765e+01,
          -2.70016460e+01, -5.53279648e+01, -3.60876846e+01,
          -5.34279709e+01 ]
      - [ -6.83990002e+00, -1.94366055e+01, -2.77708778e+01,
          -2.85824947e+01, -5.76972351e+01, -3.83877296e+01,
          -5.68423157e+01 ]
      - [ -6.71138954e+00, -1.99741192e+01, -3.01295395e+01,
          -2.80074406e+01, -5.82405128e+01, -3.81075058e+01,
          -5.71271553e+01 ]
      - [ -6.89687967e+00, -1.82661877e+01, -2.67707977e+01,
          -2.72204952e+01, -5.42479706e+01, -3.63545303e+01,
          -5.56090965e+01 ]
      - [ -6.88803101e+00, -2.03083172e+01, -2.74630394e+01,
          -2.69614887e+01, -5.75435181e+01, -3.71820374e+01,
          -5.41743431e+01 ]
      - [ -6.46290302e+00, -2.40540276e+01, -2.77488823e+01,
          -2.68056412e+01, -5.57540970e+01, -3.88328476e+01,
          -5.41008987e+01 ]
      - [ -6.66026545e+00, -1.82437859e+01, -2.58318768e+01,
          -2.71506233e+01, -5.37500763e+01, -3.64063644e+01,
          -5.44602928e+01 ]
      - [ -6.60521746e+00, -2.07207279e+01, -2.76545258e+01,
          -2.60077763e+01, -5.28392715e+01, -3.64128380e+01,
          -5.64805641e+01 ]
      - [ -6.91579580e+00, -1.91645203e+01, -2.85870342e+01,
          -2.90099964e+01, -6.07966843e+01, -3.93181496e+01,
          -5.78097801e+01 ]
      - [ -6.59270382e+00, -1.84776249e+01, -2.58910732e+01,
          -2.39114418e+01, -4.88128510e+01, -3.31568031e+01,
          -5.28620148e+01 ]
      - [ -7.09508801e+00, -1.86482964e+01, -2.76362667e+01,
          -2.81966763e+01, -5.61215477e+01, -3.75389824e+01,
          -5.81604042e+01 ]
      - [ -6.60549068e+00, -1.75104084e+01, -2.52165794e+01,
          -2.49517689e+01, -5.14620018e+01, -3.40350151e+01,
          -5.00656700e+01 ]
      - [ -6.66948605e+00, -1.70477085e+01, -2.57145977e+01,
          -2.64332657e+01, -5.31212311e+01, -3.52174797e+01,
          -5.26804619e+01 ]
      - [ -6.51323080e+00, -2.01722717e+01, -2.68854694e+01,
          -2.66133327e+01, -5.39903793e+01, -3.67498093e+01,
          -5.35304680e+01 ]
      - [ -6.73158455e+00, -1.94597912e+01, -2.63567371e+01,
          -2.65386448e+01, -5.30079041e+01, -3.62933540e+01,
          -5.45687027e+01 ]
      - [ -6.20931387e+00, -1.74610443e+01, -2.38996582e+01,
          -2.38923931e+01, -4.79148407e+01, -3.43123436e+01,
          -4.85377922e+01 ]
      - [ -6.30227137e+00, -1.88965244e+01, -2.90600853e+01,
          -2.55228043e+01, -5.28363152e+01, -3.50859566e+01,
          -5.43855247e+01 ]
      - [ -6.62414980e+00, -1.69118118e+01, -2.72124672e+01,
          -2.51400185e+01, -5.37803116e+01, -3.41204987e+01,
          -5.13198929e+01 ]
      - [ -6.79119873e+00, -1.97669868e+01, -2.90670891e+01,
          -2.87591133e+01, -5.81740646e+01, -3.92243195e+01,
          -5.79004784e+01 ]
      - [ -6.46210289e+00, -1.71752415e+01, -2.50700340e+01,
          -2.46685658e+01, -4.96921883e+01, -3.39360580e+01,
          -5.02008209e+01 ]
      - [ -6.20792580e+00, -1.75820904e+01, -2.37909966e+01,
          -2.38494987e+01, -4.77963600e+01, -3.43783035e+01,
          -4.84184380e+01 ]
      - [ -5.68650198e+00, -1.43443031e+01, -1.99863129e+01,
          -1.99671841e+01, -3.99441986e+01, -2.73209934e+01,
          -4.37115707e+01 ]
      - [ -6.08734608e+00, -1.53550854e+01, -1.93205700e+01,
          -2.63133469e+01, -4.93980293e+01, -3.40394020e+01,
          -4.95705338e+01 ]
      - [ -6.30588388e+00, -1.45999985e+01, -2.31087055e+01,
          -2.59526558e+01, -5.09172134e+01, -3.34487915e+01,
          -5.07556076e+01 ]
      - [ -5.13828278e+00, -1.19260082e+01, -1.70393848e+01,
          -1.89267960e+01, -3.73351212e+01, -2.52922478e+01,
          -3.71885109e+01 ]
      - [ -5.96620989e+00, -1.38249521e+01, -1.84961510e+01,
          -2.18150368e+01, -4.22442131e+01, -3.21813431e+01,
          -4.24027023e+01 ]
      - [ -5.66424561e+00, -1.29026165e+01, -2.10006809e+01,
          -2.20020809e+01, -4.40772820e+01, -2.90443859e+01,
          -4.36943741e+01 ]
      - [ -5.93928194e+00, -1.34821072e+01, -2.03177090e+01,
          -2.20440521e+01, -4.32258720e+01, -2.87895088e+01,
          -4.63629913e+01 ]
      - [ -5.71448851e+00, -1.47284002e+01, -1.73790073e+01,
          -1.98649883e+01, -3.85041389e+01, -2.72318172e+01,
          -4.01818275e+01 ]
      - [ -5.96181059e+00, -1.33253794e+01, -1.96065636e+01,
          -2.13557167e+01, -4.23740463e+01, -2.82200241e+01,
          -4.20457611e+01 ]
      - [ -6.43361950e+00, -1.42454376e+01, -2.13850822e+01,
          -2.27811127e+01, -4.50923882e+01, -3.00133247e+01,
          -4.53662071e+01 ]
      - [ -6.62607622e+00, -1.48799181e+01, -2.22328072e+01,
          -2.41341324e+01, -5.02626572e+01, -3.18464527e+01,
          -4.73189850e+01 ]
      - [ -5.53337431e+00, -1.23786058e+01, -1.92473297e+01,
          -2.20627213e+01, -4.57603607e+01, -2.82889729e+01,
          -4.27188873e+01 ]
      - [ -6.35308504e+00, -1.53426113e+01, -2.23407383e+01,
          -2.48992653e+01, -4.92377815e+01, -3.27616234e+01,
          -4.86549301e+01 ]
      - [ -5.72078419e+00, -1.53863697e+01, -1.84751492e+01,
          -2.08902054e+01, -4.19245682e+01, -2.89605236e+01,
          -4.06075439e+01 ]
      - [ -5.01011038e+00, -1.14309187e+01, -1.63509903e+01,
          -1.81305180e+01, -3.57781525e+01, -2.40165691e+01,
          -3.56640396e+01 ]
      - [ -6.16059780e+00, -1.49038038e+01, -2.05764809e+01,
          -2.22784290e+01, -4.40092773e+01, -2.97607594e+01,
          -4.40997200e+01 ]
      - [ -5.46303654e+00, -1.56304855e+01, -1.81632557e+01,
          -1.89893665e+01, -3.75963097e+01, -2.74838295e+01,
          -3.89771996e+01 ]
      - [ -5.40694714e+00, -1.15926657e+01, -1.83873119e+01,
          -1.96815929e+01, -3.99123383e+01, -2.60472851e+01,
          -3.87639656e+01 ]
      - [ -6.21005535e+00, -1.44604301e+01, -2.13515778e+01,
          -2.20613728e+01, -4.38048248e+01, -2.93513699e+01,
          -4.50884247e+01 ]
      - [ -5.93336105e+00, -1.34109116e+01, -1.99625530e+01,
          -2.14709454e+01, -4.25165024e+01, -2.82544651e+01,
          -4.25526886e+01 ]
      - [ -5.48478460e+00, -1.23045845e+01, -1.99879017e+01,
          -2.02933331e+01, -4.19399948e+01, -2.68599529e+01,
          -4.04591713e+01 ]
      - [ -5.74757528e+00, -1.32762899e+01, -1.99889202e+01,
          -2.08940697e+01, -4.32684555e+01, -2.84007130e+01,
          -4.13461494e+01 ]
      - [ -5.57325172e+00, -1.26276379e+01, -1.87173195e+01,
          -2.09435425e+01, -4.07764397e+01, -2.74664459e+01,
          -4.34311752e+01 ]
      - [ -6.23651028e+00, -1.49134045e+01, -2.02972450e+01,
          -2.35925446e+01, -4.68406677e+01, -3.10548477e+01,
          -4.55757713e+01 ]
      - [ -6.32399273e+00, -1.36816597e+01, -2.11968937e+01,
          -2.31421547e+01, -4.74532471e+01, -3.13999462e+01,
          -4.53186264e+01 ]
      - [ -6.18122768e+00, -1.40581970e+01, -2.06347256e+01,
          -2.22126732e+01, -4.40356178e+01, -2.99171734e+01,
          -4.39352989e+01 ]
      - [ -5.72479439e+00, -1.31666346e+01, -1.79203701e+01,
          -2.02403297e+01, -3.93393898e+01, -2.68849125e+01,
          -4.09728584e+01 ]
      - [ -5.68912506e+00, -1.53351040e+01, -1.88680286e+01,
          -2.26669273e+01, -4.48513527e+01, -3.18733940e+01,
          -4.34646950e+01 ]
      - [ -6.17087364e+00, -1.38701725e+01, -2.05881443e+01,
          -2.19100494e+01, -4.43445015e+01, -2.90578079e+01,
          -4.32081795e+01 ]
      - [ -5.64864206e+00, -1.31661949e+01, -2.24059296e+01,
          -2.29511871e+01, -4.66042595e+01, -2.97904873e+01,
          -4.57065582e+01 ]
      - [ -5.56077242e+00, -1.30366564e+01, -1.74608078e+01,
          -2.01326027e+01, -3.89611053e+01, -2.68436069e+01,
          -4.03227463e+01 ]
      - [ -6.56381559e+00, -1.52612429e+01, -2.26012020e+01,
          -2.40410500e+01, -5.21850739e+01, -3.25673256e+01,
          -4.73622093e+01 ]
      - [ -6.03267384e+00, -1.32640543e+01, -1.98898067e+01,
          -2.31842575e+01, -4.47406998e+01, -2.99392586e+01,
          -4.63554344e+01 ]
      - [ -5.64054060e+00, -1.27703972e+01, -1.89643154e+01,
          -2.12504101e+01, -4.21813316e+01, -2.99910355e+01,
          -4.14647446e+01 ]
      - [ -5.80305862e+00, -1.25023432e+01, -1.88945656e+01,
          -2.09978905e+01, -4.09905701e+01, -2.72971706e+01,
          -4.21552467e+01 ]
      - [ -6.28007078e+00, -1.39028912e+01, -2.34694519e+01,
          -2.30780144e+01, -4.65494690e+01, -3.04468899e+01,
          -4.69112320e+01 ]
      - [ -5.77865839e+00, -1.48354931e+01, -1.97370605e+01,
          -2.12460823e+01, -4.46370163e+01, -3.05301590e+01,
          -4.17391701e+01 ]
      - [ -6.49878931e+00, -1.50021725e+01, -2.27507095e+01,
          -2.32742996e+01, -4.95282326e+01, -3.13860168e+01,
          -4.62875710e+01 ]
      - [ -5.64881325e+00, -1.27783442e+01, -2.15592041e+01,
          -2.09330330e+01, -4.22853279e+01, -2.80688972e+01,
          -4.30060577e+01 ]
      - [ -6.52808285e+00, -1.54090834e+01, -2.28685894e+01,
          -2.41445293e+01, -5.09663734e+01, -3.20551643e+01,
          -4.76517487e+01 ]
      - [ -6.02728748e+00, -1.45441818e+01, -2.26121368e+01,
          -2.46790733e+01, -4.86731987e+01, -3.25369530e+01,
          -4.86693115e+01 ]
      - [ -6.24699688e+00, -1.42450867e+01, -2.20003147e+01,
          -2.41321182e+01, -4.73083916e+01, -3.15463943e+01,
          -4.80091667e+01 ]
      - [ -6.10919046e+00, -1.37910929e+01, -2.03844185e+01,
          -2.23680401e+01, -4.39234200e+01, -2.95629597e+01,
          -4.43443604e+01 ]
      - [ -5.47578478e+00, -1.26916084e+01, -1.84509907e+01,
          -2.04192333e+01, -4.03548012e+01, -2.79071770e+01,
          -4.00834198e+01 ]
      - [ -6.13953495e+00, -1.37170229e+01, -2.07915726e+01,
          -2.49301929e+01, -4.79543304e+01, -3.19349308e+01,
          -4.84301338e+01 ]
      - [ -5.95000172e+00, -1.34107790e+01, -2.24104042e+01,
          -2.34881649e+01, -4.71091537e+01, -3.07640076e+01,
          -4.65886497e+01 ]
      - [ -5.81165934e+00, -1.33467407e+01, -1.97315254e+01,
          -2.08339882e+01, -4.26882553e+01, -2.80861511e+01,
          -4.11388016e+01 ]
      - [ -5.96733856e+00, -1.36817913e+01, -2.25705605e+01,
          -2.17521172e+01, -4.49163437e+01, -2.90667477e+01,
          -4.39857140e+01 ]
      - [ -6.01606798e+00, -1.39274082e+01, -2.10062256e+01,
          -2.57404995e+01, -4.91347961e+01, -3.59367981e+01,
          -5.07108727e+01 ]
      - [ -5.66038847e+00, -1.53740644e+01, -1.81079731e+01,
          -2.18047409e+01, -4.17694893e+01, -2.95398064e+01,
          -4.38089333e+01 ]
      - [ -6.05996609e+00, -1.66458683e+01, -1.88038006e+01,
          -2.07312069e+01, -4.06661911e+01, -2.92263107e+01,
          -4.11269875e+01 ]
      - [ -6.07009363e+00, -1.40417595e+01, -2.19734287e+01,
          -2.44881687e+01, -4.77279549e+01, -3.15120621e+01,
          -4.97328529e+01 ]
      - [ -5.98622227e+00, -1.39871168e+01, -2.12281246e+01,
          -2.51525116e+01, -4.83592949e+01, -3.21574097e+01,
          -5.00577202e+01 ]
      - [ -5.84554911e+00, -1.34346056e+01, -1.84278736e+01,
          -2.16915073e+01, -4.18652725e+01, -2.85625725e+01,
          -4.25460243e+01 ]
      - [ -5.02437830e+00, -1.11800661e+01, -1.71931210e+01,
          -1.84487419e+01, -3.63934288e+01, -2.59643250e+01,
          -3.70284233e+01 ]
      - [ -6.41760254e+00, -1.42479286e+01, -2.10174370e+01,
          -2.35056667e+01, -4.66838531e+01, -3.10683861e+01,
          -4.58543282e+01 ]
      - [ -6.20478630e+00, -1.58316917e+01, -1.99392796e+01,
          -2.13334541e+01, -4.19698219e+01, -2.93130016e+01,
          -4.88701630e+01 ]
      - [ -6.12411022e+00, -1.34733868e+01, -2.27773209e+01,
          -2.59905567e+01, -5.06280632e+01, -3.27469406e+01,
          -5.08354225e+01 ]
      - [ -5.81254387e+00, -1.52342358e+01, -1.86753807e+01,
          -2.20944519e+01, -4.24870796e+01, -2.97169342e+01,
          -4.45691566e+01 ]
      - [ -6.17744970e+00, -1.50798473e+01, -1.90037537e+01,
          -2.21504631e+01, -4.40641861e+01, -3.08347168e+01,
          -4.27633362e+01 ]
      - [ -5.72334671e+00, -1.39699545e+01, -1.80508785e+01,
          -2.14298630e+01, -4.12567329e+01, -2.85000515e+01,
          -4.20900917e+01 ]
      - [ -5.96576071e+00, -1.40533257e+01, -1.96042366e+01,
          -2.38137627e+01, -4.57839699e+01, -3.22792206e+01,
          -4.59723320e+01 ]
      - [ -5.83640289e+00, -1.30386276e+01, -1.93027515e+01,
          -2.11272507e+01, -4.16737747e+01, -2.78568726e+01,
          -4.17043457e+01 ]
      - [ -5.92866087e+00, -1.31123409e+01, -1.95673237e+01,
          -2.09067173e+01, -4.11526680e+01, -2.74979630e+01,
          -4.31608086e+01 ]
      - [ -6.17579460e+00, -1.47264671e+01, -2.11741352e+01,
          -2.20623379e+01, -4.40558929e+01, -3.06113663e+01,
          -4.39999657e+01 ]
      - [ -6.05924320e+00, -1.54898167e+01, -2.03966732e+01,
          -2.38796444e+01, -4.63105278e+01, -3.23752060e+01,
          -4.64247284e+01 ]
      - [ -6.08075953e+00, -1.45755844e+01, -2.24312935e+01,
          -2.26685448e+01, -4.68097992e+01, -3.02561169e+01,
          -4.52396469e+01 ]
      - [ -5.86908245e+00, -1.32029448e+01, -1.90691624e+01,
          -2.08430119e+01, -4.20585976e+01, -2.82677612e+01,
          -4.08410835e+01 ]
      - [ -5.88884401e+00, -1.24120836e+01, -2.08463078e+01,
          -2.16619244e+01, -4.29944649e+01, -2.84758987e+01,
          -4.38809738e+01 ]
      - [ -6.22598457e+00, -1.85626545e+01, -2.14625549e+01,
          -2.30760250e+01, -4.53991470e+01, -3.26751747e+01,
          -4.64863586e+01 ]
      - [ -5.58339691e+00, -1.57795458e+01, -1.78161125e+01,
          -2.15266514e+01, -4.40800781e+01, -2.95320053e+01,
          -4.11996040e+01 ]
      - [ -5.98661470e+00, -1.32330961e+01, -2.03466148e+01,
          -2.29114990e+01, -4.46217690e+01, -2.95903931e+01,
          -4.54893684e+01 ]
      - [ -6.41749048e+00, -1.42675695e+01, -2.45077572e+01,
          -2.62010880e+01, -5.17412682e+01, -3.33508377e+01,
          -5.21405983e+01 ]
      - [ -6.11898422e+00, -1.54910746e+01, -1.94570026e+01,
          -2.60026283e+01, -4.87469368e+01, -3.47490768e+01,
          -5.05101204e+01 ]
      - [ -5.72780561e+00, -1.47735558e+01, -1.91906395e+01,
          -2.46999397e+01, -4.66923637e+01, -3.25599518e+01,
          -4.78494186e+01 ]
      - [ -5.76795053e+00, -1.30684166e+01, -2.05991917e+01,
          -2.26552849e+01, -4.68968124e+01, -2.97844353e+01,
          -4.42852097e+01 ]
      - [ -6.25092793e+00, -1.57979183e+01, -2.02454357e+01,
          -2.40658836e+01, -4.74081154e+01, -3.27744141e+01,
          -4.62704506e+01 ]
      - [ -6.11242104e+00, -1.46198845e+01, -1.93613930e+01,
          -2.51777744e+01, -4.76044579e+01, -3.42476425e+01,
          -4.81027184e+01 ]
      - [ -6.09518385e+00, -1.32349043e+01, -2.18919353e+01,
          -2.43196793e+01, -4.92059975e+01, -3.09918728e+01,
          -4.74398994e+01 ]
      - [ -6.02161646e+00, -1.40587406e+01, -1.94120693e+01,
          -2.13814487e+01, -4.53971596e+01, -2.93209629e+01,
          -4.17785683e+01 ]
      - [ -5.72685051e+00, -1.26899900e+01, -2.19623470e+01,
          -2.42216721e+01, -4.76083984e+01, -3.06792431e+01,
          -4.77181206e+01 ]
      - [ -6.17490911e+00, -1.47634373e+01, -2.13923111e+01,
          -2.35669003e+01, -4.60469589e+01, -3.14823170e+01,
          -4.95528755e+01 ]
      - [ -5.84933186e+00, -1.28848286e+01, -2.39644947e+01,
          -2.29076710e+01, -4.63583946e+01, -2.97237186e+01,
          -4.81164284e+01 ]
      - [ -5.97620678e+00, -1.42528543e+01, -2.08407593e+01,
          -2.46584682e+01, -4.75190010e+01, -3.17923527e+01,
          -4.82154236e+01 ]
      - [ -5.47896290e+00, -1.26781406e+01, -1.84362755e+01,
          -2.25393677e+01, -4.33573380e+01, -2.92975407e+01,
          -4.33907471e+01 ]
      - [ -5.87305212e+00, -1.46014662e+01, -2.44361038e+01,
          -2.14513569e+01, -4.46581650e+01, -2.87520924e+01,
          -4.48419495e+01 ]
      - [ -5.65893459e+00, -1.50133677e+01, -1.82628613e+01,
          -2.24542694e+01, -4.37605438e+01, -3.13148651e+01,
          -4.28942413e+01 ]
      - [ -6.13942814e+00, -1.52828293e+01, -2.16228123e+01,
          -2.58746128e+01, -4.98246536e+01, -3.61300888e+01,
          -5.01754532e+01 ]
      - [ -5.88088179e+00, -1.39243689e+01, -1.92878246e+01,
          -2.32193832e+01, -4.45032043e+01, -3.03616734e+01,
          -4.58911362e+01 ]
      - [ -5.92399120e+00, -1.52547369e+01, -1.79950523e+01,
          -2.04968529e+01, -3.97463303e+01, -2.81369114e+01,
          -4.22220001e+01 ]
      - [ -5.74352884e+00, -1.32874899e+01, -2.25731239e+01,
          -2.31278267e+01, -4.64230690e+01, -3.11140881e+01,
          -4.62428360e+01 ]
      - [ -6.56316423e+00, -1.45759201e+01, -2.16797657e+01,
          -2.33335800e+01, -4.58403816e+01, -3.06218872e+01,
          -4.99750633e+01 ]
      - [ -6.06217909e+00, -1.44405823e+01, -2.09289608e+01,
          -2.27467327e+01, -4.47068443e+01, -3.01257439e+01,
          -4.53486748e+01 ]
      - [ -5.45032597e+00, -1.38740788e+01, -1.85220928e+01,
          -1.96069717e+01, -3.87214928e+01, -2.69744320e+01,
          -3.98477058e+01 ]
      - [ -5.88852835e+00, -1.41281118e+01, -2.16199112e+01,
          -2.19225502e+01, -4.38709335e+01, -2.97837563e+01,
          -4.42985458e+01 ]
      - [ -5.77659035e+00, -1.31451950e+01, -1.90628891e+01,
          -2.09647198e+01, -4.18342056e+01, -2.80359173e+01,
          -4.10781250e+01 ]
      - [ -5.58775139e+00, -1.55405121e+01, -1.83474998e+01,
          -2.11984749e+01, -4.11080513e+01, -2.93213940e+01,
          -4.16870232e+01 ]
      - [ -6.13233423e+00, -1.52134609e+01, -2.20199947e+01,
          -2.61968327e+01, -5.03417625e+01, -3.60786514e+01,
          -5.16318207e+01 ]
      - [ -5.93863630e+00, -1.32521095e+01, -2.24355621e+01,
          -2.25534000e+01, -4.65763893e+01, -3.24673996e+01,
          -4.50719681e+01 ]
      - [ -5.66164780e+00, -1.38267431e+01, -1.83161144e+01,
          -2.28956528e+01, -4.40981598e+01, -3.01962242e+01,
          -4.36821899e+01 ]
      - [ -5.79378366e+00, -1.55821943e+01, -1.82217712e+01,
          -2.12805443e+01, -4.10375175e+01, -3.07920609e+01,
          -4.32614059e+01 ]
      - [ -5.65611649e+00, -1.23666182e+01, -2.03549500e+01,
          -2.34822311e+01, -4.55862389e+01, -3.08069572e+01,
          -4.59866676e+01 ]
      - [ -6.42419720e+00, -1.43402433e+01, -2.11642437e+01,
          -2.36001968e+01, -4.65723572e+01, -3.10589371e+01,
          -4.61660080e+01 ]
      - [ -5.79139853e+00, -1.47471561e+01, -2.27224998e+01,
          -2.24092426e+01, -4.56438866e+01, -3.35784264e+01,
          -4.51273537e+01 ]
      - [ -5.89820480e+00, -1.32221308e+01, -1.95169392e+01,
          -2.10922661e+01, -4.42228889e+01, -2.90293560e+01,
          -4.13986282e+01 ]
      - [ -6.00932026e+00, -1.50432405e+01, -2.06092415e+01,
          -2.27378197e+01, -4.68249130e+01, -3.08165092e+01,
          -4.44153709e+01 ]
      - [ -5.59276676e+00, -1.24222937e+01, -1.82837334e+01,
          -1.97515640e+01, -3.92539520e+01, -2.62235279e+01,
          -3.90076523e+01 ]
      - [ -5.60193539e+00, -1.39304495e+01, -1.69019146e+01,
          -1.88531418e+01, -3.67343674e+01, -2.58183765e+01,
          -3.91862602e+01 ]
      - [ -5.28634167e+00, -1.13660030e+01, -1.70806751e+01,
          -1.90406361e+01, -3.71239853e+01, -2.47611351e+01,
          -3.86588783e+01 ]
      - [ -6.51039362e+00, -1.50188761e+01, -2.24152718e+01,
          -2.34185753e+01, -4.83196297e+01, -3.19167156e+01,
          -4.63450432e+01 ]
      - [ -5.68885231e+00, -1.23605566e+01, -1.72955303e+01,
          -1.81445389e+01, -3.58651924e+01, -2.43255730e+01,
          -3.92130241e+01 ]
      - [ -6.43811560e+00, -1.68909397e+01, -2.03534431e+01,
          -2.25411930e+01, -4.53299904e+01, -3.32878838e+01,
          -4.40239182e+01 ]
      - [ -6.14261198e+00, -1.35990238e+01, -2.00756035e+01,
          -2.16393948e+01, -4.36284714e+01, -2.86621304e+01,
          -4.25518150e+01 ]
      - [ -5.90504408e+00, -1.35027390e+01, -1.97076836e+01,
          -2.22477722e+01, -4.34668655e+01, -2.97249374e+01,
          -4.37054863e+01 ]
      - [ -5.40904903e+00, -1.13865337e+01, -1.77452679e+01,
          -1.91550560e+01, -3.76848297e+01, -2.50496445e+01,
          -3.85632210e+01 ]
      - [ -5.64113474e+00, -1.25518208e+01, -1.84440250e+01,
          -2.01476936e+01, -3.98185501e+01, -2.66528454e+01,
          -3.97632294e+01 ]
      - [ -5.84395838e+00, -1.41166763e+01, -1.98605309e+01,
          -2.38988571e+01, -4.57944756e+01, -3.09597511e+01,
          -4.75098610e+01 ]
      - [ -5.78400421e+00, -1.48911810e+01, -2.18429527e+01,
          -2.12308826e+01, -4.34674416e+01, -2.86982174e+01,
          -4.29094963e+01 ]
      - [ -6.08040333e+00, -1.32732077e+01, -2.21876812e+01,
          -2.36986465e+01, -4.69168739e+01, -3.22342491e+01,
          -4.70718575e+01 ]
      - [ -6.48070192e+00, -1.56621017e+01, -1.96350994e+01,
          -2.16866989e+01, -4.23494682e+01, -2.95962582e+01,
          -4.51431503e+01 ]
      - [ -6.03071880e+00, -1.38804092e+01, -2.23997650e+01,
          -2.30530701e+01, -4.68302879e+01, -3.06240673e+01,
          -4.58446884e+01 ]
      - [ -5.73647785e+00, -1.31242065e+01, -2.19896507e+01,
          -2.13120098e+01, -4.37057037e+01, -3.07600555e+01,
          -4.30911484e+01 ]
      - [ -5.99277449e+00, -1.44670677e+01, -1.86465454e+01,
          -2.25333767e+01, -4.31293640e+01, -2.98152771e+01,
          -4.53355675e+01 ]
      - [ -5.84378290e+00, -1.41562080e+01, -2.03200722e+01,
          -2.15040016e+01, -4.25991325e+01, -3.26934471e+01,
          -4.30071030e+01 ]
      - [ -5.59349728e+00, -1.20535460e+01, -1.79297218e+01,
          -2.01144714e+01, -3.92174988e+01, -2.62030582e+01,
          -4.00869865e+01 ]
      - [ -5.77988338e+00, -1.45673904e+01, -1.76390667e+01,
          -2.03265305e+01, -3.93526115e+01, -2.76211243e+01,
          -4.05542488e+01 ]
      - [ -6.19249392e+00, -1.64177132e+01, -1.94268837e+01,
          -2.33481007e+01, -4.58226166e+01, -3.17017670e+01,
          -4.47959518e+01 ]
      - [ -4.63392782e+00, -1.12721930e+01, -1.75079174e+01,
          -1.66868515e+01, -3.37935524e+01, -2.27666569e+01,
          -3.57802238e+01 ]
      - [ -6.32145119e+00, -1.54469500e+01, -2.11844006e+01,
          -2.44281788e+01, -4.75043221e+01, -3.22117882e+01,
          -4.76717033e+01 ]
      - [ -5.64632034e+00, -1.26031160e+01, -2.08259792e+01,
          -2.09518623e+01, -4.40599289e+01, -3.19904099e+01,
          -4.18467255e+01 ]
      - [ -5.99545336e+00, -1.37059174e+01, -1.89583340e+01,
          -2.20489635e+01, -4.28514557e+01, -2.93633785e+01,
          -4.29519577e+01 ]
      - [ -5.33654022e+00, -1.49877739e+01, -1.69161434e+01,
          -2.00203533e+01, -3.85513802e+01, -2.75353241e+01,
          -3.95571365e+01 ]
      - [ -6.28322268e+00, -1.43571863e+01, -2.26537018e+01,
          -2.63413544e+01, -5.09543457e+01, -3.41648827e+01,
          -5.16283340e+01 ]
      - [ -6.20446825e+00, -1.39351473e+01, -2.42019863e+01,
          -2.48984089e+01, -4.94654694e+01, -3.19083996e+01,
          -5.11517868e+01 ]
      - [ -5.68207598e+00, -1.26649704e+01, -1.86355782e+01,
          -2.03949051e+01, -4.02942810e+01, -2.69625473e+01,
          -4.02217827e+01 ]
      - [ -6.06025314e+00, -1.45064783e+01, -1.86783447e+01,
          -2.19396839e+01, -4.22493820e+01, -2.92403202e+01,
          -4.55459709e+01 ]
      - [ -5.84163713e+00, -1.55787888e+01, -1.96896191e+01,
          -2.49590473e+01, -4.77774544e+01, -3.55530014e+01,
          -4.75161972e+01 ]
      - [ -5.89389896e+00, -1.30351267e+01, -2.14356766e+01,
          -2.25552750e+01, -4.47043991e+01, -3.10485516e+01,
          -4.52155876e+01 ]
      - [ -5.84112835e+00, -1.39091358e+01, -2.02718430e+01,
          -2.15272942e+01, -4.28633080e+01, -3.08263588e+01,
          -4.26972809e+01 ]
      - [ -6.12501764e+00, -1.39391317e+01, -2.11657085e+01,
          -2.29557076e+01, -4.55454445e+01, -3.19879436e+01,
          -4.52296028e+01 ]
      - [ -6.04457951e+00, -1.45779877e+01, -1.94620743e+01,
          -2.21126537e+01, -4.29073029e+01, -3.42284851e+01,
          -4.50180588e+01 ]
      - [ -5.73941374e+00, -1.36195974e+01, -1.81710358e+01,
          -2.11755199e+01, -4.08790398e+01, -2.80821114e+01,
          -4.22665634e+01 ]
      - [ -4.85436583e+00, -1.23262043e+01, -1.67763062e+01,
          -1.69188976e+01, -3.37971001e+01, -2.32576847e+01,
          -3.51784973e+01 ]
      - [ -6.35204935e+00, -1.53595657e+01, -2.22736626e+01,
          -2.49118099e+01, -4.92587814e+01, -3.27970772e+01,
          -4.86295776e+01 ]
      - [ -6.08016968e+00, -1.30123787e+01, -2.17765732e+01,
          -2.27243366e+01, -4.61853600e+01, -3.13648167e+01,
          -4.50212975e+01 ]
      - [ -5.89862013e+00, -1.31412792e+01, -2.37586422e+01,
          -2.31675453e+01, -4.76058350e+01, -3.00358334e+01,
          -4.67073441e+01 ]
      - [ -5.88679695e+00, -1.24051600e+01, -2.07489777e+01,
          -2.15946045e+01, -4.28109436e+01, -2.82792645e+01,
          -4.39975510e+01 ]
      - [ -5.46843147e+00, -1.18450270e+01, -1.83219891e+01,
          -1.97298088e+01, -4.03994102e+01, -2.63696976e+01,
          -3.87747421e+01 ]
      - [ -5.66784573e+00, -1.21164255e+01, -1.80011253e+01,
          -1.98694725e+01, -3.97348480e+01, -2.62397671e+01,
          -3.88893623e+01 ]
      - [ -5.96932650e+00, -1.39759912e+01, -2.08786488e+01,
          -2.52255459e+01, -5.13547478e+01, -3.27375908e+01,
          -4.82787056e+01 ]
      - [ -5.70590305e+00, -1.53119402e+01, -1.80105381e+01,
          -2.06559086e+01, -3.99893074e+01, -2.93697338e+01,
          -4.39626961e+01 ]
      - [ -6.36283064e+00, -1.58839674e+01, -2.23327179e+01,
          -2.51877441e+01, -4.94527855e+01, -3.37017288e+01,
          -4.91745338e+01 ]
      - [ -5.93734121e+00, -1.38302603e+01, -1.96209831e+01,
          -2.22265472e+01, -4.48213081e+01, -2.98420372e+01,
          -4.31683159e+01 ]
      - [ -5.74061012e+00, -1.28448610e+01, -1.90660763e+01,
          -2.08128796e+01, -4.10557442e+01, -2.74340801e+01,
          -4.11462059e+01 ]
      - [ -5.98920774e+00, -1.31583700e+01, -2.45638695e+01,
          -2.34873257e+01, -4.75836906e+01, -3.01287918e+01,
          -4.85254974e+01 ]
      - [ -6.07400084e+00, -1.38399458e+01, -1.99354572e+01,
          -2.12478256e+01, -4.19753494e+01, -2.84417400e+01,
          -4.25572777e+01 ]
      - [ -6.98264265e+00, -1.50867310e+01, -2.82518673e+01,
          -3.05881710e+01, -6.00376587e+01, -3.90740662e+01,
          -6.14384918e+01 ]
      - [ -7.11981440e+00, -1.76681919e+01, -2.47539749e+01,
          -2.67221603e+01, -5.26654205e+01, -3.55834389e+01,
          -5.30046463e+01 ]
      - [ -7.13365650e+00, -1.69550076e+01, -2.47888260e+01,
          -2.68616257e+01, -5.48637047e+01, -3.54247437e+01,
          -5.26933250e+01 ]
      - [ -6.92115259e+00, -1.53601484e+01, -2.42623596e+01,
          -2.67224483e+01, -5.22249222e+01, -3.44500732e+01,
          -5.41724281e+01 ]
      - [ -6.82058287e+00, -1.48708782e+01, -2.30080452e+01,
          -2.62542877e+01, -5.17353210e+01, -3.46444626e+01,
          -5.09863472e+01 ]
      - [ -6.99281549e+00, -1.74194412e+01, -2.46213875e+01,
          -2.60161076e+01, -5.23343124e+01, -3.67256737e+01,
          -5.14076462e+01 ]
      - [ -6.80947876e+00, -1.55431767e+01, -2.10857372e+01,
          -2.35997753e+01, -5.01413002e+01, -3.16969986e+01,
          -4.59426422e+01 ]
      - [ -6.95144272e+00, -1.58954763e+01, -2.26943302e+01,
          -2.62724705e+01, -5.12222023e+01, -3.66214943e+01,
          -5.10059013e+01 ]
      - [ -6.97003603e+00, -1.61564369e+01, -2.28143616e+01,
          -2.50653553e+01, -4.91947098e+01, -3.37966347e+01,
          -4.95820885e+01 ]
      - [ -6.80940151e+00, -1.48461809e+01, -2.40191841e+01,
          -2.64344501e+01, -5.16780014e+01, -3.39973717e+01,
          -5.33682022e+01 ]
      - [ -6.97442055e+00, -1.63765945e+01, -2.33684025e+01,
          -2.74532127e+01, -5.82217407e+01, -3.82447815e+01,
          -5.28640289e+01 ]
      - [ -7.10091209e+00, -1.61206608e+01, -2.66104298e+01,
          -2.68563938e+01, -5.35958061e+01, -3.49174118e+01,
          -5.58044014e+01 ]
      - [ -7.08950758e+00, -1.60123444e+01, -2.45809040e+01,
          -2.82078190e+01, -5.47959862e+01, -3.62824059e+01,
          -5.51698418e+01 ]
      - [ -6.93328619e+00, -1.51127634e+01, -2.42645836e+01,
          -2.63328285e+01, -5.16650276e+01, -3.42990227e+01,
          -5.29998016e+01 ]
      - [ -6.95803499e+00, -1.60372047e+01, -2.38324757e+01,
          -2.76320038e+01, -5.46187668e+01, -3.57489929e+01,
          -5.34066658e+01 ]
      - [ -7.19126749e+00, -1.75768948e+01, -2.70241261e+01,
          -2.90613785e+01, -6.20395737e+01, -3.80689659e+01,
          -5.71041565e+01 ]
      - [ -6.85939455e+00, -1.51061659e+01, -2.49128685e+01,
          -2.69913616e+01, -5.30528069e+01, -3.56084442e+01,
          -5.37572556e+01 ]
      - [ -6.61460161e+00, -1.42447729e+01, -2.36001873e+01,
          -2.70291786e+01, -5.35040207e+01, -3.42162094e+01,
          -5.23955650e+01 ]
      - [ -7.00286245e+00, -1.53162270e+01, -2.60077858e+01,
          -2.69850750e+01, -5.38243484e+01, -3.47618027e+01,
          -5.38318367e+01 ]
      - [ -6.86695814e+00, -1.48981628e+01, -2.23829155e+01,
          -2.53109646e+01, -4.91712112e+01, -3.29272537e+01,
          -5.09777336e+01 ]
      - [ -7.18096256e+00, -1.64422951e+01, -2.64466171e+01,
          -2.93690910e+01, -5.99004898e+01, -3.76086235e+01,
          -5.72795830e+01 ]
      - [ -7.10486174e+00, -1.69722290e+01, -2.46999302e+01,
          -2.68155155e+01, -5.46350288e+01, -3.53681145e+01,
          -5.25813980e+01 ]
      - [ -6.98004723e+00, -1.51621532e+01, -2.82054939e+01,
          -3.06652088e+01, -6.26188545e+01, -3.83776627e+01,
          -6.01038208e+01 ]
      - [ -7.04294300e+00, -1.73101616e+01, -2.35301685e+01,
          -2.79791756e+01, -5.37593307e+01, -3.84980431e+01,
          -5.52348251e+01 ]
      - [ -7.10048008e+00, -1.73207550e+01, -2.37925682e+01,
          -3.00035572e+01, -5.72123222e+01, -3.86650772e+01,
          -5.72868347e+01 ]
      - [ -7.01857328e+00, -1.65075493e+01, -2.86837749e+01,
          -2.76705799e+01, -5.60319557e+01, -3.74930649e+01,
          -5.64363289e+01 ]
      - [ -7.15894222e+00, -1.75853291e+01, -2.46955872e+01,
          -2.71750774e+01, -5.32771111e+01, -3.60813713e+01,
          -5.37406502e+01 ]
      - [ -6.98794174e+00, -1.52334337e+01, -2.71932106e+01,
          -2.94810371e+01, -5.79006577e+01, -3.70977554e+01,
          -5.87597618e+01 ]
      - [ -6.86590862e+00, -1.57996626e+01, -2.29220486e+01,
          -2.40703735e+01, -4.76238327e+01, -3.22563744e+01,
          -4.86785469e+01 ]
      - [ -6.78041506e+00, -1.56793957e+01, -2.32624207e+01,
          -2.53907681e+01, -5.07394028e+01, -3.34065819e+01,
          -4.97867050e+01 ]
      - [ -6.94835043e+00, -1.73840809e+01, -2.19893970e+01,
          -2.55027599e+01, -4.97045097e+01, -3.41993294e+01,
          -4.95059052e+01 ]
      - [ -6.93713284e+00, -1.56539688e+01, -2.21390228e+01,
          -2.52678928e+01, -4.99065895e+01, -3.31207886e+01,
          -4.90549965e+01 ]
      - [ -7.17833853e+00, -2.13040085e+01, -2.71728153e+01,
          -3.08541489e+01, -6.05728073e+01, -4.17285500e+01,
          -6.00075264e+01 ]
      - [ -7.09690428e+00, -1.66429081e+01, -2.45201607e+01,
          -2.64580708e+01, -5.49479446e+01, -3.48383102e+01,
          -5.19484253e+01 ]
      - [ -7.07435322e+00, -1.71348171e+01, -2.49919109e+01,
          -2.61879101e+01, -5.18061333e+01, -3.50398750e+01,
          -5.32275848e+01 ]
      - [ -7.04335499e+00, -1.72980728e+01, -2.35241089e+01,
          -2.79739799e+01, -5.37549057e+01, -3.84882698e+01,
          -5.51151505e+01 ]
      - [ -7.10161209e+00, -1.72865772e+01, -2.37981815e+01,
          -2.98023720e+01, -5.68806801e+01, -3.84466667e+01,
          -5.70286751e+01 ]
      - [ -7.02179670e+00, -1.65772820e+01, -2.81132584e+01,
          -2.76441345e+01, -5.59506874e+01, -3.77207527e+01,
          -5.57995033e+01 ]
      - [ -6.79526234e+00, -1.59099846e+01, -2.25233898e+01,
          -2.55134277e+01, -4.96261024e+01, -3.37108040e+01,
          -5.04124641e+01 ]
      - [ -6.70517015e+00, -1.42939816e+01, -2.26551456e+01,
          -2.40876846e+01, -4.75499535e+01, -3.16660881e+01,
          -4.83565254e+01 ]
      - [ -6.96603346e+00, -1.63595505e+01, -2.33467236e+01,
          -2.74308071e+01, -5.50713158e+01, -3.96009712e+01,
          -5.28251381e+01 ]
      - [ -7.11377478e+00, -1.84155731e+01, -2.35852222e+01,
          -2.74473763e+01, -5.29648590e+01, -3.67371025e+01,
          -5.59868355e+01 ]
      - [ -6.98555565e+00, -1.53021479e+01, -2.24096642e+01,
          -2.47139950e+01, -4.89721603e+01, -3.26358986e+01,
          -4.84186058e+01 ]
      - [ -7.12030268e+00, -1.73563004e+01, -2.38720264e+01,
          -3.02555656e+01, -5.77831764e+01, -3.89355888e+01,
          -5.75710258e+01 ]
      - [ -7.07740164e+00, -1.55120420e+01, -2.38397427e+01,
          -2.63302956e+01, -5.58113632e+01, -3.47424126e+01,
          -5.14153900e+01 ]
      - [ -7.09645510e+00, -1.83895397e+01, -2.35232773e+01,
          -2.72866001e+01, -5.26962242e+01, -3.65402184e+01,
          -5.50290871e+01 ]
      - [ -7.14944410e+00, -1.82760487e+01, -2.36349716e+01,
          -2.84055252e+01, -5.46643295e+01, -4.18931351e+01,
          -5.49103203e+01 ]
      - [ -7.14514828e+00, -1.81740742e+01, -2.39053974e+01,
          -2.92329998e+01, -5.71130791e+01, -3.84094200e+01,
          -5.58399239e+01 ]
      - [ -7.07636356e+00, -1.88683014e+01, -2.58932972e+01,
          -2.68007469e+01, -5.31565781e+01, -3.63318634e+01,
          -5.51716003e+01 ]
      - [ -6.81064272e+00, -1.67330818e+01, -2.47403202e+01,
          -2.64394131e+01, -5.21128159e+01, -3.48524094e+01,
          -5.29651222e+01 ]
      - [ -6.73127317e+00, -1.58236475e+01, -2.32911243e+01,
          -2.81228561e+01, -5.42185555e+01, -3.66003609e+01,
          -5.41375580e+01 ]
      - [ -6.90211391e+00, -1.63388901e+01, -2.36278706e+01,
          -2.48504696e+01, -4.92085266e+01, -3.37259941e+01,
          -4.98661270e+01 ]
      - [ -7.08824873e+00, -1.67645760e+01, -2.46111908e+01,
          -2.65151062e+01, -5.20786209e+01, -3.57189217e+01,
          -5.56855927e+01 ]
      - [ -6.78881359e+00, -1.58987799e+01, -2.25046806e+01,
          -2.54991589e+01, -4.95858536e+01, -3.36792145e+01,
          -5.04301720e+01 ]
      - [ -7.09512901e+00, -1.64016762e+01, -2.46842461e+01,
          -2.75967846e+01, -5.44128227e+01, -3.78864365e+01,
          -5.38871536e+01 ]
      - [ -6.94100428e+00, -1.62321854e+01, -2.30733528e+01,
          -2.68826714e+01, -5.18820915e+01, -3.55005608e+01,
          -5.34467430e+01 ]
      - [ -6.97687006e+00, -1.62056961e+01, -2.35043354e+01,
          -2.73475132e+01, -5.69648819e+01, -3.78144798e+01,
          -5.27735519e+01 ]
      - [ -7.00086260e+00, -1.72248249e+01, -2.61239262e+01,
          -2.77101746e+01, -5.48558540e+01, -3.63798141e+01,
          -5.51284485e+01 ]
      - [ -6.82649612e+00, -1.62325420e+01, -2.37681007e+01,
          -2.45655594e+01, -4.92585411e+01, -3.27619057e+01,
          -4.89471130e+01 ]
      - [ -6.94169331e+00, -1.73875504e+01, -2.38075981e+01,
          -2.66737213e+01, -5.27527237e+01, -3.62521667e+01,
          -5.20178909e+01 ]
      - [ -6.96899700e+00, -1.73087387e+01, -2.46563873e+01,
          -2.53137341e+01, -5.15061989e+01, -3.45191841e+01,
          -5.03456116e+01 ]
      - [ -6.95608568e+00, -1.69036217e+01, -2.40115795e+01,
          -2.56320858e+01, -5.45026321e+01, -3.44298019e+01,
          -5.04540710e+01 ]
      - [ -6.98002148e+00, -1.64554768e+01, -2.30168877e+01,
          -2.49652557e+01, -4.89580994e+01, -3.37053871e+01,
          -5.17786942e+01 ]
      - [ -7.03178215e+00, -1.56868124e+01, -2.50104675e+01,
          -2.74442825e+01, -5.56083717e+01, -3.56697273e+01,
          -5.36821632e+01 ]
      - [ -7.13440037e+00, -1.68551617e+01, -2.64557133e+01,
          -2.64133530e+01, -5.28484268e+01, -3.55985298e+01,
          -5.62631569e+01 ]
      - [ -7.19653893e+00, -1.59457445e+01, -2.72357445e+01,
          -2.94552860e+01, -5.80866165e+01, -3.81705818e+01,
          -5.82165489e+01 ]
      - [ -7.29422092e+00, -1.95561104e+01, -2.53769760e+01,
          -2.83157043e+01, -5.68285751e+01, -3.83109436e+01,
          -5.51802101e+01 ]
      - [ -7.21217537e+00, -1.86783829e+01, -2.50675297e+01,
          -2.69635067e+01, -5.32812653e+01, -3.76543655e+01,
          -5.33742447e+01 ]
      - [ -7.11334085e+00, -1.53318529e+01, -2.52289619e+01,
          -2.76558342e+01, -5.64979324e+01, -3.65692253e+01,
          -5.41023674e+01 ]
      - [ -7.21653223e+00, -1.62317715e+01, -2.57185364e+01,
          -2.79413395e+01, -5.51315842e+01, -3.70807533e+01,
          -5.51044846e+01 ]
      - [ -7.14527369e+00, -1.60695362e+01, -2.44275169e+01,
          -2.83003960e+01, -5.65295029e+01, -3.65494041e+01,
          -5.46764908e+01 ]
      - [ -7.17907333e+00, -1.63132534e+01, -2.66966324e+01,
          -2.77509708e+01, -5.57665901e+01, -3.68330612e+01,
          -5.50896225e+01 ]
      - [ -7.10126734e+00, -1.72999268e+01, -2.48091240e+01,
          -2.80227108e+01, -5.58800049e+01, -3.76193504e+01,
          -5.44674339e+01 ]
      - [ -7.11761999e+00, -1.77694988e+01, -2.65579281e+01,
          -2.99391613e+01, -5.95615959e+01, -3.88332748e+01,
          -5.82208138e+01 ]
      - [ -7.13912582e+00, -1.91879177e+01, -2.68738251e+01,
          -2.73856430e+01, -5.45780258e+01, -3.75824738e+01,
          -5.55849113e+01 ]
      - [ -7.20324755e+00, -1.78327770e+01, -2.62348824e+01,
          -2.67773628e+01, -5.43794136e+01, -3.56958389e+01,
          -5.33427124e+01 ]
      - [ -6.95927525e+00, -2.07215233e+01, -2.31720829e+01,
          -2.53658447e+01, -5.20878410e+01, -3.57270241e+01,
          -4.96385231e+01 ]
      - [ -7.18929052e+00, -1.91516838e+01, -2.45787888e+01,
          -2.90442753e+01, -5.69256210e+01, -3.95070610e+01,
          -5.59184189e+01 ]
      - [ -7.27011633e+00, -1.82798119e+01, -2.50529270e+01,
          -2.99603996e+01, -5.77454758e+01, -3.91373863e+01,
          -5.78925743e+01 ]
      - [ -7.23746061e+00, -1.69222813e+01, -2.61837082e+01,
          -2.82166348e+01, -5.63059235e+01, -3.67585640e+01,
          -5.55093307e+01 ]
      - [ -6.95180416e+00, -1.61595020e+01, -2.34827213e+01,
          -2.73176365e+01, -5.48728714e+01, -4.19788132e+01,
          -5.27245750e+01 ]
      - [ -7.19864368e+00, -1.87866383e+01, -2.36255894e+01,
          -2.78790264e+01, -5.38516541e+01, -3.77384300e+01,
          -5.41472206e+01 ]
      - [ -6.92890835e+00, -1.67524090e+01, -2.35944653e+01,
          -2.66020203e+01, -5.25000648e+01, -3.72423668e+01,
          -5.18130722e+01 ]
      - [ -6.74064350e+00, -1.56539621e+01, -2.29538345e+01,
          -2.71281967e+01, -5.21892967e+01, -3.50673218e+01,
          -5.37865677e+01 ]
      - [ -6.92676544e+00, -1.66922359e+01, -2.35866528e+01,
          -2.65701313e+01, -5.24507751e+01, -3.69424057e+01,
          -5.17607117e+01 ]
      - [ -7.01159096e+00, -1.73483582e+01, -2.70866070e+01,
          -2.83838749e+01, -5.61383286e+01, -3.70588722e+01,
          -5.77581940e+01 ]
      - [ -7.00636387e+00, -1.50399780e+01, -2.31751690e+01,
          -2.48712139e+01, -4.88972130e+01, -3.24097252e+01,
          -5.14868164e+01 ]
      - [ -7.07176447e+00, -1.52511349e+01, -2.51693573e+01,
          -2.80602818e+01, -5.49456673e+01, -3.58966942e+01,
          -5.51113434e+01 ]
      - [ -6.76763153e+00, -1.53575525e+01, -2.19985275e+01,
          -2.50176277e+01, -4.94174004e+01, -3.32117119e+01,
          -4.86177063e+01 ]
      - [ -6.73403502e+00, -1.47938890e+01, -2.16122341e+01,
          -2.33967743e+01, -4.78788681e+01, -3.12686043e+01,
          -4.59109497e+01 ]
      - [ -7.04179716e+00, -1.77735367e+01, -2.31741924e+01,
          -2.63855419e+01, -5.13034859e+01, -3.53086929e+01,
          -5.18762550e+01 ]
      - [ -6.97148752e+00, -1.81467876e+01, -2.15761147e+01,
          -2.30862465e+01, -4.54174385e+01, -3.21943359e+01,
          -5.07546463e+01 ]
      - [ -7.18897343e+00, -1.59754248e+01, -2.55420227e+01,
          -2.93682785e+01, -5.80302124e+01, -4.45921822e+01,
          -5.68703079e+01 ]
      - [ -6.89592934e+00, -1.69745541e+01, -2.14170017e+01,
          -2.37992821e+01, -4.64109497e+01, -3.26436501e+01,
          -4.88866081e+01 ]
      - [ -7.22245789e+00, -1.91905499e+01, -2.69059486e+01,
          -2.86217613e+01, -5.63947029e+01, -3.82590904e+01,
          -5.83940735e+01 ]
      - [ -6.87571430e+00, -1.65098858e+01, -2.10026627e+01,
          -2.25556335e+01, -4.43833275e+01, -3.09901867e+01,
          -4.55248833e+01 ]
      - [ -6.98025036e+00, -1.48722963e+01, -2.63582592e+01,
          -2.73222790e+01, -5.45283585e+01, -3.58444901e+01,
          -5.44906006e+01 ]
      - [ -7.03784704e+00, -1.70447483e+01, -2.31722183e+01,
          -2.51090488e+01, -4.92584534e+01, -3.38169479e+01,
          -5.12755661e+01 ]
      - [ -6.88333607e+00, -1.45830250e+01, -2.33758984e+01,
          -2.46783810e+01, -4.87537231e+01, -3.21453705e+01,
          -4.98990173e+01 ]
      - [ -7.03623343e+00, -1.55247593e+01, -2.39889126e+01,
          -2.61345844e+01, -5.22995758e+01, -3.50788879e+01,
          -5.12546501e+01 ]
      - [ -6.54826498e+00, -1.49578276e+01, -2.00732288e+01,
          -2.37007446e+01, -4.67217293e+01, -3.15370331e+01,
          -4.56423721e+01 ]
      - [ -6.93805695e+00, -1.62669048e+01, -2.20478802e+01,
          -2.51199303e+01, -5.02462807e+01, -3.33808327e+01,
          -4.87272415e+01 ]
      - [ -6.79822159e+00, -1.51910524e+01, -2.37567844e+01,
          -2.54948521e+01, -5.03384171e+01, -3.46965370e+01,
          -5.06412354e+01 ]
      - [ -6.94591713e+00, -1.68729763e+01, -2.29500484e+01,
          -2.51468143e+01, -4.92388916e+01, -3.51431808e+01,
          -5.04361610e+01 ]
      - [ -6.89463711e+00, -1.55018806e+01, -2.46748009e+01,
          -2.59773159e+01, -5.14733429e+01, -3.37347069e+01,
          -5.19254532e+01 ]
      - [ -6.82097054e+00, -1.53584604e+01, -2.28996010e+01,
          -2.45571251e+01, -4.85147400e+01, -3.43746490e+01,
          -4.87856331e+01 ]
      - [ -7.00379467e+00, -1.58662825e+01, -2.35553684e+01,
          -2.51860371e+01, -4.98239746e+01, -3.52402534e+01,
          -4.99976616e+01 ]
      - [ -6.99739408e+00, -1.51533051e+01, -2.75069714e+01,
          -2.95307369e+01, -5.81693611e+01, -3.71127129e+01,
          -5.88227921e+01 ]
      - [ -6.69896221e+00, -1.42728386e+01, -2.26368580e+01,
          -2.40606384e+01, -4.75024643e+01, -3.16514874e+01,
          -4.82957993e+01 ]
      - [ -7.10251188e+00, -1.73551846e+01, -2.38008022e+01,
          -3.00222797e+01, -5.71898308e+01, -3.87052422e+01,
          -5.73910713e+01 ]
      - [ -7.25318050e+00, -1.71856728e+01, -2.63436852e+01,
          -2.90825539e+01, -5.68284149e+01, -3.78103065e+01,
          -5.81749496e+01 ]
      - [ -6.83673477e+00, -1.88634834e+01, -2.29556980e+01,
          -2.80692329e+01, -5.37208633e+01, -3.81649437e+01,
          -5.42891464e+01 ]
      - [ -6.97617674e+00, -1.59438038e+01, -2.27784100e+01,
          -2.64061356e+01, -5.15184555e+01, -3.72655258e+01,
          -5.12164345e+01 ]
      - [ -7.02035236e+00, -1.67863731e+01, -2.54550457e+01,
          -2.74695759e+01, -5.41152420e+01, -3.60447769e+01,
          -5.45223541e+01 ]
      - [ -7.13366365e+00, -1.76231194e+01, -2.48432922e+01,
          -2.69092751e+01, -5.29793396e+01, -3.57589760e+01,
          -5.33532715e+01 ]
      - [ -7.00819731e+00, -1.65805492e+01, -2.51570263e+01,
          -2.72381363e+01, -5.34585266e+01, -3.55579262e+01,
          -5.49907761e+01 ]
      - [ -6.88986397e+00, -1.63861256e+01, -2.31524067e+01,
          -2.72015476e+01, -5.35399246e+01, -3.64436111e+01,
          -5.24300919e+01 ]
      - [ -6.93229437e+00, -1.57381363e+01, -2.53308563e+01,
          -2.78104057e+01, -5.49309425e+01, -3.57658424e+01,
          -5.45834694e+01 ]
      - [ -7.13571119e+00, -1.81898384e+01, -2.62128010e+01,
          -2.70892143e+01, -5.43227501e+01, -3.62941971e+01,
          -5.39271393e+01 ]
      - [ -7.18471670e+00, -1.69229813e+01, -2.67123241e+01,
          -2.80348263e+01, -5.55481415e+01, -3.64968071e+01,
          -5.61140556e+01 ]
      - [ -6.99239063e+00, -1.59968510e+01, -2.40875740e+01,
          -2.64447765e+01, -5.17313614e+01, -3.45127296e+01,
          -5.33204613e+01 ]
      - [ -7.15321064e+00, -1.67425709e+01, -2.44922047e+01,
          -3.05145550e+01, -5.81872520e+01, -3.98859749e+01,
          -5.86416321e+01 ]
      - [ -7.03258896e+00, -1.61710281e+01, -2.55245228e+01,
          -2.72706223e+01, -5.41905365e+01, -3.60870171e+01,
          -5.38849754e+01 ]
      - [ -7.02879286e+00, -1.80594769e+01, -2.40172825e+01,
          -2.82737122e+01, -5.45372849e+01, -4.19553413e+01,
          -5.51987190e+01 ]
      - [ -6.91414356e+00, -1.61559734e+01, -2.50638161e+01,
          -2.49961700e+01, -5.12088242e+01, -3.33010979e+01,
          -5.00754776e+01 ]
      - [ -6.87706566e+00, -1.56626463e+01, -2.39600067e+01,
          -2.68981171e+01, -5.23560219e+01, -3.48197174e+01,
          -5.37678604e+01 ]
      - [ -7.23178196e+00, -1.87427883e+01, -2.49619923e+01,
          -2.84284840e+01, -5.77517624e+01, -4.00312691e+01,
          -5.51263390e+01 ]
      - [ -6.92120266e+00, -1.77379875e+01, -2.44515915e+01,
          -2.66076202e+01, -5.22966042e+01, -3.60814209e+01,
          -5.27864609e+01 ]
      - [ -7.00637865e+00, -1.63246326e+01, -2.49100990e+01,
          -2.66975555e+01, -5.28531227e+01, -3.56254005e+01,
          -5.28428383e+01 ]
      - [ -6.93287754e+00, -1.69591255e+01, -2.33046455e+01,
          -2.56456280e+01, -5.01821785e+01, -3.44031944e+01,
          -5.11996498e+01 ]
      - [ -7.01489735e+00, -1.66810284e+01, -2.26551991e+01,
          -2.83070316e+01, -5.42485580e+01, -3.79426308e+01,
          -5.40420532e+01 ]
      - [ -6.93640757e+00, -1.71388321e+01, -2.15303707e+01,
          -2.44855423e+01, -4.75042763e+01, -3.30557404e+01,
          -4.94173775e+01 ]
      - [ -7.08150196e+00, -1.65948830e+01, -2.21937141e+01,
          -2.63972321e+01, -5.07700577e+01, -3.58075371e+01,
          -5.16640015e+01 ]
      - [ -7.14089632e+00, -1.73402634e+01, -2.51919289e+01,
          -2.90590725e+01, -5.80428581e+01, -3.80682068e+01,
          -5.61968803e+01 ]
      - [ -7.19821167e+00, -1.88300800e+01, -2.35982399e+01,
          -2.79176731e+01, -5.38775558e+01, -3.77411842e+01,
          -5.42265472e+01 ]
      - [ -7.03658056e+00, -1.69227581e+01, -2.38106499e+01,
          -2.86545963e+01, -5.50238495e+01, -3.71544075e+01,
          -5.56026459e+01 ]
      - [ -6.99626684e+00, -1.54087276e+01, -2.22989902e+01,
          -2.68963451e+01, -5.19311104e+01, -3.66064987e+01,
          -5.17639656e+01 ]
      - [ -6.97541428e+00, -1.62203083e+01, -2.34792442e+01,
          -2.73841095e+01, -5.58048172e+01, -3.81412163e+01,
          -5.28170547e+01 ]
      - [ -6.89628792e+00, -1.66269932e+01, -2.23188171e+01,
          -2.60718231e+01, -5.05044861e+01, -3.72579498e+01,
          -5.07536812e+01 ]
      - [ -7.09641743e+00, -1.84114857e+01, -2.35382290e+01,
          -2.73288021e+01, -5.27641678e+01, -3.66189194e+01,
          -5.55630760e+01 ]
      - [ -7.10470915e+00, -1.63067627e+01, -2.31446991e+01,
          -2.64611149e+01, -5.68857422e+01, -3.46273308e+01,
          -5.12640266e+01 ]
      - [ -6.53057623e+00, -1.37962875e+01, -2.04480095e+01,
          -2.14321632e+01, -4.24365997e+01, -2.84350300e+01,
          -4.34292183e+01 ]
      - [ -7.07582617e+00, -1.55543776e+01, -2.48369274e+01,
          -2.80641003e+01, -5.81198540e+01, -3.66615219e+01,
          -5.45149841e+01 ]
      - [ -6.84327126e+00, -1.54693842e+01, -2.13931046e+01,
          -2.40110989e+01, -4.78382797e+01, -3.18114529e+01,
          -4.67688789e+01 ]
      - [ -7.17045927e+00, -1.99445763e+01, -2.48932495e+01,
          -2.97453518e+01, -5.71997299e+01, -3.97457695e+01,
          -5.77850456e+01 ]
      - [ -7.07282972e+00, -1.86045017e+01, -2.30370941e+01,
          -2.69905300e+01, -5.20050659e+01, -3.67320938e+01,
          -5.52730789e+01 ]
      - [ -7.00928068e+00, -1.57844753e+01, -2.67059441e+01,
          -2.87739697e+01, -5.65999603e+01, -3.66792107e+01,
          -5.74362679e+01 ]
      - [ -6.79227591e+00, -1.59552326e+01, -2.35394077e+01,
          -2.67737312e+01, -5.20003662e+01, -3.75246658e+01,
          -5.29475136e+01 ]
      - [ -6.90825510e+00, -1.54870491e+01, -2.36829338e+01,
          -2.64995575e+01, -5.27516212e+01, -3.78713837e+01,
          -5.16424370e+01 ]
      - [ -6.30672455e+00, -1.40026369e+01, -2.16604481e+01,
          -2.46123066e+01, -4.79651680e+01, -3.16503201e+01,
          -4.82715759e+01 ]
      - [ -7.02307129e+00, -1.62406025e+01, -2.43225994e+01,
          -2.74240742e+01, -5.47415810e+01, -3.63102150e+01,
          -5.33260498e+01 ]
      - [ -6.77968788e+00, -1.52138062e+01, -2.42502747e+01,
          -2.69515533e+01, -5.30443230e+01, -3.56324463e+01,
          -5.27866058e+01 ]
      - [ -6.87304020e+00, -1.54630919e+01, -2.82543793e+01,
          -2.84158344e+01, -5.67510490e+01, -3.65485039e+01,
          -6.09742317e+01 ]
      - [ -6.85178471e+00, -1.55514250e+01, -2.43086720e+01,
          -2.99243317e+01, -5.71731339e+01, -3.77139015e+01,
          -5.77702904e+01 ]
      - [ -6.99971104e+00, -1.69953003e+01, -2.57549248e+01,
          -2.69857311e+01, -5.36219788e+01, -3.57200394e+01,
          -5.37988434e+01 ]
      - [ -6.83342314e+00, -1.70436306e+01, -2.29815464e+01,
          -2.60588894e+01, -5.05848923e+01, -3.45807877e+01,
          -5.28117332e+01 ]
      - [ -6.80056572e+00, -1.53988552e+01, -2.38513069e+01,
          -2.60781975e+01, -5.16847267e+01, -3.47500038e+01,
          -5.12051582e+01 ]
      - [ -6.66302633e+00, -1.60609913e+01, -2.18843708e+01,
          -2.46489658e+01, -4.79419250e+01, -3.39488716e+01,
          -4.94013977e+01 ]
      - [ -6.81846046e+00, -1.64055920e+01, -2.37905216e+01,
          -2.63277473e+01, -5.35336838e+01, -3.50539360e+01,
          -5.13937569e+01 ]
      - [ -6.87051392e+00, -1.52095671e+01, -2.54238567e+01,
          -2.67104855e+01, -5.57886581e+01, -3.50954018e+01,
          -5.27788696e+01 ]
      - [ -7.04937077e+00, -1.78150749e+01, -2.47998600e+01,
          -2.96553040e+01, -5.73689308e+01, -3.85972672e+01,
          -5.71205254e+01 ]
      - [ -6.93878746e+00, -1.63392315e+01, -2.61306210e+01,
          -2.91642742e+01, -5.68117256e+01, -3.73503914e+01,
          -6.25773735e+01 ]
      - [ -6.59899473e+00, -1.43787584e+01, -2.39716949e+01,
          -2.63763371e+01, -5.19850235e+01, -3.38384399e+01,
          -5.18220482e+01 ]
      - [ -6.73593283e+00, -1.59060335e+01, -2.57795525e+01,
          -2.60602894e+01, -5.22304230e+01, -3.40916176e+01,
          -5.24462547e+01 ]
      - [ -6.89408112e+00, -1.70490513e+01, -2.61402950e+01,
          -2.60053329e+01, -5.21362801e+01, -3.46468811e+01,
          -5.31828651e+01 ]
      - [ -6.52899742e+00, -1.38951445e+01, -2.27840443e+01,
          -2.53830013e+01, -4.94769936e+01, -3.23361816e+01,
          -5.14049263e+01 ]
      - [ -6.86718607e+00, -1.51910419e+01, -2.54052410e+01,
          -2.66865463e+01, -5.64779205e+01, -3.50657768e+01,
          -5.27327194e+01 ]
      - [ -6.77799416e+00, -1.63970814e+01, -2.37634296e+01,
          -2.53222389e+01, -5.09876595e+01, -3.39144135e+01,
          -4.99210472e+01 ]
      - [ -6.79442883e+00, -1.60217133e+01, -2.37334099e+01,
          -2.62862148e+01, -5.13256302e+01, -3.43111038e+01,
          -5.27240753e+01 ]
      - [ -6.91833353e+00, -1.58695097e+01, -2.82493382e+01,
          -2.68531895e+01, -5.45104599e+01, -3.51803398e+01,
          -5.52320671e+01 ]
      - [ -6.86860132e+00, -1.57706280e+01, -2.50662632e+01,
          -2.57732754e+01, -5.14497566e+01, -3.39772148e+01,
          -5.16492462e+01 ]
      - [ -6.85131788e+00, -1.75226860e+01, -2.31073380e+01,
          -2.77352428e+01, -5.33060989e+01, -3.65718040e+01,
          -5.38328896e+01 ]
      - [ -6.60962009e+00, -1.41411953e+01, -2.35100269e+01,
          -2.35039711e+01, -4.70396881e+01, -3.14493179e+01,
          -4.84538078e+01 ]
      - [ -6.72846317e+00, -1.49905462e+01, -2.22994270e+01,
          -2.45175285e+01, -4.85912971e+01, -3.26174316e+01,
          -4.80794868e+01 ]
      - [ -6.81055880e+00, -1.53119249e+01, -2.24334583e+01,
          -2.51987076e+01, -4.95595856e+01, -3.38228416e+01,
          -4.92197952e+01 ]
      - [ -6.93897247e+00, -1.61774788e+01, -2.38267155e+01,
          -2.65553551e+01, -5.17475739e+01, -3.47356453e+01,
          -5.47705002e+01 ]
      - [ -6.64927101e+00, -1.44634361e+01, -2.38575211e+01,
          -2.53838615e+01, -5.04754372e+01, -3.28053894e+01,
          -5.02516479e+01 ]
      - [ -6.83203888e+00, -1.66890106e+01, -2.29522324e+01,
          -2.71211281e+01, -5.35838737e+01, -3.66394577e+01,
          -5.21875343e+01 ]
      - [ -6.65454435e+00, -1.60035858e+01, -2.36249790e+01,
          -2.52013130e+01, -4.96157570e+01, -3.32728195e+01,
          -5.25926018e+01 ]
      - [ -6.90571356e+00, -1.60922394e+01, -2.36395721e+01,
          -2.52014465e+01, -4.96658478e+01, -3.32530861e+01,
          -5.08601685e+01 ]
      - [ -7.04891825e+00, -1.58339043e+01, -2.51169167e+01,
          -2.91639404e+01, -5.74262314e+01, -3.99015617e+01,
          -5.63604279e+01 ]
      - [ -6.73597050e+00, -1.54152479e+01, -2.34142036e+01,
          -2.53587093e+01, -5.01438751e+01, -3.35307617e+01,
          -5.00445328e+01 ]
      - [ -6.79612684e+00, -1.48748150e+01, -2.28291817e+01,
          -2.47251396e+01, -4.85430412e+01, -3.33628578e+01,
          -4.97762108e+01 ]
      - [ -6.69630671e+00, -1.49564037e+01, -2.47903309e+01,
          -2.71129589e+01, -5.90265312e+01, -3.56380768e+01,
          -5.30646057e+01 ]
      - [ -6.74860001e+00, -1.53629799e+01, -2.28775425e+01,
          -2.56629124e+01, -5.02055473e+01, -3.33526421e+01,
          -5.03668289e+01 ]
      - [ -6.83450937e+00, -1.77005444e+01, -2.34011021e+01,
          -2.62227230e+01, -5.23758087e+01, -3.54628181e+01,
          -5.10700645e+01 ]
      - [ -6.87685013e+00, -1.85420017e+01, -2.25865936e+01,
          -2.80631199e+01, -5.59923859e+01, -3.80302391e+01,
          -5.33907204e+01 ]
      - [ -6.65976572e+00, -1.53526163e+01, -2.29310989e+01,
          -2.53537407e+01, -4.95399399e+01, -3.34054108e+01,
          -5.07356071e+01 ]
      - [ -6.86103296e+00, -1.54344292e+01, -2.40571270e+01,
          -2.94668102e+01, -5.71111488e+01, -3.81947365e+01,
          -5.63226852e+01 ]
      - [ -6.61263371e+00, -1.39918289e+01, -2.40498524e+01,
          -2.53788319e+01, -5.22597580e+01, -3.32868156e+01,
          -5.00997810e+01 ]
      - [ -6.70347548e+00, -1.69194908e+01, -2.26716309e+01,
          -2.53952065e+01, -5.15530472e+01, -3.40373764e+01,
          -4.94358177e+01 ]
      - [ -6.87594986e+00, -1.81551628e+01, -2.48408546e+01,
          -2.67925282e+01, -5.27714043e+01, -3.62663002e+01,
          -5.32510567e+01 ]
      - [ -6.88962984e+00, -1.59145460e+01, -2.61015930e+01,
          -2.77871609e+01, -5.48575897e+01, -3.71941185e+01,
          -5.54821892e+01 ]
      - [ -6.49432707e+00, -1.37328758e+01, -2.28786392e+01,
          -2.43576450e+01, -4.79779892e+01, -3.12657909e+01,
          -5.06897469e+01 ]
      - [ -6.91582441e+00, -1.71772804e+01, -2.47596550e+01,
          -2.52603588e+01, -5.03862381e+01, -3.64654732e+01,
          -5.10582428e+01 ]
      - [ -6.81546783e+00, -1.66073914e+01, -2.62126045e+01,
          -2.61908150e+01, -5.56786461e+01, -3.45929832e+01,
          -5.23932228e+01 ]
      - [ -6.89558887e+00, -2.07134075e+01, -2.43321743e+01,
          -2.77019997e+01, -5.40647392e+01, -4.04042778e+01,
          -5.40665855e+01 ]
      - [ -6.99202585e+00, -1.67679806e+01, -2.31304703e+01,
          -2.62727623e+01, -5.09853325e+01, -3.55738754e+01,
          -5.28903275e+01 ]
      - [ -6.69760561e+00, -1.47759523e+01, -2.42984715e+01,
          -2.58465595e+01, -5.73329239e+01, -3.41410141e+01,
          -5.09190750e+01 ]
      - [ -6.87721252e+00, -1.54818277e+01, -2.71320667e+01,
          -2.58451500e+01, -5.23578529e+01, -3.35871048e+01,
          -5.38621178e+01 ]
      - [ -6.86581135e+00, -1.51242752e+01, -2.37899246e+01,
          -2.63196507e+01, -5.13754120e+01, -3.39555130e+01,
          -5.44961624e+01 ]
      - [ -6.67848492e+00, -1.55715160e+01, -2.50759583e+01,
          -2.62454796e+01, -5.19242592e+01, -3.71579361e+01,
          -5.35756302e+01 ]
      - [ -6.99016619e+00, -1.65086403e+01, -2.54393177e+01,
          -2.67629261e+01, -5.65444641e+01, -3.71399269e+01,
          -5.28643646e+01 ]
      - [ -6.77543879e+00, -1.50965366e+01, -2.35476551e+01,
          -2.58738289e+01, -5.25684242e+01, -3.62970734e+01,
          -5.05941200e+01 ]
      - [ -7.04704332e+00, -1.62627201e+01, -2.44934444e+01,
          -2.79021301e+01, -5.50501022e+01, -3.66888504e+01,
          -5.41808891e+01 ]
      - [ -6.72619438e+00, -1.55557384e+01, -2.29318981e+01,
          -2.47170010e+01, -4.85651970e+01, -3.24992027e+01,
          -5.00768623e+01 ]
      - [ -6.63006496e+00, -1.53866978e+01, -2.39305534e+01,
          -2.61881886e+01, -5.18500099e+01, -3.38853226e+01,
          -5.14257011e+01 ]
      - [ -6.82052374e+00, -1.49293795e+01, -2.28010445e+01,
          -2.47055206e+01, -4.85272141e+01, -3.35128403e+01,
          -4.94871712e+01 ]
      - [ -6.59617090e+00, -1.46371222e+01, -2.35722179e+01,
          -2.59860344e+01, -5.10419121e+01, -3.34557037e+01,
          -5.11929169e+01 ]
      - [ -6.77788353e+00, -1.54210653e+01, -2.29726982e+01,
          -2.57921200e+01, -5.04318237e+01, -3.35129318e+01,
          -5.06298637e+01 ]
      - [ -6.87014246e+00, -1.51918125e+01, -2.39226780e+01,
          -2.66906471e+01, -5.22881050e+01, -3.55764503e+01,
          -5.24066772e+01 ]
      - [ -6.86496449e+00, -1.58000851e+01, -2.45264854e+01,
          -2.64724255e+01, -5.31974411e+01, -3.54178047e+01,
          -5.20169487e+01 ]
      - [ -6.80988359e+00, -1.66388817e+01, -2.62878246e+01,
          -2.61021366e+01, -5.57138824e+01, -3.45299454e+01,
          -5.22976570e+01 ]
      - [ -6.63950348e+00, -1.51250792e+01, -2.28098469e+01,
          -2.40621891e+01, -4.79071083e+01, -3.24010696e+01,
          -4.77893677e+01 ]
      - [ -6.59034681e+00, -1.52108536e+01, -2.20235977e+01,
          -2.47494774e+01, -4.81779404e+01, -3.25080986e+01,
          -4.93961601e+01 ]
      - [ -6.69534445e+00, -1.48478727e+01, -2.34373169e+01,
          -2.50422878e+01, -5.05089035e+01, -3.45077477e+01,
          -4.93270454e+01 ]
      - [ -6.76377010e+00, -1.59490776e+01, -2.29574528e+01,
          -2.44409847e+01, -4.88602715e+01, -3.32061272e+01,
          -4.82753830e+01 ]
      - [ -6.88952780e+00, -1.80007000e+01, -2.37055588e+01,
          -2.72824669e+01, -5.34086227e+01, -3.66449280e+01,
          -5.29424286e+01 ]
      - [ -6.69140387e+00, -1.52871943e+01, -2.36354103e+01,
          -2.74051342e+01, -5.29607048e+01, -3.57066154e+01,
          -5.42683258e+01 ]
      - [ -6.73171902e+00, -1.52427931e+01, -2.29025402e+01,
          -2.53406448e+01, -5.00604973e+01, -3.35649757e+01,
          -4.96421814e+01 ]
      - [ -6.63175392e+00, -1.51549387e+01, -2.63671341e+01,
          -2.48686275e+01, -5.12211189e+01, -3.29719467e+01,
          -5.06172600e+01 ]
      - [ -6.73105574e+00, -1.79590950e+01, -2.52978077e+01,
          -2.42988052e+01, -4.91007462e+01, -3.34714661e+01,
          -5.15610428e+01 ]
      - [ -6.68954945e+00, -1.53222456e+01, -2.41173248e+01,
          -2.55424385e+01, -5.04238205e+01, -3.35371666e+01,
          -5.15343666e+01 ]
      - [ -6.74335289e+00, -1.46938610e+01, -2.50301838e+01,
          -2.72938461e+01, -5.42221336e+01, -3.46433678e+01,
          -5.35775261e+01 ]
      - [ -6.85057449e+00, -1.52595186e+01, -2.44998360e+01,
          -3.23642159e+01, -6.09594002e+01, -4.08236656e+01,
          -6.14355354e+01 ]
      - [ -6.54391432e+00, -1.43169107e+01, -2.28547821e+01,
          -2.44389610e+01, -4.80859146e+01, -3.16127319e+01,
          -5.24406281e+01 ]
      - [ -6.87391806e+00, -1.57226658e+01, -2.57253704e+01,
          -2.60499134e+01, -5.20363846e+01, -3.41348076e+01,
          -5.27967567e+01 ]
      - [ -7.07126045e+00, -1.80924416e+01, -2.57870541e+01,
          -2.61792355e+01, -5.30346451e+01, -3.55070724e+01,
          -5.22584000e+01 ]
      - [ -6.96626329e+00, -1.68906898e+01, -2.57425346e+01,
          -2.70166397e+01, -5.42614059e+01, -3.57110786e+01,
          -5.34937592e+01 ]
      - [ -6.36093950e+00, -1.34604578e+01, -2.16788483e+01,
          -2.27129784e+01, -4.51230087e+01, -3.05326195e+01,
          -4.54361763e+01 ]
      - [ -6.50343609e+00, -1.52567377e+01, -2.47287025e+01,
          -2.33559189e+01, -4.74054070e+01, -3.10169106e+01,
          -4.95236359e+01 ]
      - [ -6.66875982e+00, -1.60692844e+01, -2.58002338e+01,
          -2.49732075e+01, -5.10646782e+01, -3.36153946e+01,
          -5.04999619e+01 ]
      - [ -6.88491821e+00, -1.65678177e+01, -2.28579559e+01,
          -2.41993141e+01, -4.97043076e+01, -3.30261955e+01,
          -4.77376442e+01 ]
      - [ -6.54978466e+00, -1.40560894e+01, -2.16538963e+01,
          -2.34212475e+01, -4.97292480e+01, -3.14270191e+01,
          -4.59590836e+01 ]
      - [ -6.85263395e+00, -1.73629436e+01, -2.53743820e+01,
          -2.78746071e+01, -5.58313293e+01, -3.76461792e+01,
          -5.45351906e+01 ]
      - [ -6.63466167e+00, -1.84718723e+01, -2.26574612e+01,
          -2.43568821e+01, -4.82311325e+01, -3.37460175e+01,
          -4.81909294e+01 ]
      - [ -6.26922178e+00, -1.39094124e+01, -2.17745476e+01,
          -2.46177750e+01, -4.83518333e+01, -3.16784096e+01,
          -4.80224724e+01 ]
      - [ -7.03928709e+00, -1.82684212e+01, -2.59789867e+01,
          -2.72400627e+01, -5.39699020e+01, -3.63920784e+01,
          -5.46207886e+01 ]
      - [ -6.77671480e+00, -1.53806906e+01, -2.37581272e+01,
          -2.55369225e+01, -5.16972847e+01, -3.39383583e+01,
          -5.02093201e+01 ]
      - [ -6.59164381e+00, -1.46174803e+01, -2.25571632e+01,
          -2.55796146e+01, -4.97231483e+01, -3.35323563e+01,
          -5.06327133e+01 ]
      - [ -6.67706013e+00, -1.47418604e+01, -2.40684910e+01,
          -2.55940533e+01, -5.38368530e+01, -3.38335991e+01,
          -5.04258690e+01 ]
      - [ -6.86027956e+00, -1.65678921e+01, -2.53028374e+01,
          -2.82398987e+01, -5.61441193e+01, -3.80680580e+01,
          -5.50660362e+01 ]
      - [ -6.71900272e+00, -1.59702482e+01, -2.39434299e+01,
          -3.02905922e+01, -5.79785042e+01, -3.90565605e+01,
          -5.75998764e+01 ]
      - [ -6.90010309e+00, -1.64609337e+01, -2.31082458e+01,
          -2.53740444e+01, -5.04501648e+01, -3.36064796e+01,
          -4.97194748e+01 ]
      - [ -6.50209475e+00, -1.70008888e+01, -2.33755226e+01,
          -2.48963947e+01, -4.96175842e+01, -3.33982239e+01,
          -4.92180443e+01 ]
      - [ -6.33535099e+00, -1.62628555e+01, -2.28441887e+01,
          -2.38120365e+01, -4.76696320e+01, -3.25568733e+01,
          -4.73530922e+01 ]
      - [ -6.88892365e+00, -1.64424629e+01, -2.47798004e+01,
          -2.66962395e+01, -5.24372482e+01, -3.49234581e+01,
          -5.49956436e+01 ]
      - [ -6.76425886e+00, -1.66973572e+01, -2.64594154e+01,
          -2.69534149e+01, -5.38758087e+01, -3.66582909e+01,
          -5.41836510e+01 ]
      - [ -6.78605270e+00, -1.65452347e+01, -2.38995953e+01,
          -2.83749924e+01, -5.53888359e+01, -3.73717117e+01,
          -5.46074028e+01 ]
      - [ -6.77345324e+00, -1.65465279e+01, -2.33383942e+01,
          -2.65935631e+01, -5.22051163e+01, -3.52714157e+01,
          -5.17203026e+01 ]
      - [ -6.71429825e+00, -1.61056252e+01, -2.24428425e+01,
          -2.48533764e+01, -4.92677917e+01, -3.32359619e+01,
          -4.86231422e+01 ]
      - [ -6.50785303e+00, -1.42747869e+01, -2.21133995e+01,
          -2.36816654e+01, -4.74254684e+01, -3.13662262e+01,
          -4.66809006e+01 ]
      - [ -6.83476734e+00, -1.64173450e+01, -2.27899399e+01,
          -2.64547138e+01, -5.20375900e+01, -3.85549126e+01,
          -5.11562157e+01 ]
      - [ -7.07323503e+00, -1.63818436e+01, -2.53041611e+01,
          -2.82161160e+01, -5.56003838e+01, -3.66322975e+01,
          -5.51453934e+01 ]
      - [ -6.82391405e+00, -1.52247992e+01, -2.45020905e+01,
          -2.71230259e+01, -5.40017319e+01, -3.55514832e+01,
          -5.29986839e+01 ]
      - [ -6.44288492e+00, -1.55823345e+01, -2.07266006e+01,
          -2.36545277e+01, -4.82504883e+01, -3.35766449e+01,
          -4.58491783e+01 ]
      - [ -7.04884148e+00, -1.58203287e+01, -2.59206314e+01,
          -2.86869793e+01, -5.60435562e+01, -3.89762306e+01,
          -5.71412506e+01 ]
      - [ -6.70495749e+00, -1.76566582e+01, -2.66411934e+01,
          -2.44267521e+01, -5.03642235e+01, -3.42900276e+01,
          -5.02561989e+01 ]
      - [ -6.80477571e+00, -1.68245430e+01, -2.35699291e+01,
          -2.59925518e+01, -5.07772446e+01, -3.46380959e+01,
          -5.32632713e+01 ]
      - [ -7.20684624e+00, -1.91838875e+01, -2.58563747e+01,
          -2.98469124e+01, -5.86935806e+01, -3.95188103e+01,
          -5.77720451e+01 ]
      - [ -6.72616339e+00, -1.70004005e+01, -2.39595413e+01,
          -2.48999195e+01, -5.00840073e+01, -3.35509186e+01,
          -4.94546471e+01 ]
      - [ -6.89161587e+00, -1.61316433e+01, -2.36240311e+01,
          -2.52936230e+01, -4.97720833e+01, -3.33859634e+01,
          -5.13808632e+01 ]
      - [ -6.57049799e+00, -1.57376423e+01, -2.29297962e+01,
          -2.56294880e+01, -5.04681969e+01, -3.35092163e+01,
          -5.01070518e+01 ]
      - [ -6.90875721e+00, -1.66806812e+01, -2.64350300e+01,
          -2.74039726e+01, -5.44783669e+01, -3.60783424e+01,
          -5.49848518e+01 ]
      - [ -6.80249834e+00, -1.61352005e+01, -2.35982037e+01,
          -2.82488136e+01, -5.55201721e+01, -3.72149315e+01,
          -5.42072601e+01 ]
      - [ -6.71331692e+00, -1.62195702e+01, -2.44528484e+01,
          -2.50169907e+01, -5.00013275e+01, -3.36456375e+01,
          -5.02191849e+01 ]
      - [ -6.83521366e+00, -1.47926378e+01, -2.36125832e+01,
          -2.60851746e+01, -5.32083092e+01, -3.43064270e+01,
          -5.09393730e+01 ]
      - [ -6.91568089e+00, -1.93592472e+01, -2.42021351e+01,
          -2.77779350e+01, -5.37719345e+01, -3.82135506e+01,
          -5.61884079e+01 ]
      - [ -6.25352526e+00, -1.39195089e+01, -2.35478783e+01,
          -2.47673779e+01, -4.89552803e+01, -3.23583717e+01,
          -5.03422508e+01 ]
      - [ -6.83604383e+00, -1.47664776e+01, -2.46517563e+01,
          -2.60646477e+01, -5.14243660e+01, -3.36561356e+01,
          -5.43229942e+01 ]
      - [ -6.70438385e+00, -1.48823671e+01, -2.34671497e+01,
          -2.50959129e+01, -5.06649933e+01, -3.44027901e+01,
          -4.94170456e+01 ]
      - [ -6.65723658e+00, -1.53616114e+01, -2.59624748e+01,
          -2.67458363e+01, -5.33893051e+01, -3.85135307e+01,
          -5.35112381e+01 ]
      - [ -6.69505358e+00, -1.45072432e+01, -2.44059315e+01,
          -2.60164661e+01, -5.12373161e+01, -3.32726440e+01,
          -5.32062225e+01 ]
      - [ -7.01811314e+00, -1.87534256e+01, -2.37848206e+01,
          -2.64344883e+01, -5.20562401e+01, -3.66081276e+01,
          -5.17665749e+01 ]
      - [ -6.71130514e+00, -1.61314030e+01, -2.48552647e+01,
          -2.56909618e+01, -5.09943848e+01, -3.39741478e+01,
          -5.23807259e+01 ]
      - [ -6.48822641e+00, -1.50663500e+01, -2.08522148e+01,
          -2.30141907e+01, -4.50870247e+01, -3.15473175e+01,
          -4.56533852e+01 ]
      - [ -7.00481892e+00, -1.90325298e+01, -2.79221859e+01,
          -2.77607613e+01, -5.79043503e+01, -3.73675156e+01,
          -5.56072655e+01 ]
      - [ -6.89651060e+00, -1.58576403e+01, -2.29428120e+01,
          -2.58181381e+01, -5.02193184e+01, -3.37685509e+01,
          -5.18010712e+01 ]
      - [ -6.81229115e+00, -1.49506426e+01, -2.56584187e+01,
          -2.65572510e+01, -5.34824791e+01, -3.49401627e+01,
          -5.27735405e+01 ]
      - [ -6.84442902e+00, -1.60418568e+01, -2.70468636e+01,
          -2.95534668e+01, -5.92061348e+01, -3.79634323e+01,
          -5.78882408e+01 ]
      - [ -6.82206488e+00, -1.60354443e+01, -2.32941875e+01,
          -2.65609627e+01, -5.15322990e+01, -3.45809593e+01,
          -5.27281952e+01 ]
      - [ -6.61517000e+00, -1.63335571e+01, -2.17016792e+01,
          -2.54081440e+01, -4.89850388e+01, -3.61491165e+01,
          -5.05361862e+01 ]
      - [ -6.54090118e+00, -1.62639942e+01, -2.29348888e+01,
          -2.43418388e+01, -4.88899040e+01, -3.25729942e+01,
          -4.80686455e+01 ]
      - [ -6.88737392e+00, -1.63392792e+01, -2.41903954e+01,
          -2.95974751e+01, -5.76273079e+01, -3.87612495e+01,
          -5.65458298e+01 ]
      - [ -6.87519646e+00, -1.54195127e+01, -2.34939213e+01,
          -2.62461758e+01, -5.52249374e+01, -3.54156265e+01,
          -5.11163597e+01 ]
      - [ -6.98928928e+00, -1.79335613e+01, -2.33424206e+01,
          -2.64112968e+01, -5.43693962e+01, -3.53897591e+01,
          -5.12892113e+01 ]
      - [ -6.95723152e+00, -1.62052994e+01, -2.45202122e+01,
          -2.78289185e+01, -5.45358887e+01, -3.65362854e+01,
          -5.42148857e+01 ]
      - [ -6.82589197e+00, -1.66816521e+01, -2.53584347e+01,
          -2.53895588e+01, -5.08602676e+01, -3.37305298e+01,
          -5.16325722e+01 ]
      - [ -6.65330458e+00, -1.46605759e+01, -2.29164391e+01,
          -2.50491943e+01, -4.95611534e+01, -3.29744606e+01,
          -4.92451401e+01 ]
      - [ -6.96490240e+00, -1.61687565e+01, -2.40692329e+01,
          -2.62507668e+01, -5.48937531e+01, -3.49821091e+01,
          -5.14112358e+01 ]
      - [ -6.57345629e+00, -1.42764664e+01, -2.30350285e+01,
          -2.83788452e+01, -5.42575493e+01, -3.59159279e+01,
          -5.47034454e+01 ]
      - [ -6.38295221e+00, -1.60607471e+01, -2.27025719e+01,
          -2.27684898e+01, -4.55115509e+01, -3.08026142e+01,
          -4.76056709e+01 ]
      - [ -6.90851545e+00, -1.55429192e+01, -2.70092487e+01,
          -2.90612144e+01, -5.75174408e+01, -3.73253250e+01,
          -5.73782539e+01 ]
      - [ -6.47360563e+00, -1.55947485e+01, -2.54040775e+01,
          -2.48541279e+01, -5.00405388e+01, -3.27290154e+01,
          -5.10946846e+01 ]
      - [ -7.06133366e+00, -1.74335957e+01, -2.48435516e+01,
          -2.69801998e+01, -5.30489502e+01, -3.59419556e+01,
          -5.35480423e+01 ]
      - [ -6.52650547e+00, -1.68373928e+01, -2.25905056e+01,
          -2.33851357e+01, -4.63973198e+01, -3.18047924e+01,
          -4.78958664e+01 ]
      - [ -6.82600784e+00, -1.71178036e+01, -2.35434628e+01,
          -2.49632797e+01, -4.92368851e+01, -3.50958290e+01,
          -5.08303604e+01 ]
      - [ -6.80963182e+00, -1.65521355e+01, -2.59779282e+01,
          -2.61302986e+01, -5.40748863e+01, -3.44897346e+01,
          -5.21959457e+01 ]
      - [ -7.00618315e+00, -1.67845459e+01, -2.31704159e+01,
          -2.63839283e+01, -5.11839867e+01, -3.58598099e+01,
          -5.27144852e+01 ]
      - [ -6.72904682e+00, -1.45482168e+01, -2.41307659e+01,
          -2.49915257e+01, -4.95538597e+01, -3.23347473e+01,
          -5.25731430e+01 ]
      - [ -6.28843927e+00, -1.38820400e+01, -2.14401321e+01,
          -2.42653427e+01, -4.75378876e+01, -3.13525963e+01,
          -4.74007874e+01 ]
      - [ -7.00583553e+00, -1.57477589e+01, -2.66967316e+01,
          -2.88112621e+01, -5.66479645e+01, -3.66941376e+01,
          -5.75056915e+01 ]
      - [ -6.96388388e+00, -1.61857872e+01, -2.38218689e+01,
          -2.61743374e+01, -5.22393036e+01, -3.46131668e+01,
          -5.12354469e+01 ]
      - [ -6.89264822e+00, -1.81471252e+01, -2.39850216e+01,
          -2.73995190e+01, -5.51836891e+01, -3.64993248e+01,
          -5.30994682e+01 ]
      - [ -6.79951334e+00, -1.57234173e+01, -2.58771648e+01,
          -2.64561558e+01, -5.26733589e+01, -3.49679375e+01,
          -5.37937622e+01 ]
      - [ -6.90150928e+00, -2.21043549e+01, -2.46503887e+01,
          -2.67232018e+01, -5.32357826e+01, -3.81750336e+01,
          -5.25164375e+01 ]
      - [ -6.81304359e+00, -1.65970516e+01, -2.64691486e+01,
          -2.61911259e+01, -5.75859871e+01, -3.45918274e+01,
          -5.25212822e+01 ]
      - [ -6.76282454e+00, -1.48956909e+01, -2.59915028e+01,
          -2.70418262e+01, -5.35691643e+01, -3.48291168e+01,
          -5.54872398e+01 ]
      - [ -6.84075117e+00, -1.69196568e+01, -2.32237663e+01,
          -2.61919174e+01, -5.10273552e+01, -3.49974060e+01,
          -5.16450768e+01 ]
      - [ -6.93774128e+00, -1.61408653e+01, -2.23460522e+01,
          -2.52855492e+01, -4.91025009e+01, -3.33777046e+01,
          -5.21390495e+01 ]
      - [ -6.75653934e+00, -1.64552212e+01, -2.21718044e+01,
          -2.61285419e+01, -5.06585655e+01, -3.54544411e+01,
          -5.05940933e+01 ]
      - [ -6.73367357e+00, -1.47176752e+01, -2.47409782e+01,
          -2.81421566e+01, -5.49797096e+01, -3.55084572e+01,
          -5.48853302e+01 ]
      - [ -6.61225605e+00, -1.46739769e+01, -2.16028614e+01,
          -2.36797485e+01, -4.97977371e+01, -3.23679657e+01,
          -4.63215294e+01 ]
      - [ -6.98853827e+00, -1.66406040e+01, -2.65830956e+01,
          -2.84701061e+01, -5.66851273e+01, -3.84468575e+01,
          -5.61421356e+01 ]
      - [ -6.79825544e+00, -1.60743389e+01, -2.39332924e+01,
          -2.62330303e+01, -5.14981461e+01, -3.51407166e+01,
          -5.19098473e+01 ]
      - [ -6.67944193e+00, -1.47432699e+01, -2.36909809e+01,
          -2.35654106e+01, -4.80831795e+01, -3.09521236e+01,
          -4.72860374e+01 ]
      - [ -6.94680882e+00, -1.96392155e+01, -2.54153442e+01,
          -2.84286442e+01, -5.60131073e+01, -3.84185410e+01,
          -5.55051384e+01 ]
      - [ -6.78855991e+00, -1.48269310e+01, -2.48185539e+01,
          -2.48081589e+01, -4.98219032e+01, -3.22266121e+01,
          -5.01755486e+01 ]
      - [ -6.40545988e+00, -1.63887348e+01, -2.36055965e+01,
          -2.41008549e+01, -4.80730133e+01, -3.23028259e+01,
          -4.87303925e+01 ]
      - [ -6.79667568e+00, -1.58637581e+01, -2.57087135e+01,
          -2.67069378e+01, -5.29196548e+01, -3.57061272e+01,
          -5.52309341e+01 ]
      - [ -6.89641953e+00, -1.84964237e+01, -2.40007286e+01,
          -2.49689236e+01, -5.22030258e+01, -3.70788689e+01,
          -4.94558029e+01 ]
      - [ -6.92310286e+00, -1.84784565e+01, -2.62788429e+01,
          -2.72217789e+01, -5.68788528e+01, -3.81053696e+01,
          -5.39735832e+01 ]
      - [ -6.92003584e+00, -1.69620228e+01, -2.49682999e+01,
          -2.70400696e+01, -5.32499352e+01, -3.57277641e+01,
          -5.35877151e+01 ]
      - [ -6.91475868e+00, -1.60152092e+01, -2.59407253e+01,
          -2.67137604e+01, -5.33404579e+01, -3.51219521e+01,
          -5.34396057e+01 ]
      - [ -6.93725061e+00, -1.68713913e+01, -2.34092846e+01,
          -2.65190334e+01, -5.51034050e+01, -3.51658211e+01,
          -5.14835510e+01 ]
      - [ -6.84421921e+00, -1.59341202e+01, -2.59869366e+01,
          -2.67728233e+01, -5.33165703e+01, -3.50956306e+01,
          -5.37901764e+01 ]
      - [ -5.58626795e+00, -1.27213774e+01, -1.79473839e+01,
          -1.96210880e+01, -3.90307045e+01, -2.60708771e+01,
          -3.85739594e+01 ]
      - [ -5.53868341e+00, -1.41231012e+01, -1.76484699e+01,
          -2.01350613e+01, -4.01080704e+01, -2.75404263e+01,
          -3.90879326e+01 ]
      - [ -6.10633278e+00, -1.37667141e+01, -2.06603374e+01,
          -2.09104290e+01, -4.17119904e+01, -2.78524361e+01,
          -4.34193954e+01 ]
      - [ -6.15812159e+00, -1.43580952e+01, -1.92657299e+01,
          -2.24973927e+01, -4.34426994e+01, -3.21022797e+01,
          -4.44403458e+01 ]
      - [ -5.45923042e+00, -1.26613111e+01, -1.81832619e+01,
          -1.98226128e+01, -3.88701897e+01, -2.65552769e+01,
          -4.00556679e+01 ]
      - [ -5.86462593e+00, -1.46667957e+01, -1.93264408e+01,
          -2.26501637e+01, -4.38468475e+01, -2.99906654e+01,
          -4.41766586e+01 ]
      - [ -5.71722221e+00, -1.22967739e+01, -1.78064404e+01,
          -1.82108669e+01, -3.62596588e+01, -2.43607502e+01,
          -3.75005875e+01 ]
      - [ -5.55565405e+00, -1.18003807e+01, -1.99445286e+01,
          -2.20029583e+01, -4.30847054e+01, -2.94047909e+01,
          -4.37959595e+01 ]
      - [ -5.72364092e+00, -1.20233335e+01, -1.82568588e+01,
          -1.90443897e+01, -3.76960640e+01, -2.50809898e+01,
          -4.07788811e+01 ]
      - [ -6.21250296e+00, -1.38763685e+01, -2.19457855e+01,
          -2.29024124e+01, -4.88218384e+01, -2.98436069e+01,
          -4.53269730e+01 ]
      - [ -5.48270321e+00, -1.33387594e+01, -1.67733936e+01,
          -1.78051357e+01, -3.51644363e+01, -2.46806622e+01,
          -3.61118126e+01 ]
      - [ -5.87224483e+00, -1.29565020e+01, -1.98337383e+01,
          -2.12955856e+01, -4.24717484e+01, -2.94650230e+01,
          -4.20345612e+01 ]
      - [ -6.07840347e+00, -1.33433104e+01, -1.99584694e+01,
          -2.11929741e+01, -4.20438766e+01, -2.78833828e+01,
          -4.21985855e+01 ]
      - [ -6.02168179e+00, -1.34363470e+01, -2.29125328e+01,
          -2.35063267e+01, -4.70240860e+01, -3.02268829e+01,
          -4.71037407e+01 ]
      - [ -6.08088636e+00, -1.58607616e+01, -1.98168354e+01,
          -2.03798161e+01, -4.11114388e+01, -3.41947823e+01,
          -4.06436348e+01 ]
      - [ -6.01045942e+00, -1.42578659e+01, -1.91404648e+01,
          -2.22749805e+01, -4.31948929e+01, -2.94047642e+01,
          -4.35136147e+01 ]
      - [ -6.19993448e+00, -1.37010899e+01, -2.14849186e+01,
          -2.26060505e+01, -4.46682129e+01, -2.97818260e+01,
          -4.63600998e+01 ]
      - [ -5.90100479e+00, -1.38319492e+01, -1.83816757e+01,
          -2.05634689e+01, -4.00587196e+01, -2.78076553e+01,
          -4.15939903e+01 ]
      - [ -6.37358141e+00, -1.53126011e+01, -2.16360950e+01,
          -2.24405231e+01, -4.46356659e+01, -3.02458763e+01,
          -4.51349106e+01 ]
      - [ -5.84086704e+00, -1.36725063e+01, -2.20992756e+01,
          -2.21149349e+01, -4.42474861e+01, -2.91044636e+01,
          -4.57237740e+01 ]
      - [ -6.51280355e+00, -1.60793781e+01, -2.08582821e+01,
          -2.23798866e+01, -4.71445389e+01, -3.29496231e+01,
          -4.39998970e+01 ]
      - [ -5.86101198e+00, -1.25588045e+01, -1.80216351e+01,
          -1.96358871e+01, -3.84996567e+01, -2.59189663e+01,
          -3.98115616e+01 ]
      - [ -6.23669386e+00, -1.37059813e+01, -2.00407944e+01,
          -2.22396297e+01, -4.33804512e+01, -2.91084614e+01,
          -4.67345200e+01 ]
      - [ -5.45557308e+00, -1.27657490e+01, -1.82243538e+01,
          -1.96243896e+01, -3.87137451e+01, -2.64807415e+01,
          -3.91833649e+01 ]
      - [ -6.36052656e+00, -1.52214327e+01, -2.14591637e+01,
          -2.35453720e+01, -4.60608482e+01, -3.12470951e+01,
          -4.78710480e+01 ]
      - [ -5.62829971e+00, -1.37061443e+01, -1.69219627e+01,
          -2.12892303e+01, -4.04004135e+01, -2.85040588e+01,
          -4.26448250e+01 ]
      - [ -6.13562298e+00, -1.43129025e+01, -2.12945557e+01,
          -2.32514305e+01, -4.58916664e+01, -3.24568291e+01,
          -4.58511505e+01 ]
      - [ -5.77078104e+00, -1.22571507e+01, -1.78747177e+01,
          -1.85491428e+01, -3.67761650e+01, -2.47191982e+01,
          -3.85187378e+01 ]
      - [ -5.53541899e+00, -1.22726345e+01, -1.69840298e+01,
          -1.84874840e+01, -3.64697075e+01, -2.61600513e+01,
          -3.66951141e+01 ]
      - [ -5.92894316e+00, -1.36389141e+01, -2.01487751e+01,
          -2.07664547e+01, -4.12637291e+01, -2.76367245e+01,
          -4.25108795e+01 ]
      - [ -6.34897947e+00, -1.44885635e+01, -2.12652912e+01,
          -2.09364586e+01, -4.20975761e+01, -3.04244537e+01,
          -4.31252594e+01 ]
      - [ -5.74628687e+00, -1.44687662e+01, -1.84320183e+01,
          -1.92037392e+01, -3.80217323e+01, -2.65578957e+01,
          -4.22201881e+01 ]
      - [ -6.30811405e+00, -1.47865772e+01, -1.97815075e+01,
          -2.41331177e+01, -4.61235161e+01, -3.16307507e+01,
          -4.74646378e+01 ]
      - [ -6.08887196e+00, -1.41486912e+01, -1.87194672e+01,
          -2.10662479e+01, -4.09788322e+01, -2.81406460e+01,
          -4.25852890e+01 ]
      - [ -6.17370319e+00, -1.32921677e+01, -2.01157627e+01,
          -2.06667900e+01, -4.10624924e+01, -2.73239765e+01,
          -4.34238739e+01 ]
      - [ -6.33399296e+00, -1.52564812e+01, -2.13027382e+01,
          -2.34493294e+01, -4.58253632e+01, -3.11357155e+01,
          -5.32956238e+01 ]
      - [ -5.67889738e+00, -1.23963060e+01, -2.00982170e+01,
          -1.96820965e+01, -4.03442612e+01, -2.59271317e+01,
          -3.96923485e+01 ]
      - [ -5.93131351e+00, -1.38156099e+01, -1.89663067e+01,
          -2.08271675e+01, -4.24887238e+01, -2.78488865e+01,
          -4.07387810e+01 ]
      - [ -6.57938528e+00, -1.66953049e+01, -2.16886272e+01,
          -2.43937225e+01, -4.82320023e+01, -3.39534187e+01,
          -4.75483932e+01 ]
      - [ -5.82785940e+00, -1.48278294e+01, -1.74567413e+01,
          -2.32604504e+01, -4.37888107e+01, -3.08260021e+01,
          -4.42416267e+01 ]
      - [ -5.86021042e+00, -1.27922106e+01, -1.92558422e+01,
          -2.15642452e+01, -4.19786911e+01, -2.96567478e+01,
          -4.43430176e+01 ]
      - [ -5.96024132e+00, -1.37420454e+01, -2.06091805e+01,
          -2.04922676e+01, -4.10645599e+01, -2.73875256e+01,
          -4.26253662e+01 ]
      - [ -5.98845100e+00, -1.38246107e+01, -1.87525082e+01,
          -2.17840691e+01, -4.35862617e+01, -3.21037254e+01,
          -4.20761757e+01 ]
      - [ -6.03565788e+00, -1.30716324e+01, -2.08715858e+01,
          -2.19110851e+01, -4.33096008e+01, -2.85961113e+01,
          -4.54275208e+01 ]
      - [ -5.84907818e+00, -1.37996216e+01, -1.91663380e+01,
          -2.19096947e+01, -4.26109047e+01, -2.90482121e+01,
          -4.30869255e+01 ]
      - [ -5.63540125e+00, -1.25322237e+01, -2.03179932e+01,
          -1.89831886e+01, -3.86560440e+01, -2.52493935e+01,
